302 30
medicamento 0.67244935 0.15416153 -0.39745206 -0.0928309 -0.0018978496 -0.23741992 0.23129074 0.36791664 0.14478296 -0.2867823 -0.13517167 -0.3699165 -0.040269945 0.0025745635 0.012302665 0.70095223 0.047779996 -0.0008498521 0.10695085 0.28415644 0.33058527 0.23004328 0.071722426 -0.14313963 0.6046916 -0.31948867 -0.02722315 -0.5582951 -0.057727642 0.30404654
domicilio 0.5916808 0.17536087 -0.4502694 -0.10860813 0.067968376 -0.2577009 0.23116277 0.45500425 0.09649563 -0.26133886 -0.08411333 -0.32062292 -0.0076974942 0.0006170599 -0.012000968 0.74501365 0.14312989 -0.044841606 0.13655405 0.2358328 0.26036236 0.2650951 0.09807036 -0.1902951 0.47933453 -0.34208807 -0.059895553 -0.5940512 -0.12861739 0.3228277
solicitar 0.6424154 0.18769102 -0.3675862 -0.062152654 -0.022757523 -0.21420935 0.23862961 0.36346835 0.11745661 -0.2647364 -0.102091365 -0.36758453 0.007802459 0.028086705 0.028313523 0.6979658 0.080169566 0.015453397 0.1263243 0.26756948 0.292745 0.25618094 0.0747884 -0.14152761 0.62018293 -0.36217788 -0.02578899 -0.608926 -0.052241746 0.27519068
necesito 0.6715877 0.23290911 -0.317834 -0.066572584 0.012721471 -0.20616747 0.22661014 0.31282276 0.04686533 -0.27332556 -0.14082861 -0.35204518 0.027289458 0.057765085 0.05678885 0.64441305 0.09808953 0.043057166 0.13857381 0.2795816 0.31218708 0.2916076 0.074565396 -0.15963735 0.6091385 -0.35466796 -0.020156035 -0.65906286 0.0018098794 0.29927683
envio 0.6800175 0.1582015 -0.35919932 -0.065497294 -0.01878116 -0.22542484 0.24882995 0.38095236 0.13263917 -0.26718602 -0.14219624 -0.36353278 -0.053495623 -0.0013030475 -0.004884145 0.69963086 0.032370966 0.036971916 0.11702665 0.26552635 0.33766204 0.21611238 0.07140138 -0.14782892 0.61258096 -0.33041748 -0.03181379 -0.5767297 -0.032157116 0.26655033
formula 0.6792203 0.16059849 -0.3578635 -0.080113344 -0.016867835 -0.22616856 0.25520858 0.35361752 0.11274803 -0.2499302 -0.14536494 -0.36944622 -0.054887146 0.0048741926 0.010208871 0.67428803 0.04245814 0.049618687 0.10921316 0.26114386 0.3086143 0.25218028 0.10181545 -0.13741414 0.5956601 -0.30116975 -0.029145628 -0.5774598 -0.01915791 0.28456065
entrega 0.6202595 0.18792251 -0.4040277 -0.108173706 0.005523177 -0.2174942 0.21913026 0.37278968 0.13923097 -0.2840097 -0.1328434 -0.36886436 -0.029931072 -0.010159473 -0.013514176 0.72406787 0.066988386 0.01920833 0.11919998 0.2639903 0.2905069 0.24690111 0.08655693 -0.15450852 0.59178424 -0.327542 -0.06277564 -0.56869626 -0.07338057 0.30965728
autorizacion 0.6612947 0.17766774 -0.35985568 -0.07346209 0.02477305 -0.23808694 0.2656164 0.36912513 0.13302764 -0.25737023 -0.13489865 -0.38136104 -0.044904076 0.005382712 0.004477655 0.67606825 0.03255891 0.040325817 0.1399273 0.2812242 0.3053021 0.25309628 0.07721997 -0.17631702 0.5799287 -0.32211944 -0.025221648 -0.5907508 -0.038092278 0.30144325
celular 0.63032633 0.1951884 -0.36079693 -0.06579632 -0.0040186774 -0.22097977 0.23569456 0.36229688 0.1314297 -0.26648474 -0.11405424 -0.3419428 -0.027090004 0.0064711184 0.018052077 0.6797608 0.04079183 0.040031873 0.12735036 0.2546022 0.32755563 0.20580316 0.11826 -0.16225602 0.59242016 -0.33083427 -0.04291898 -0.5712092 -0.04279804 0.27947164
pedir 0.63965863 0.19823079 -0.3698608 -0.08622246 -0.012330046 -0.2119294 0.23414133 0.3375766 0.08822404 -0.28362635 -0.10529619 -0.3390586 -0.0036026242 0.041511174 0.030830318 0.642822 0.05054657 0.040454447 0.13615447 0.25926206 0.3098649 0.23605844 0.08269391 -0.12438384 0.6008657 -0.327216 -0.026560573 -0.6030201 -0.015691461 0.2603426
formulas 0.7072831 0.17118233 -0.3747746 -0.080393925 0.0064851944 -0.2160062 0.23649946 0.37802956 0.0988315 -0.26517493 -0.15036486 -0.40210506 -0.049066607 -0.0050641974 0.013573071 0.6918033 0.031374518 0.023511274 0.11133283 0.27029747 0.35273287 0.26173618 0.11420393 -0.1581111 0.63444203 -0.33324233 -0.04491137 -0.5928958 -0.02968508 0.30829677
fijo 0.6553003 0.1854752 -0.35208967 -0.0804001 -0.021611767 -0.20225614 0.22774798 0.38207072 0.13661262 -0.26279056 -0.11938856 -0.3519583 -0.011760116 -0.003852264 0.029022709 0.6772263 0.0688449 0.03298569 0.11774428 0.28114778 0.31044 0.22764234 0.092354536 -0.15915892 0.5837281 -0.31254596 -0.051280376 -0.5577697 -0.05482853 0.2598855
adulto 0.6488376 0.19713636 -0.35166243 -0.0849677 0.010661673 -0.19646794 0.20455588 0.37735662 0.106176324 -0.25272256 -0.10675703 -0.35835665 -0.011514768 0.0056685386 0.02489277 0.6839038 0.08032913 0.03141194 0.1359575 0.2562321 0.29561266 0.23856947 0.085421026 -0.14889115 0.6256622 -0.33741716 -0.05075836 -0.6041672 -0.058886804 0.26944625
eps 0.67228687 0.17924678 -0.38613564 -0.05645533 0.025354536 -0.23651057 0.25808 0.34719658 0.089101255 -0.2620508 -0.13589704 -0.352866 -0.010555491 0.034684245 0.008971386 0.6945602 0.061573137 -0.0004270228 0.12172503 0.28859824 0.3353457 0.2561906 0.066747904 -0.14734708 0.603879 -0.3543265 -0.028609939 -0.6167112 -0.053555086 0.30968687
enviar 0.6572759 0.17427975 -0.3694167 -0.07439337 -0.021458762 -0.20610787 0.23463625 0.3509071 0.13037974 -0.24043937 -0.15363152 -0.35625803 -0.056549914 0.016788756 0.03650592 0.67297286 0.039840147 0.012425942 0.12021221 0.2685636 0.32597426 0.2368506 0.11272214 -0.17431645 0.5976619 -0.32016784 -0.046909377 -0.54122835 -0.04030273 0.2707459
telefono 0.6578407 0.184525 -0.36973664 -0.08476026 -0.021316864 -0.23416285 0.22826995 0.3619592 0.1056337 -0.279448 -0.13815777 -0.34869012 -0.0070953546 -0.001335319 0.037885554 0.6938617 0.05000552 0.013702765 0.11462793 0.2571958 0.32730752 0.24970059 0.11626851 -0.16294524 0.61725134 -0.33319983 -0.053723782 -0.6004863 -0.048609775 0.30290496
apto 0.6406779 0.20308174 -0.34413245 -0.072136864 -0.011338021 -0.23598546 0.24804299 0.38125902 0.13586587 -0.28626102 -0.13469388 -0.33805168 -0.0068093017 0.0056042653 0.032238677 0.68683624 0.0440737 0.047770917 0.12958704 0.27516988 0.33673602 0.19772147 0.112927765 -0.17230389 0.60201615 -0.32906654 -0.044494167 -0.55320454 -0.02991586 0.2816102
envie 0.66279656 0.19422822 -0.355299 -0.08589838 -0.0032940328 -0.20900436 0.25063908 0.3371037 0.11663529 -0.2619068 -0.117317684 -0.36119914 -0.05036469 0.00838401 0.011267088 0.70820624 0.045761917 0.0223365 0.13804008 0.27347806 0.31290826 0.25758225 0.07610194 -0.1729549 0.5972083 -0.34438503 -0.05825731 -0.5855625 -0.04829657 0.29165882
paciente 0.6718096 0.19955319 -0.3515239 -0.067077994 0.02027929 -0.22351988 0.2575877 0.34996825 0.08885509 -0.25530663 -0.14381573 -0.35862705 -0.012123983 0.02196629 0.014614233 0.6719487 0.11032457 0.025890036 0.11351543 0.2650168 0.31024325 0.27600837 0.095861964 -0.17056823 0.61128247 -0.34840927 -0.04788114 -0.62052375 -0.058987185 0.2979289
solicitud 0.68146634 0.20447524 -0.428078 -0.10128611 0.031098748 -0.22854812 0.27227038 0.36823094 0.09406601 -0.26657006 -0.14777638 -0.39507923 -0.026161164 0.0052777925 0.03759015 0.71803665 0.082133934 -0.010639648 0.12148579 0.2952031 0.3524607 0.28722867 0.06966278 -0.16933654 0.60998917 -0.3268617 -0.08264216 -0.6006256 -0.06565067 0.31582326
tel 0.6585863 0.17895949 -0.34221727 -0.060690787 -0.009908742 -0.20114794 0.23039588 0.36869353 0.1185044 -0.24383643 -0.09896997 -0.33755863 -0.0037207606 0.017601551 0.036193337 0.6651248 0.059123132 0.01846843 0.1413236 0.27637202 0.3027362 0.24148175 0.09961276 -0.1684033 0.58364505 -0.32539278 -0.024145156 -0.5926294 -0.03095896 0.2596507
programar 0.66987413 0.19220899 -0.3722454 -0.07074087 0.0020920304 -0.21103564 0.20823123 0.3509856 0.1128342 -0.26796168 -0.1274025 -0.34769058 -0.006419383 0.016903998 0.02734178 0.6936872 0.0777331 0.023171473 0.12649131 0.2783509 0.314292 0.24615754 0.104734264 -0.14111726 0.58967644 -0.3201159 -0.053057514 -0.5738674 -0.039848935 0.28454664
cra 0.64178747 0.17407438 -0.33104017 -0.06013984 -0.0015568914 -0.20022042 0.20719314 0.36216676 0.10901912 -0.273415 -0.11137634 -0.34855294 -0.023838919 -0.0015440917 0.008621686 0.6800805 0.06801753 0.017959127 0.108828925 0.25291318 0.3179614 0.21523686 0.08797897 -0.1470676 0.55973285 -0.3043032 -0.025643215 -0.5728142 -0.034172326 0.26655513
pendiente 0.69274616 0.14828713 -0.4255386 -0.10690933 0.05721036 -0.23636718 0.27589348 0.37400427 0.078709714 -0.2720417 -0.084602766 -0.37295747 0.0024135914 -0.026061954 -0.021294164 0.7862507 0.10167059 -0.013452388 0.15765883 0.2511319 0.32225618 0.25816232 0.10616532 -0.18879503 0.6208573 -0.34603786 -0.042298302 -0.6323583 -0.08853388 0.3571251
reclamar 0.67489535 0.21357173 -0.3647924 -0.08737582 -0.00557528 -0.24585046 0.2333267 0.3328598 0.107365884 -0.26274344 -0.1334448 -0.35894585 -0.000743032 0.020982195 0.019088814 0.679455 0.09131644 0.013526486 0.12669061 0.25235403 0.30447006 0.24680653 0.0996493 -0.17483424 0.59433264 -0.35674062 -0.025923511 -0.6078683 -0.057976328 0.32254437
cel 0.6557152 0.18136099 -0.37212655 -0.046155903 -0.009514026 -0.23269503 0.2215226 0.35812357 0.13359436 -0.26294988 -0.12763903 -0.3742793 -0.023136387 0.0013942686 -0.0011822914 0.67895895 0.050853822 0.036162253 0.12444958 0.27916268 0.33381236 0.23465599 0.11232594 -0.16180587 0.5820392 -0.30847567 -0.03260616 -0.5953506 -0.044167474 0.29756773
documento 0.671976 0.164924 -0.35777283 -0.07043229 0.005906488 -0.21243891 0.22723922 0.34177873 0.121054634 -0.25131038 -0.12969969 -0.36999732 -0.025440559 0.015608675 0.025304733 0.7182142 0.046311792 0.017233573 0.13911235 0.284385 0.32023126 0.24454437 0.10691255 -0.18264098 0.5860463 -0.33264676 -0.03758875 -0.5831266 -0.052212354 0.30320787
covid 0.7418953 0.2996817 -0.31018698 -0.104205 0.059527323 -0.21752375 0.23937024 0.30853522 -0.064479664 -0.27425778 -0.16064534 -0.35677317 0.12146024 0.10130151 0.049797338 0.66120803 0.14621621 -0.0104608815 0.14097445 0.30327636 0.33256018 0.33796316 0.07053373 -0.22059104 0.6920755 -0.40900326 -0.02654645 -0.7378302 0.0017713205 0.3478971
enviaron 0.70812505 0.19484538 -0.38229743 -0.10397479 0.023204256 -0.22214335 0.28914484 0.34573868 0.115469515 -0.28987023 -0.11598755 -0.38291198 -0.03705327 -0.0056268238 0.009570568 0.72460574 0.041263513 0.006566004 0.122430064 0.26007658 0.36421835 0.25479198 0.09668331 -0.18189812 0.6315517 -0.32723892 -0.05214227 -0.62381506 -0.026958294 0.32346502
codigo 0.65871185 0.17800303 -0.38047975 -0.08160767 0.02362389 -0.21679927 0.23213784 0.35030904 0.10918284 -0.27848426 -0.14701998 -0.39186376 -0.028342377 0.0011534077 0.024981447 0.696059 0.048426878 0.012684762 0.14579166 0.27667257 0.30917764 0.23717713 0.09656514 -0.15427686 0.5925314 -0.3359729 -0.023802988 -0.61654377 -0.021846335 0.3192075
ciudad 0.65988094 0.18596056 -0.37196913 -0.07001965 -0.0072168973 -0.21675295 0.21769227 0.36726865 0.117076546 -0.2741754 -0.123897664 -0.36044446 -0.029789753 -0.0068098204 0.015758155 0.6646233 0.07878532 0.010933188 0.12889951 0.26418024 0.3028753 0.22883153 0.08826908 -0.17796078 0.60790443 -0.3140822 -0.03989869 -0.5830567 -0.05377048 0.26028094
cancelar 0.555289 0.19579667 -0.5654655 -0.1365205 0.12594083 -0.33427778 0.24699038 0.4811972 -0.028194444 -0.24744871 0.020600867 -0.2982772 0.09470999 0.057843793 0.021825733 0.8408311 0.26889727 -0.109998405 0.2180987 0.21052504 0.24894673 0.37156492 0.10742655 -0.24673963 0.40474224 -0.41843745 -0.13118148 -0.6988267 -0.16181688 0.40928087
vez 0.6820152 0.19887026 -0.37157205 -0.09686894 -0.0028272641 -0.24150601 0.22994454 0.3653737 0.11113953 -0.2574938 -0.12063577 -0.38465536 -0.027203413 0.0270062 0.00024212271 0.70866346 0.0640139 0.034432746 0.12380311 0.2797129 0.33959827 0.25295386 0.08735264 -0.18201329 0.6279911 -0.33839655 -0.049699027 -0.6364147 -0.046879947 0.32116264
solicite 0.6790661 0.18598136 -0.43230206 -0.09750486 0.051103428 -0.2549702 0.2377863 0.40962762 0.04800463 -0.2568964 -0.12137173 -0.3487805 -0.001230359 0.015678432 0.030968588 0.7400425 0.14430138 -0.025231557 0.12674464 0.25288647 0.3412125 0.27518606 0.08672408 -0.17654648 0.5699699 -0.37073496 -0.09324303 -0.6229353 -0.08050588 0.3511216
panales 0.66827613 0.18740575 -0.35911363 -0.0714402 0.014235603 -0.22983487 0.26044753 0.37253636 0.10203686 -0.26428455 -0.13545729 -0.37105185 -0.035600133 0.008912782 0.0043175905 0.7129929 0.054281432 0.0062649865 0.13446039 0.28979447 0.3195294 0.26888403 0.08655144 -0.18579999 0.61647815 -0.3410775 -0.04387297 -0.6178445 -0.047164604 0.27690217
enero 0.6987534 0.14127716 -0.39506918 -0.076647125 -0.034641538 -0.21247189 0.21639568 0.34858218 0.091066815 -0.22962604 -0.08858893 -0.3557053 -0.023786532 0.032962065 -0.0032426454 0.6883274 0.042499162 0.024373095 0.12668921 0.27221656 0.29939303 0.27888918 0.09576747 -0.12619388 0.62420213 -0.3186292 -0.03956748 -0.60746235 -0.053067937 0.28026578
pedido 0.6823189 0.1666175 -0.37440377 -0.09628592 0.01967727 -0.21014623 0.25916946 0.36500666 0.07236103 -0.2711621 -0.10016324 -0.38050726 -0.003973155 0.008909621 -0.0008109454 0.7120136 0.11314899 -0.010562489 0.11687454 0.27393892 0.32271552 0.26352492 0.106607236 -0.18786083 0.6049052 -0.32494277 -0.06200284 -0.6077429 -0.03852145 0.33395463
espera 0.659921 0.17324318 -0.4369051 -0.120815575 0.04112674 -0.24971807 0.22035235 0.4001442 0.08327597 -0.25578707 -0.073488764 -0.34402037 0.006895807 0.039360777 0.032392442 0.73614806 0.11852244 -0.02949774 0.15558958 0.26265663 0.26874444 0.2844751 0.112801604 -0.19217043 0.5417099 -0.37651214 -0.084855124 -0.6151973 -0.08413729 0.3457244
pdf 0.68840134 0.19051091 -0.35031363 -0.05798873 0.010459965 -0.23282716 0.25310525 0.36572713 0.10575335 -0.23669842 -0.14355333 -0.3802251 -0.035491847 0.02891235 0.026020465 0.7020329 0.0512623 0.0030361193 0.139941 0.27076522 0.31843388 0.25399446 0.11229063 -0.1600077 0.6291938 -0.32436243 -0.059951458 -0.5952653 -0.044133924 0.28505522
deseo 0.6717832 0.19092543 -0.38134465 -0.071752384 0.017137447 -0.20897275 0.22267571 0.33886695 0.09000438 -0.27274632 -0.105119936 -0.3606641 0.006746627 0.02631281 0.013247319 0.68544364 0.0748356 0.014677157 0.11651957 0.2565783 0.29338792 0.2565981 0.072641894 -0.16381678 0.5890749 -0.34421378 -0.061485406 -0.6149785 -0.037268117 0.29422536
urgente 0.7398125 0.21192898 -0.37095648 -0.120516345 -0.0064719366 -0.2415882 0.24101047 0.35737672 0.04562476 -0.26383156 -0.16204606 -0.41369462 0.0032419588 0.043641794 0.017600799 0.69028765 0.11011865 0.040114332 0.12506421 0.28850338 0.33319783 0.29983702 0.12504359 -0.16104046 0.6424598 -0.35954663 -0.04725506 -0.6739448 0.0015706326 0.31405833
droga 0.7020497 0.21648084 -0.39396453 -0.08018048 0.018806253 -0.24890411 0.21982078 0.35670012 0.11466287 -0.29159218 -0.09769107 -0.37748817 0.007119014 0.00017528435 0.037941776 0.72837776 0.09701705 0.0002435557 0.1616887 0.25521234 0.33946165 0.26565173 0.10319915 -0.15436958 0.62679946 -0.3578397 -0.042406015 -0.62816966 -0.05943901 0.29534006
horas 0.64591277 0.1892979 -0.46731782 -0.13881253 0.022137832 -0.24118704 0.24750626 0.40322226 0.08477055 -0.28088418 -0.1093287 -0.37734124 -0.0056037824 0.036737263 0.0075181187 0.74823374 0.1732405 -0.02051253 0.17057961 0.264662 0.31010103 0.30090615 0.10762458 -0.17920095 0.5829118 -0.36461112 -0.087867916 -0.63280964 -0.10101672 0.35066888
citas 0.70375794 0.23232804 -0.37491474 -0.061999425 -0.013939372 -0.22093455 0.20736466 0.30309197 0.07048806 -0.26321048 -0.117808685 -0.3618046 0.0031382989 0.063883185 0.025867155 0.7448382 0.10420977 0.04679972 0.15316196 0.26976505 0.30076545 0.31645557 0.11296926 -0.13937132 0.65535253 -0.41833362 -0.06740455 -0.7407538 0.011098668 0.33389515
llegaron 0.6778755 0.19341399 -0.38483 -0.0806053 0.025087208 -0.24866273 0.24421206 0.35920638 0.09081169 -0.2480702 -0.110325694 -0.37667978 -0.014192287 -0.010719107 0.029446935 0.75413424 0.07285173 0.00013602775 0.1552266 0.2818013 0.36072978 0.2741981 0.11843831 -0.20413847 0.61547774 -0.36327064 -0.046944614 -0.6147772 -0.030033983 0.29990503
diciembre 0.6833075 0.20223854 -0.39428797 -0.11873008 -0.0040777125 -0.24078046 0.22089793 0.3532335 0.030048938 -0.2549796 -0.12827222 -0.36245453 0.025010714 0.00890968 0.029663457 0.71930885 0.10328957 -0.011741655 0.15476963 0.25196153 0.33179122 0.28631145 0.116994664 -0.17453344 0.58369404 -0.3422513 -0.07609284 -0.655905 -0.035992008 0.32260355
envien 0.666907 0.2016382 -0.38190195 -0.083316825 0.0021365487 -0.23138452 0.2501435 0.35972026 0.083250165 -0.24405517 -0.1249968 -0.37965095 -0.022024319 0.020844378 -0.0013277985 0.70827276 0.07381341 0.026603114 0.119204886 0.26665148 0.32814175 0.25429106 0.1121192 -0.15671925 0.60578454 -0.33031204 -0.040960606 -0.60889554 -0.036931466 0.29501694
prueba 0.74925214 0.2534581 -0.35437542 -0.091623776 -0.005744986 -0.25630862 0.20576382 0.32184112 -0.059461556 -0.2746956 -0.12771696 -0.3762712 0.095610455 0.082038715 0.046500333 0.6794491 0.13509506 0.00064461865 0.16243753 0.28359297 0.35203886 0.31711414 0.12409583 -0.22805148 0.6645084 -0.3920244 -0.07009355 -0.67172045 -0.0056482786 0.34898832
autorizaciones 0.68965304 0.18150923 -0.3581618 -0.068011545 0.024461411 -0.24611154 0.24466555 0.36375454 0.0976059 -0.28038436 -0.12659529 -0.36741447 -0.026116807 0.02252528 -0.0028166575 0.71229565 0.0521468 0.009739309 0.12837704 0.26987532 0.31886905 0.2673645 0.082542725 -0.15260251 0.6150357 -0.34523138 -0.034455266 -0.6273535 -0.021588607 0.31036806
informacion 0.6729461 0.1985212 -0.37727952 -0.10064085 -0.003797592 -0.22503825 0.25184852 0.3492807 0.09768292 -0.26276416 -0.14091024 -0.3756228 -0.0033458306 0.0186202 -0.004161244 0.6992561 0.11306702 0.010404442 0.15395345 0.28295493 0.30890724 0.2800078 0.11044804 -0.15780991 0.61521304 -0.38794258 -0.07035892 -0.64837676 -0.05484583 0.31137937
ayudar 0.65571946 0.19560145 -0.40218857 -0.09064593 0.019074338 -0.24518672 0.21960281 0.36151186 0.07736722 -0.26264676 -0.114289716 -0.3675246 0.033509545 0.04739571 0.011447888 0.7190714 0.12433254 -0.009323822 0.15038805 0.24532513 0.31320783 0.29589614 0.11619104 -0.17697082 0.59210694 -0.34281197 -0.056245662 -0.64214975 -0.06805348 0.3306577
posible 0.6781006 0.22917567 -0.3724604 -0.078051135 -0.017970994 -0.20183645 0.22970109 0.30858234 0.09184006 -0.26667202 -0.11571977 -0.37722716 0.014838871 0.02900108 0.018993525 0.73191035 0.10453865 0.05459465 0.16418819 0.2638034 0.3143368 0.2957671 0.11366491 -0.14295068 0.6493908 -0.4016372 -0.03367878 -0.67682314 -0.01659534 0.30720744
llega 0.6862872 0.17167486 -0.39581582 -0.1226059 0.015189369 -0.21959819 0.251368 0.37515858 0.07301131 -0.24727397 -0.11540077 -0.36355865 -0.02636407 0.00744953 0.025088279 0.71230215 0.0899357 -0.00795658 0.13009568 0.26661533 0.33692268 0.28303477 0.0826248 -0.16204244 0.59964496 -0.31813645 -0.07514708 -0.60222113 -0.04977347 0.30965513
colaborar 0.7137712 0.1849612 -0.38088214 -0.114378184 -0.010861183 -0.22121342 0.22858045 0.35349265 0.065442674 -0.27638575 -0.105895065 -0.38734278 -0.025851911 0.013071057 0.0039332258 0.73775786 0.10681769 0.0279514 0.15071519 0.27174956 0.3610312 0.24080285 0.120808676 -0.16552408 0.62231326 -0.34112495 -0.06438013 -0.6291225 -0.06600081 0.32832852
respuesta 0.65897155 0.18489374 -0.38882682 -0.082920484 -0.0016702268 -0.23518105 0.2541465 0.3377381 0.07768135 -0.26274797 -0.1382089 -0.34957254 -0.0016128962 0.004099242 0.03875055 0.68553066 0.071883895 0.026229326 0.11756518 0.26146814 0.3125393 0.27561602 0.09816819 -0.15969129 0.59105027 -0.35349888 -0.05356658 -0.59860665 -0.03316223 0.31396908
famisanar 0.68719125 0.20785645 -0.36593914 -0.059376042 0.0119079035 -0.23101746 0.25536418 0.32239702 0.03541243 -0.28082538 -0.13878964 -0.40040296 0.026163848 0.064988114 0.014583783 0.68323284 0.120983034 0.0036685788 0.13942258 0.30015615 0.32749546 0.29234198 0.10954893 -0.16926152 0.6211778 -0.38653377 -0.0648581 -0.66584945 -0.03906107 0.2981525
proceso 0.6544894 0.18645704 -0.3904732 -0.069085464 -0.017749758 -0.1981955 0.2195586 0.33310777 0.08545964 -0.2576356 -0.1052684 -0.33524907 0.008059879 0.04466962 0.023058435 0.6970708 0.052234776 0.010774032 0.1374921 0.27222413 0.3060188 0.2388107 0.078394026 -0.14163668 0.6005914 -0.329058 -0.0654516 -0.5874795 -0.059697505 0.27418324
meses 0.6872333 0.19531427 -0.3642093 -0.08811572 0.008455795 -0.24251023 0.24872041 0.35087365 0.09642224 -0.27382025 -0.12676889 -0.37956664 -0.013670014 0.035338495 0.028419122 0.69720435 0.057334095 0.025490128 0.12598363 0.25821534 0.31882706 0.28622854 0.110122375 -0.16899593 0.6019289 -0.3316357 -0.0346725 -0.6278642 -0.056590747 0.30134594
dia 0.6725814 0.17344473 -0.37634784 -0.088218115 -0.0088745095 -0.22548988 0.24979655 0.36655527 0.07865804 -0.26415724 -0.09820988 -0.36098656 -0.018419962 0.03308631 0.028046362 0.69318646 0.099167265 0.010955518 0.14566019 0.27646515 0.29595435 0.28371695 0.121118605 -0.1623841 0.5671755 -0.32887033 -0.053380232 -0.5910152 -0.044687506 0.30495843
acabo 0.6407606 0.19664803 -0.37182152 -0.097116545 0.027144684 -0.24232851 0.2257446 0.36160135 0.11745009 -0.27110282 -0.1522596 -0.3345161 -0.020350661 0.008415201 0.024268562 0.67516243 0.045006853 0.022993673 0.1260464 0.25363046 0.33013564 0.23958369 0.08969367 -0.18112081 0.6079706 -0.3369648 -0.0365137 -0.5655393 -0.036123477 0.29179582
pagina 0.735927 0.23170303 -0.41515353 -0.10347868 0.02611802 -0.23401175 0.2505967 0.29037482 0.028326798 -0.25093892 -0.1340778 -0.36690247 0.02622297 0.057121646 0.040760465 0.70396787 0.10450138 -0.027859848 0.15325698 0.26535246 0.34048584 0.29362074 0.062613934 -0.16746466 0.6320597 -0.35609946 -0.08555589 -0.5991609 -0.0428908 0.33277214
edificio 0.6160778 0.18634601 -0.34425762 -0.057901613 0.0033164967 -0.21339157 0.20093352 0.33233047 0.08929216 -0.25076607 -0.1186365 -0.3042509 -0.0042749722 -0.0007681498 0.0076773027 0.6648253 0.06340161 0.02047294 0.111646526 0.26103854 0.28585517 0.21019387 0.097546734 -0.16649956 0.55776685 -0.2949301 -0.054240458 -0.54364204 -0.04079644 0.254674
octubre 0.6399088 0.20329307 -0.37147895 -0.0896193 -0.0022439484 -0.2315566 0.21531092 0.36091754 0.07017156 -0.24861264 -0.11368471 -0.37628224 -0.031881377 0.017549403 0.022910304 0.6776256 0.05741561 0.0013572817 0.13579345 0.24549836 0.29263058 0.27180743 0.10581827 -0.16049033 0.6157365 -0.31324592 -0.05258869 -0.6172342 -0.035132714 0.30846786
cuota_moderadora 0.52353275 0.20313929 -0.62556213 -0.1856346 0.18345255 -0.35069606 0.24010396 0.54043615 -0.049351417 -0.21561714 0.073312715 -0.25746533 0.109887294 0.0807255 0.015126186 0.87283653 0.34012675 -0.18495674 0.2102846 0.18150774 0.20183209 0.39813605 0.09405061 -0.25578332 0.30208424 -0.44569495 -0.16500796 -0.6542466 -0.21207762 0.4754811
entregaron 0.6797046 0.1759701 -0.40860277 -0.08759544 0.009842777 -0.24656504 0.20973516 0.3736454 0.07609509 -0.2553686 -0.13464591 -0.35066935 -0.0010067174 0.030071422 0.030867234 0.71344167 0.106271476 0.015892811 0.14628321 0.265997 0.32983994 0.28847438 0.11880426 -0.16659446 0.6382952 -0.36435762 -0.058885273 -0.6282482 -0.0794198 0.34308556
averiguar 0.6981602 0.21575437 -0.3849626 -0.102232255 0.004864491 -0.23342033 0.22703145 0.36261147 0.05512401 -0.27271706 -0.11816984 -0.38875052 -0.011419677 0.019933933 0.025101943 0.7006014 0.108613744 -0.011100678 0.111162715 0.27336392 0.30316952 0.25869566 0.10933303 -0.18797381 0.5910588 -0.3573702 -0.072707795 -0.61195976 -0.07075864 0.33141232
pasado 0.66050816 0.17908107 -0.39681327 -0.10773608 0.00083252176 -0.20987505 0.25574648 0.3542461 0.108246 -0.26348543 -0.11545086 -0.36060658 -0.027379958 0.0050927857 0.013600929 0.7168329 0.08343642 0.006071895 0.1521405 0.24590929 0.3225368 0.23735179 0.11591009 -0.16603577 0.5708788 -0.35762185 -0.059210874 -0.6186081 -0.058685206 0.31804058
enviado 0.640925 0.19628087 -0.39073998 -0.08103638 0.0021994377 -0.22743581 0.24061626 0.3700001 0.10376759 -0.23000228 -0.1366421 -0.36335713 -0.029438876 0.024331983 0.02127708 0.68740004 0.07162123 0.010572913 0.12571493 0.24494384 0.32276103 0.24325056 0.076128215 -0.18055746 0.5754457 -0.30939123 -0.06681563 -0.564817 -0.04577629 0.28812286
teleconsulta 0.7283573 0.2561717 -0.29402435 -0.057293452 0.05041509 -0.19899917 0.19995901 0.29748225 0.033605438 -0.25954044 -0.11733519 -0.3670495 0.04985724 0.04028005 0.05757166 0.69369274 0.13361962 0.046667553 0.13232969 0.2890776 0.3351768 0.35096934 0.090669975 -0.1482815 0.6680642 -0.4208985 -0.059659712 -0.729372 0.008146026 0.33306408
floresta 0.7317819 0.20855123 -0.39609423 -0.07610281 -0.02992846 -0.21701248 0.22388564 0.3348361 0.08953974 -0.2883336 -0.12345193 -0.3812675 -0.0102054635 0.045032486 0.018172108 0.74780375 0.09075348 0.03856153 0.14958167 0.27501222 0.3377882 0.2732138 0.10994905 -0.1582475 0.6491388 -0.39041573 -0.05691473 -0.6768727 -0.059495166 0.32717624
edad 0.695569 0.19514556 -0.3948027 -0.08150788 0.004455174 -0.2291032 0.23237589 0.3388622 0.078074455 -0.27675927 -0.10891982 -0.36653364 0.009399278 0.023038648 0.018091405 0.7335726 0.10449881 0.016315412 0.120049365 0.2533337 0.32477763 0.2739949 0.10217008 -0.18237512 0.6133253 -0.3409885 -0.06260206 -0.61578125 -0.059042953 0.30110583
consulta 0.669927 0.20534241 -0.38766867 -0.12082287 0.028863138 -0.24877983 0.22810455 0.36936772 0.041643325 -0.2624661 -0.10286405 -0.34350005 0.032555398 0.044312436 -0.0018414515 0.7389908 0.1427092 -0.010796403 0.12535276 0.24733722 0.31447405 0.32269618 0.10239262 -0.17368567 0.61098075 -0.36063373 -0.061616354 -0.65024465 -0.07433596 0.34525877
envian 0.66376054 0.19273672 -0.38491723 -0.10717337 0.00836409 -0.20665444 0.24886164 0.3595281 0.097117946 -0.25115803 -0.13725218 -0.35308814 -0.025280595 0.018264994 0.015626913 0.7267298 0.08677502 0.005471956 0.1360671 0.2660842 0.31876838 0.25880963 0.095207475 -0.18175834 0.5976967 -0.330171 -0.060726553 -0.63365865 -0.06801911 0.30136624
datos 0.64277196 0.21485515 -0.37597275 -0.06443073 0.018783472 -0.2090813 0.23687914 0.3637376 0.10439713 -0.2543309 -0.15639235 -0.3577058 -0.028405951 8.390217e-05 0.00041840543 0.68178624 0.069749795 0.026970418 0.13752374 0.2755626 0.32587063 0.23582022 0.09638603 -0.16695137 0.6139288 -0.3345925 -0.06471779 -0.58258504 -0.048957337 0.29570016
requiero 0.69768566 0.22860825 -0.35885078 -0.08537434 0.017329438 -0.22708738 0.23122726 0.35876194 0.0684868 -0.25607356 -0.15098919 -0.35783094 0.04418354 0.024786858 0.013895307 0.6961058 0.10647107 0.01905484 0.11933324 0.2848106 0.31682178 0.30851212 0.112098485 -0.16326466 0.6139158 -0.35533574 -0.05648661 -0.67623657 -0.019817162 0.32804397
apartamento 0.6305722 0.20495555 -0.3354105 -0.06781547 -0.0002598756 -0.21143727 0.23831694 0.33282143 0.09480003 -0.27552533 -0.14188947 -0.3573116 -0.009494217 0.032548282 0.045145962 0.671113 0.078793965 0.007844356 0.1354485 0.24574041 0.33213294 0.21681973 0.09112328 -0.16556603 0.57358676 -0.31692094 -0.027163915 -0.588752 -0.019525446 0.26925352
sacar 0.7142938 0.22555695 -0.37531972 -0.096696176 -0.018894292 -0.21474269 0.2708837 0.34859863 0.076185375 -0.25659573 -0.099833325 -0.41311875 0.028587319 0.05165322 0.03535034 0.76107055 0.10583572 0.04178238 0.14584327 0.24786457 0.33529496 0.2916906 0.10586221 -0.13935415 0.6375412 -0.38886574 -0.050408326 -0.6855203 -0.025177607 0.3345745
esperando 0.720872 0.23337182 -0.39588687 -0.0886931 0.03003097 -0.24966827 0.2431208 0.32124907 0.04550187 -0.29170486 -0.1402988 -0.39521238 0.009745019 0.033640534 0.051149126 0.7155767 0.11757775 -0.027793536 0.15287754 0.29542774 0.31215274 0.28865662 0.08641085 -0.1875257 0.6531576 -0.34943748 -0.06918293 -0.6690873 -0.035986524 0.3233033
problema 0.67981905 0.18688051 -0.3877457 -0.098609746 0.0133494465 -0.20908038 0.22736065 0.34121215 0.10784409 -0.24008285 -0.13615237 -0.36552888 -0.036625437 -0.001953796 0.0011118399 0.69958466 0.06820287 0.0148940645 0.11519995 0.28236148 0.33220136 0.25549942 0.080638 -0.1500974 0.60720676 -0.3313716 -0.050068 -0.61624885 -0.0410538 0.32201734
porfavor 0.6982911 0.20177054 -0.34851247 -0.095830895 0.023555871 -0.23630062 0.23300672 0.35496956 0.053077076 -0.2534583 -0.12037259 -0.36456484 0.036102396 0.063977405 0.036907695 0.70168597 0.09516453 0.029727247 0.13022454 0.25744054 0.29462862 0.3048894 0.08913296 -0.18586038 0.61484694 -0.36067644 -0.038859807 -0.63566315 -0.049592834 0.3141423
encuentro 0.7019198 0.21637435 -0.37828964 -0.0969082 0.024364883 -0.2409811 0.22944014 0.35805485 0.07498399 -0.2746568 -0.13659616 -0.3871544 0.005641099 0.016901359 0.033420876 0.7312013 0.07905714 0.006060308 0.122732766 0.27973843 0.32978803 0.26097032 0.091986775 -0.1690602 0.62087864 -0.3540982 -0.07064661 -0.6443239 -0.029659372 0.29600757
llegan 0.67149466 0.19743311 -0.4071619 -0.08142377 0.020153798 -0.21936515 0.24442239 0.35316712 0.07075864 -0.25419277 -0.13456805 -0.38333014 -0.02225078 0.022166321 0.0054015857 0.69991606 0.105430044 0.0030490633 0.12969732 0.2852638 0.31600118 0.28140152 0.11106411 -0.16711216 0.60299987 -0.34844142 -0.057316285 -0.5907829 -0.059110884 0.29275072
asesor 0.70397556 0.21927099 -0.37471107 -0.07695332 -0.011937412 -0.24337286 0.2502401 0.33124173 0.05751758 -0.2650097 -0.16216105 -0.40351942 0.017377889 0.037389852 0.03407984 0.7217715 0.09104826 0.012031442 0.1360204 0.27525982 0.3440159 0.26626828 0.099436685 -0.19868903 0.65190923 -0.35375243 -0.046031978 -0.6502066 -0.02367285 0.33672565
entregan 0.67434293 0.20752689 -0.4049427 -0.11364287 0.012853613 -0.236369 0.23217557 0.37667617 0.059737086 -0.26068717 -0.09999607 -0.37890306 0.0035969387 0.038653295 0.020626517 0.72115594 0.12101058 -0.015951276 0.14501312 0.26218396 0.29624298 0.2779607 0.119407505 -0.17171244 0.56473434 -0.34164232 -0.056963507 -0.6545388 -0.07675434 0.33932278
osea 0.73158073 0.19781452 -0.3690408 -0.08796913 -0.009878667 -0.2390047 0.25060585 0.34579957 0.073221765 -0.2942899 -0.1261561 -0.39293352 -0.017867438 0.032283913 0.036187116 0.74381375 0.06719494 0.032069195 0.14387655 0.29675943 0.34851125 0.30175015 0.11264814 -0.16089217 0.6336021 -0.36677584 -0.057371758 -0.67359054 -0.023582542 0.33723503
agendar 0.71249706 0.25286505 -0.36045134 -0.09527131 0.006848203 -0.24194211 0.24689521 0.36360526 0.053794898 -0.27826256 -0.09989241 -0.37110677 0.016444664 0.028884234 0.0462292 0.7227576 0.08257173 0.042774197 0.15791671 0.28402546 0.33612373 0.3034932 0.12027077 -0.16381447 0.65123886 -0.36945835 -0.06896406 -0.7092285 -0.0013305123 0.306104
virtual 0.70442414 0.23761357 -0.36069167 -0.09723119 -0.0021992407 -0.22880447 0.28573897 0.3172223 0.04002964 -0.23723575 -0.12008594 -0.3897825 0.055654913 0.08509012 0.03349745 0.6890284 0.06984132 0.03226534 0.14918923 0.25900182 0.34807265 0.30590874 0.09587863 -0.17367889 0.6577286 -0.34533134 -0.044606067 -0.68611336 -0.04967979 0.34759822
recomiendo_verificar 0.5098369 0.16928375 -0.612016 -0.17671356 0.19028808 -0.38686377 0.26476875 0.54171634 -0.07200293 -0.21558234 0.06435155 -0.26663613 0.112834744 0.08182295 0.007210783 0.8562271 0.35922438 -0.2034554 0.23346896 0.1971984 0.21337269 0.42593667 0.09898332 -0.25578573 0.28768042 -0.43296093 -0.15821645 -0.68963623 -0.20676886 0.4541081
facturado_entregado 0.49039575 0.18206254 -0.66863334 -0.21613757 0.21359096 -0.41247585 0.2562138 0.5637704 -0.09576503 -0.20373422 0.0698192 -0.27638155 0.16127579 0.07299585 -0.012014596 0.8896741 0.40422183 -0.23139068 0.23526208 0.13112357 0.16344893 0.41904163 0.116337046 -0.24928239 0.22975813 -0.44206184 -0.16626775 -0.68865466 -0.23546496 0.49108744
domiciliario_indicara 0.47532618 0.17160365 -0.6481422 -0.19947556 0.17954601 -0.39632034 0.24757834 0.54557383 -0.04016308 -0.2078324 0.060086392 -0.29528466 0.13137153 0.057655744 -0.0029497105 0.8653122 0.3322511 -0.21945113 0.24852571 0.14690052 0.17763416 0.4333567 0.098095395 -0.27693674 0.28208405 -0.45257622 -0.14960448 -0.6997822 -0.21533944 0.46825793
medicas 0.66549516 0.2050746 -0.38885126 -0.09289107 0.0059646107 -0.20973806 0.24282572 0.33721462 0.09406852 -0.28285098 -0.11984483 -0.3904103 -0.0067121736 0.020856785 -0.003059844 0.702632 0.06069989 0.04180244 0.14103834 0.27775648 0.31237635 0.272306 0.08953159 -0.1656907 0.604389 -0.3569907 -0.036879428 -0.6252855 -0.047849853 0.31824148
excelente 0.61558044 0.17022873 -0.37225583 -0.0840518 0.016531128 -0.23060836 0.22867587 0.36260545 0.07034617 -0.24034813 -0.0973745 -0.32431638 -0.010553302 0.013341816 0.027071822 0.6702168 0.10732725 0.01967065 0.13879518 0.24707095 0.30367288 0.2491895 0.090014726 -0.15197082 0.5578679 -0.32232288 -0.06616326 -0.56615406 -0.048880257 0.29017192
confirmar 0.6547732 0.21299557 -0.4042229 -0.11111647 0.010972707 -0.24500868 0.22541362 0.36050174 0.06960374 -0.27731818 -0.12773895 -0.3648809 0.01041862 0.030752515 0.0027359729 0.7270672 0.083050385 -0.0073598893 0.1223938 0.2692746 0.3230976 0.2918121 0.11103426 -0.18342163 0.6261965 -0.35921264 -0.06992343 -0.63031024 -0.046558496 0.31523943
lunes 0.6630459 0.19796452 -0.4042159 -0.09675341 0.019401388 -0.22563314 0.22290875 0.37111956 0.08960416 -0.2610664 -0.14158604 -0.38716725 0.0035846112 0.009982207 0.0044280584 0.7105452 0.09067934 -0.019455055 0.14696163 0.263669 0.3346581 0.28973344 0.11665848 -0.1679611 0.5888065 -0.32048994 -0.06854491 -0.6186381 -0.067572676 0.30425727
llamaron 0.6904904 0.21599033 -0.39335027 -0.06759489 0.033942636 -0.25103548 0.24770997 0.347552 0.07079969 -0.26558372 -0.12531313 -0.3640565 -0.017885346 -0.0003308568 0.034067556 0.7455883 0.08736335 0.0008408928 0.12439118 0.25581342 0.33401692 0.2856398 0.12387168 -0.19617616 0.61479104 -0.3393076 -0.04432482 -0.6197754 -0.029462248 0.3524836
codigos 0.7001269 0.197848 -0.41990024 -0.07706606 0.022070216 -0.25839984 0.24118601 0.37895074 0.07397388 -0.2579962 -0.11829245 -0.3871307 -0.0050774203 0.025459932 -0.0032232546 0.7498857 0.09247817 -0.012505875 0.122890934 0.28870034 0.30845314 0.2979965 0.08363582 -0.17247844 0.6014529 -0.37456653 -0.051389918 -0.639249 -0.05264103 0.3134441
sistema 0.70306015 0.2046461 -0.40735468 -0.10448144 0.021922866 -0.23305146 0.2419933 0.33596522 0.07068829 -0.26002008 -0.124355756 -0.38410792 -0.008212213 0.042689033 0.0070637674 0.71199304 0.10217563 0.01368251 0.13707325 0.26980013 0.32693 0.29613316 0.100546926 -0.18762487 0.64253813 -0.34554335 -0.066060126 -0.6477787 -0.013034858 0.33403534
int 0.60664165 0.15688589 -0.3399632 -0.04818075 0.00029990188 -0.19043335 0.19950911 0.33065447 0.08571248 -0.23749414 -0.117907666 -0.3049926 0.008367483 0.021108102 0.03826557 0.6365155 0.06589291 0.022675755 0.12288071 0.25282755 0.2859364 0.20989774 0.0688758 -0.14258467 0.543621 -0.31053877 -0.04317549 -0.5226209 -0.025226641 0.2642495
gestionar 0.64479613 0.1778037 -0.37598622 -0.065148205 0.010735852 -0.20935488 0.22615945 0.33831453 0.08220295 -0.26049465 -0.10369021 -0.34857407 -0.0071048955 0.02935745 0.0070428373 0.6976183 0.07579916 0.027913779 0.14606994 0.2765044 0.3231828 0.26589087 0.10962847 -0.15565488 0.59087247 -0.3441229 -0.038009945 -0.58908534 -0.032939833 0.30856997
recibido 0.6435778 0.19935173 -0.44069153 -0.09523751 0.012428959 -0.23269251 0.22681288 0.37508327 0.09539994 -0.28239462 -0.11636815 -0.36123237 -0.02569489 0.0051100156 0.01692342 0.7485836 0.13542321 -0.0005706292 0.12571196 0.25746825 0.31839094 0.29142728 0.12295333 -0.19373213 0.5987398 -0.32412732 -0.044210546 -0.60660094 -0.090775385 0.32013345
doctora 0.69930166 0.17551196 -0.37594938 -0.09671299 -0.01094078 -0.23242824 0.24082652 0.3675456 0.10322628 -0.26243246 -0.12267994 -0.3849451 -0.021117387 0.032638103 -0.0047312058 0.7591043 0.07887462 0.042573772 0.1361075 0.273955 0.34007633 0.29946637 0.08054461 -0.18244065 0.6317867 -0.3650983 -0.026880627 -0.67069477 -0.051173598 0.3312336
llegar 0.69995666 0.18820314 -0.4212378 -0.08969793 0.029475786 -0.23619825 0.2649793 0.37279484 0.06558227 -0.27725175 -0.117693424 -0.4025267 -0.020644275 0.0015697082 0.023856314 0.77331644 0.10346565 0.0114789065 0.15304181 0.30427426 0.32385528 0.31477165 0.10226487 -0.19067492 0.6469625 -0.37928507 -0.076059416 -0.68365085 -0.052830644 0.35245648
entregando_horas 0.47052917 0.16446695 -0.5938661 -0.20269896 0.16947868 -0.33759528 0.22506866 0.5276979 -0.04902708 -0.21521388 0.073628455 -0.26732546 0.12446736 0.07341569 -0.011211739 0.85030806 0.34848154 -0.19630928 0.23913488 0.15186153 0.21078739 0.40318987 0.103252344 -0.2730548 0.30203995 -0.44378388 -0.16352937 -0.66383207 -0.19881625 0.46209922
farmacia 0.68672323 0.20218685 -0.40524286 -0.104859434 -0.018640986 -0.24092923 0.22833122 0.3520307 0.08421723 -0.2588547 -0.109160334 -0.38494566 -0.012005772 0.01182647 -0.0002644675 0.71391267 0.10523979 0.036763236 0.13570029 0.2640918 0.30673695 0.29172537 0.09609642 -0.1481554 0.5943606 -0.35656774 -0.041756075 -0.6288703 -0.043414444 0.32717353
thumbsup 0.6432516 0.18258029 -0.36432117 -0.08824778 0.01481966 -0.22400281 0.23888439 0.33700314 0.10082584 -0.25155142 -0.09616504 -0.34278247 0.0038764747 0.038464528 0.015647668 0.6879039 0.08254345 0.0063622626 0.15425003 0.25647905 0.29457933 0.24820113 0.1020637 -0.16907558 0.5565906 -0.35621306 -0.043194097 -0.5924993 -0.04187795 0.29347762
pasada 0.70865905 0.20710073 -0.39538485 -0.117054336 -0.0041061817 -0.22684635 0.24016671 0.37874642 0.0666136 -0.27238503 -0.13237812 -0.39325473 -0.025238784 -0.0026452837 0.0051245284 0.77214384 0.074249834 0.023751326 0.13098833 0.28083974 0.36791778 0.258261 0.12300123 -0.20086156 0.6688013 -0.3333523 -0.04324146 -0.6439008 -0.05042152 0.33259732
control 0.7058027 0.20949593 -0.341802 -0.11204177 -0.01828366 -0.21071272 0.24464726 0.33089164 0.054442935 -0.28238782 -0.10880552 -0.3616643 0.024398675 0.059155375 0.014171706 0.6811073 0.07749522 0.020229196 0.13415536 0.2562032 0.3365139 0.27817687 0.10711008 -0.17246115 0.63573444 -0.33967665 -0.058181778 -0.65180326 -0.012470242 0.3326079
prioritaria 0.7380362 0.26568013 -0.32342935 -0.08536311 -0.0206533 -0.25865182 0.24766304 0.3612182 -0.0044435337 -0.2615841 -0.14040913 -0.4008643 0.061204456 0.05015864 0.050170563 0.6966228 0.13201343 0.039343618 0.18115276 0.30793688 0.33268678 0.31548786 0.11316674 -0.18472786 0.667245 -0.43119872 -0.056119096 -0.7239655 -0.010947644 0.35055786
requiere 0.6813895 0.18908262 -0.3653087 -0.113870226 -0.01668042 -0.23962457 0.2516201 0.3409287 0.07549406 -0.2431521 -0.12681109 -0.37248284 -0.00018197042 0.029464655 0.023735538 0.69552934 0.094151616 0.0134745985 0.1440885 0.25322774 0.3108929 0.26653275 0.09045257 -0.1740388 0.59319186 -0.3257027 -0.071210496 -0.639984 -0.024608009 0.28851008
nesecito 0.6555001 0.1986773 -0.382939 -0.10358049 0.008719742 -0.23140885 0.24863411 0.36438495 0.0327736 -0.254586 -0.07402531 -0.3356135 0.04149661 0.04944189 -0.0057368916 0.7133407 0.11278243 0.0033110024 0.12922844 0.2475695 0.29897764 0.28915218 0.11103987 -0.1769909 0.5679021 -0.36345208 -0.0673367 -0.62529653 -0.081934474 0.327723
enviando 0.65639627 0.17070998 -0.38674694 -0.08469022 0.010476948 -0.23615317 0.21963361 0.34647098 0.10614915 -0.27405927 -0.12109577 -0.3547782 -0.020929841 0.02856056 0.01786599 0.71347976 0.09014878 0.009215617 0.12733182 0.24556953 0.33608297 0.27673584 0.09537719 -0.1683317 0.5821591 -0.3357349 -0.062448706 -0.5952477 -0.025498046 0.32039675
resultado 0.810134 0.30023906 -0.40483403 -0.08800615 0.08533594 -0.24173193 0.27021986 0.22826548 -0.08541618 -0.285623 -0.15013306 -0.36046097 0.14076534 0.079823 0.09610821 0.6570534 0.15557872 -0.081628025 0.17867465 0.30629945 0.34437823 0.27770647 0.05035962 -0.21216048 0.7177999 -0.3679603 -0.095745884 -0.67595094 -0.045117535 0.37394625
ultima 0.66745466 0.19538341 -0.38711852 -0.10484699 0.0015191446 -0.2207264 0.21621037 0.34361017 0.11434812 -0.26800618 -0.14399873 -0.35348466 -0.025202936 0.02860343 -0.00791131 0.69596505 0.07414586 0.02661088 0.12050017 0.26620975 0.3008792 0.2548178 0.08088184 -0.1461631 0.5857825 -0.33633175 -0.034142107 -0.6043447 -0.063439004 0.3206148
comunico 0.6643511 0.1722669 -0.3888263 -0.07821499 0.008248837 -0.24523726 0.24561915 0.3562033 0.07162684 -0.2618642 -0.094108425 -0.3651154 -0.014605056 0.01722683 0.021747397 0.72568923 0.08015549 -0.007966718 0.1434034 0.27916485 0.30727386 0.28195077 0.09408728 -0.17146204 0.5761613 -0.34526637 -0.0581781 -0.625452 -0.06314923 0.32557687
mipres 0.69797575 0.20162347 -0.38494766 -0.08448681 0.007145948 -0.23077178 0.24321353 0.34374946 0.085908286 -0.2471788 -0.12027282 -0.40226805 -0.023130365 0.018689463 0.0054632 0.7084123 0.046544038 0.03416174 0.122317135 0.2787368 0.32360154 0.24616422 0.088970006 -0.15913725 0.6061745 -0.3422872 -0.04107041 -0.6099289 -0.037459623 0.2961677
queda 0.6808499 0.17355902 -0.41922453 -0.09810279 -0.003710424 -0.23423275 0.2369302 0.34453818 0.11018311 -0.27998266 -0.14581084 -0.37215468 -0.027025018 0.030819086 0.019291839 0.74020666 0.11716972 0.032078885 0.13365911 0.29569745 0.3065522 0.2894305 0.0963102 -0.15886828 0.6418696 -0.3310958 -0.05197448 -0.6526882 -0.051788513 0.34620708
gotas 0.6473501 0.1918593 -0.372226 -0.072101854 0.026019001 -0.22417887 0.22629412 0.34140408 0.112307645 -0.25161502 -0.13378187 -0.37768245 0.011355932 0.020669473 0.03317512 0.7190443 0.06332117 0.022762245 0.12812349 0.25984478 0.30729073 0.27473265 0.082735345 -0.1621903 0.60990614 -0.3434828 -0.061617773 -0.59528565 -0.023582568 0.31456774
entregas 0.721802 0.2122533 -0.38417545 -0.0714734 0.009957443 -0.21607798 0.23514555 0.39194834 0.079792626 -0.27956963 -0.11528106 -0.38466626 -0.0051813507 0.01825901 0.02806245 0.7349574 0.10041925 -0.016273934 0.14442126 0.30296385 0.3266206 0.29473016 0.09162481 -0.1823182 0.6216636 -0.3511397 -0.070056714 -0.63177514 -0.041171793 0.31909305
bn 0.6957284 0.20573653 -0.39209715 -0.10670168 0.017956631 -0.24527101 0.2598357 0.34955078 0.03185539 -0.23922099 -0.13878644 -0.35793093 -0.0039722095 0.037619166 0.036343787 0.6594543 0.09849676 0.022575459 0.12130502 0.29258138 0.29912108 0.28670767 0.087898955 -0.17798579 0.630586 -0.36605734 -0.061347477 -0.62177366 -0.05400817 0.33303583
drogueria 0.6852583 0.18666895 -0.3763302 -0.095146775 0.019580044 -0.22315548 0.24629748 0.34418884 0.08448519 -0.25435773 -0.111624874 -0.38118184 -0.018318836 0.025913047 0.012756545 0.70187145 0.09193764 0.024833556 0.12443436 0.28812417 0.32930523 0.2696972 0.08414291 -0.1601669 0.598738 -0.36843356 -0.06850962 -0.625795 -0.06856052 0.30392805
legible 0.6742023 0.20191927 -0.3843211 -0.101462245 0.010545461 -0.20472854 0.22952716 0.34979507 0.08699292 -0.2598845 -0.13932432 -0.39129916 0.005873696 -0.0050351033 0.020536622 0.72399163 0.092796355 0.03047923 0.13971093 0.25868824 0.31369558 0.2713713 0.07297417 -0.16604409 0.58616644 -0.32132167 -0.03818965 -0.5988649 -0.06086188 0.30614373
afiliacion 0.6839321 0.19224629 -0.371229 -0.07228779 -0.011575731 -0.21918394 0.22744553 0.33976012 0.0771335 -0.25157255 -0.13655204 -0.37396836 0.026578745 0.031858657 0.00023080247 0.7008096 0.0765132 0.009074196 0.13088217 0.2527305 0.32170823 0.27034345 0.102846354 -0.15972786 0.6081828 -0.37202066 -0.031884898 -0.64502084 -0.0656597 0.32016677
lleguen 0.66974396 0.18823004 -0.39184517 -0.11896591 -0.0077430527 -0.22854574 0.25550327 0.3796864 0.11311736 -0.29459748 -0.12490888 -0.37306646 0.0003605429 0.017321073 0.014173228 0.72099423 0.10313382 0.031465232 0.15267454 0.29440627 0.31239662 0.28912535 0.09225969 -0.18158613 0.6384241 -0.3328705 -0.040567838 -0.62462234 -0.075324446 0.32193413
colaboracion 0.6787238 0.210519 -0.35396746 -0.07490454 -0.012821872 -0.22268774 0.22935256 0.35622382 0.07133009 -0.25997183 -0.10441601 -0.35085174 0.003951266 0.009394661 0.012141253 0.6921625 0.09737593 0.039355196 0.12983428 0.2614309 0.32557118 0.2791693 0.104638755 -0.17272058 0.62459403 -0.34687924 -0.053005345 -0.6130058 -0.037477374 0.31540045
volver 0.6414599 0.17140475 -0.36105052 -0.06957944 0.023417292 -0.22407286 0.23644343 0.33715758 0.08539646 -0.23987316 -0.13471453 -0.3718898 -0.015967963 0.02091729 0.016663814 0.64217615 0.08319501 0.008229265 0.123328574 0.258665 0.32840684 0.2681472 0.07224701 -0.17361107 0.57751125 -0.3393856 -0.03587743 -0.56378895 -0.03031333 0.28944427
llamada 0.7073646 0.20446992 -0.36064842 -0.06110222 0.018621389 -0.21932127 0.2472971 0.32590374 0.07758678 -0.28218794 -0.14018534 -0.39229208 0.03247476 0.029135108 0.03598637 0.7027839 0.10694131 -0.007997925 0.13279997 0.29263136 0.32636288 0.29348955 0.08736219 -0.16528651 0.6485794 -0.37790287 -0.041230004 -0.63005847 -0.031487226 0.32807657
opcion 0.6949484 0.19675083 -0.39539146 -0.081606135 -0.025959555 -0.23637934 0.2312429 0.3174338 0.07191545 -0.28231728 -0.119656615 -0.38553667 0.013506819 0.052303944 0.0236438 0.73943645 0.09713581 0.023440545 0.16424763 0.27557272 0.3294089 0.28424552 0.12104781 -0.14567544 0.6377561 -0.3950786 -0.045925982 -0.68830544 -0.0067882687 0.3137765
adjunto 0.630251 0.1948179 -0.35706878 -0.08416951 -0.0053795413 -0.21930578 0.23658955 0.3436916 0.11624379 -0.25264588 -0.13384832 -0.35232908 -0.009853356 0.009095209 0.0008160635 0.69039214 0.07099158 0.025532117 0.14490333 0.26217374 0.29768136 0.25316513 0.10095988 -0.15948373 0.5765139 -0.3161301 -0.06148213 -0.58091563 -0.026380615 0.28052074
comunicar 0.7369984 0.24012339 -0.412314 -0.068047784 -0.030314827 -0.2606014 0.24861994 0.33257195 0.077849574 -0.28434032 -0.13506983 -0.41079414 -0.033769917 0.027584165 0.04528469 0.73790854 0.08255241 0.018298771 0.14029694 0.27562267 0.3166069 0.26669922 0.11152311 -0.20117122 0.65132767 -0.40135494 -0.08370816 -0.6794188 -0.04702381 0.3173294
sii 0.6559705 0.18208833 -0.38688612 -0.10525561 0.011577899 -0.21088606 0.21490029 0.3562263 0.10608989 -0.23797604 -0.100877315 -0.37733293 -0.0007726841 0.0058786003 0.00388314 0.7132165 0.10173166 0.003351237 0.15669893 0.25105247 0.31872976 0.25534925 0.07250671 -0.1450563 0.62117636 -0.33918276 -0.023766253 -0.6283279 -0.061554275 0.28199297
autorizado 0.65411925 0.1998517 -0.38447627 -0.08769753 0.029739367 -0.2378009 0.21681122 0.3801289 0.06457934 -0.26926193 -0.11540713 -0.37324575 -0.012840534 -0.0024872085 0.013528678 0.6967884 0.105835654 0.010480122 0.13900794 0.25327945 0.29832727 0.26191223 0.10968152 -0.18656643 0.5825895 -0.32699367 -0.067677766 -0.6167626 -0.06869233 0.33118817
solucion 0.70604146 0.20773956 -0.3743385 -0.09898029 -0.0015470076 -0.22062817 0.23529667 0.37483364 0.09520016 -0.27287492 -0.14799272 -0.36754864 0.01801291 0.0405207 0.005870952 0.76069725 0.11538923 0.010534586 0.12120718 0.27503434 0.3393255 0.26824355 0.07857594 -0.17618059 0.6439111 -0.3473433 -0.056799266 -0.66867757 -0.0356155 0.32503232
interior 0.6434344 0.18836221 -0.36782745 -0.076046616 0.012233716 -0.22180389 0.21796454 0.34881184 0.10496521 -0.25595677 -0.1358551 -0.36692607 0.017259317 0.018442646 0.0125525 0.69189537 0.07920451 0.013963096 0.11669025 0.28494957 0.3252393 0.22494872 0.11641414 -0.1598354 0.6156593 -0.3383177 -0.039242845 -0.5855329 -0.036208794 0.276176
transversal 0.6526906 0.19233216 -0.38962376 -0.098215885 0.009449177 -0.24868755 0.2303488 0.36367255 0.081689976 -0.2600991 -0.10436333 -0.33929384 0.0155644 0.03760585 0.031616572 0.70995533 0.09659193 -0.0026675737 0.15222928 0.27213398 0.3099506 0.26138806 0.07913145 -0.15985343 0.59263825 -0.33081672 -0.033710897 -0.6043686 -0.027602043 0.3026941
llamar 0.72087836 0.18360044 -0.4234755 -0.089922324 -0.0006822028 -0.25069702 0.25236112 0.36262265 0.07701069 -0.26110056 -0.12850456 -0.37613273 0.0022491473 0.01775856 -0.0032204795 0.7757246 0.11646796 0.011989082 0.16241351 0.29755232 0.3489833 0.29842314 0.10394817 -0.20025142 0.6578908 -0.3868871 -0.049095944 -0.6700192 -0.084084354 0.3373437
ecografia 0.69059587 0.19735646 -0.39398792 -0.05659739 -0.01680763 -0.21598917 0.21388794 0.35535082 0.0703259 -0.30906427 -0.081465036 -0.32677937 0.01176934 0.031919964 0.028266793 0.7012057 0.07049736 0.004669501 0.13848908 0.24314265 0.2717605 0.30505106 0.12842448 -0.12404633 0.63173866 -0.34548697 -0.03258441 -0.68418473 -0.04838392 0.25903565
localidad 0.67994684 0.20311064 -0.3926836 -0.068314165 0.0028829554 -0.2271394 0.22242776 0.34889674 0.10618339 -0.24932073 -0.09486724 -0.36925215 0.0014201613 -0.003444027 0.018517911 0.6985037 0.08494337 0.038366884 0.13427648 0.29251906 0.326659 0.23100924 0.1049061 -0.16840024 0.58292866 -0.33423206 -0.05909601 -0.6113626 -0.034075968 0.29169866
comunicarme 0.6605748 0.2209036 -0.38075352 -0.091188654 8.71504e-06 -0.21107306 0.24431694 0.3376891 0.084054425 -0.2517439 -0.11098773 -0.37092084 -0.002542268 0.029330678 0.0075057684 0.71264577 0.09816984 0.022360157 0.13815428 0.2592885 0.3281013 0.25796962 0.0976266 -0.17447396 0.6241308 -0.34524477 -0.041401148 -0.63704145 -0.028454136 0.31764108
escribo 0.66061056 0.1781112 -0.3655164 -0.07189091 0.026245514 -0.2316428 0.21539216 0.3555703 0.0703743 -0.25517663 -0.09241947 -0.3593404 -0.01789174 0.033050664 0.03384686 0.6989187 0.067947306 0.022611389 0.11996359 0.26101547 0.28956392 0.2747326 0.09776112 -0.17387082 0.5511099 -0.33046773 -0.043906245 -0.5906207 -0.052676383 0.30786523
tirilla 0.72194886 0.19251 -0.4246645 -0.102844566 0.03171596 -0.24492419 0.22828542 0.4126 0.09148051 -0.285719 -0.11051104 -0.3895987 0.015181938 0.038041368 0.026783887 0.7816443 0.120704524 -0.038193587 0.13531375 0.29819056 0.32260126 0.27487624 0.1034525 -0.18705812 0.6176833 -0.3704438 -0.083957486 -0.6408955 -0.08693873 0.35390916
bloque 0.6453197 0.17418659 -0.35397726 -0.07123951 -0.004190692 -0.22010362 0.23367882 0.3441091 0.10513833 -0.2527917 -0.10490061 -0.34742442 -0.006190858 0.009724278 0.00060760276 0.68654674 0.061098445 0.028829398 0.13551748 0.24417745 0.3136937 0.2466207 0.096847326 -0.1790056 0.5965309 -0.31456196 -0.041910358 -0.5844427 -0.036304884 0.26482147
porfa 0.67533326 0.19355479 -0.37774637 -0.09699701 -0.015955286 -0.219879 0.25328332 0.34716618 0.090809606 -0.2799189 -0.12288043 -0.37791812 0.022835141 0.0118750045 0.031579077 0.70734453 0.093921185 0.010273736 0.13728006 0.2680408 0.33075804 0.2653593 0.09466231 -0.15560338 0.6046649 -0.33619854 -0.0629984 -0.60256046 -0.044507194 0.31034538
seguir 0.6734571 0.23151615 -0.37458244 -0.071249455 0.004172297 -0.247542 0.24737275 0.3440369 0.09933585 -0.28562847 -0.123815924 -0.3737779 -0.0015825803 0.035325635 0.031428847 0.71930575 0.092606686 0.008507784 0.16417396 0.30008018 0.31082043 0.27525416 0.11908491 -0.16184427 0.62135285 -0.38739696 -0.061446987 -0.6415561 -0.03989467 0.31758323
mensaje 0.6776249 0.19202898 -0.41347235 -0.10802973 0.032086425 -0.23935103 0.24838239 0.3794586 0.06677451 -0.24898703 -0.090034485 -0.3730923 0.004941547 0.00079535367 0.030707626 0.7485352 0.09757879 -0.015986826 0.14961386 0.2500288 0.31341165 0.2676941 0.121924505 -0.1855988 0.5827239 -0.3721668 -0.050313506 -0.6230952 -0.056996386 0.32317576
diagonal 0.6302362 0.18986617 -0.36818257 -0.056710046 0.009816124 -0.22386101 0.22088975 0.35077387 0.08135516 -0.24499476 -0.097875096 -0.35279492 -0.0028552706 0.015200086 0.035918947 0.6781279 0.06226503 0.03614452 0.13227001 0.2577892 0.2998581 0.25883752 0.08856378 -0.14588834 0.58469087 -0.34139097 -0.050339926 -0.56872135 -0.03707856 0.27818355
reprogramar 0.6461964 0.17975906 -0.40688136 -0.06698116 -0.027905371 -0.22705622 0.17783691 0.34987098 0.024707733 -0.27138165 -0.08291671 -0.41081384 0.00896292 0.088513255 0.036446888 0.73288167 0.11724668 0.012766655 0.20007257 0.24474528 0.28511262 0.27809954 0.13800685 -0.15126918 0.64821035 -0.3963604 -0.045839176 -0.7081401 -0.024322096 0.34222046
verificar 0.6504323 0.18698499 -0.4090232 -0.07551107 0.015032752 -0.22787246 0.23861098 0.3824664 0.08846308 -0.23777264 -0.1138294 -0.3434375 0.014299527 0.03958609 0.005441264 0.7186825 0.11410884 0.0036418606 0.1280632 0.2467912 0.3029024 0.2580018 0.097270444 -0.17762393 0.5719961 -0.34985894 -0.054558136 -0.6219371 -0.07013384 0.32950553
pediatria 0.6880529 0.19231051 -0.37196043 -0.072808444 -0.022713458 -0.25856742 0.24012996 0.37425074 0.059998807 -0.2888813 -0.09952782 -0.39797166 -0.005237734 0.04309858 0.03314507 0.7276347 0.101366386 0.027380055 0.16083409 0.30137864 0.3260176 0.284132 0.13025981 -0.16360489 0.6158294 -0.41145688 -0.06403262 -0.6670704 -0.010884368 0.31370166
equivoque 0.64396346 0.18921132 -0.35669857 -0.064160265 -0.011217481 -0.23698667 0.20916256 0.33959183 0.08034041 -0.252641 -0.100793935 -0.37595853 0.010109343 0.009757235 0.02414219 0.67732185 0.0715319 0.016489394 0.124092266 0.26375067 0.3171972 0.265295 0.110725656 -0.16627635 0.5860717 -0.34449324 -0.032546006 -0.591247 -0.01867773 0.2992731
pueda 0.6868382 0.21298899 -0.41226953 -0.12240171 0.012518024 -0.22540204 0.25654414 0.3617379 0.08587755 -0.26433337 -0.14385252 -0.37377557 -0.01954333 0.03303138 -0.0016113176 0.7308383 0.091391064 0.028277509 0.15165669 0.27879292 0.2994835 0.28883108 0.101329945 -0.1674975 0.6249292 -0.3284091 -0.069454156 -0.64453036 -0.072240375 0.3382203
entregar 0.69309473 0.20158641 -0.38947776 -0.09300918 -0.002327482 -0.21705824 0.22046086 0.3523687 0.107191734 -0.2791674 -0.15095955 -0.3861212 -0.024724692 0.005885724 0.009138534 0.707733 0.06591731 -0.0042772777 0.1215022 0.28611973 0.33625707 0.25723526 0.08635892 -0.18146868 0.6366409 -0.35239708 -0.046216648 -0.60978377 -0.036779027 0.3318031
tramite 0.71589154 0.22004849 -0.41939226 -0.07933792 -0.0021320384 -0.24970634 0.2549673 0.35289264 0.08349483 -0.2835802 -0.124560915 -0.4028549 -0.0020278988 0.022280188 0.006709442 0.73250794 0.096757 0.031503484 0.1294491 0.2674278 0.34523422 0.280291 0.08680679 -0.19130172 0.61578184 -0.33253703 -0.033993308 -0.6542945 -0.04589889 0.33189246
pastas 0.6950578 0.17851476 -0.3854966 -0.11066691 0.003600617 -0.23600325 0.25631946 0.36027172 0.10599225 -0.2643537 -0.14360902 -0.38941944 0.0021562173 0.03982163 0.036635656 0.73032004 0.069355845 0.045086138 0.13289598 0.26160586 0.35379824 0.24392237 0.11564326 -0.17612694 0.6078755 -0.35303098 -0.06721228 -0.6406803 -0.041959707 0.30516
rapido 0.71880823 0.20604531 -0.37989286 -0.092452765 -0.015283607 -0.22143728 0.25227037 0.3812785 0.079188496 -0.27786955 -0.13564312 -0.40096718 -0.012852766 0.0012000938 0.031217309 0.71790236 0.068905 0.025282964 0.12871714 0.2852089 0.3204959 0.2586901 0.079302385 -0.19003244 0.6534283 -0.35212952 -0.05199384 -0.6257184 -0.044811696 0.31626782
grinning_eyes 0.7737026 0.18115444 -0.43901095 -0.12870102 -0.03794005 -0.25515527 0.21247679 0.34781992 0.09746381 -0.24899562 -0.05263994 -0.3935751 -0.0051543275 0.03271956 0.058021244 0.7564154 0.09091369 0.0008658472 0.119801156 0.3376582 0.33086887 0.24269052 0.0349219 -0.20447466 0.6842592 -0.4355943 0.018255247 -0.6024509 -0.017334823 0.2832208
elibeth 0.6081497 0.19592124 -0.35815966 -0.07417196 0.014313735 -0.20661607 0.19909094 0.34156334 0.079641126 -0.23856021 -0.117133014 -0.34690657 0.015029215 0.017859783 0.012819639 0.6572638 0.080700144 -0.002546579 0.11819767 0.2350217 0.29443014 0.26302734 0.08298995 -0.14219424 0.5295167 -0.30548516 -0.046805833 -0.5528127 -0.053573653 0.2965165
personas 0.7043565 0.19019836 -0.41361988 -0.10896009 -0.01408912 -0.20972075 0.22065556 0.341657 0.11759217 -0.2719882 -0.11918958 -0.4027026 -0.011352922 0.020141225 0.029304571 0.7313536 0.066085875 0.005507882 0.14119732 0.29460135 0.33099386 0.27677122 0.111684814 -0.15296286 0.6046071 -0.34737575 -0.04621705 -0.60719544 -0.030855352 0.30061284
pre 0.7030235 0.23428336 -0.41744882 -0.055715386 -0.013862281 -0.2625398 0.27573058 0.32886332 0.06433392 -0.27793008 -0.113847554 -0.41048917 -0.0014325654 0.043079946 0.03951914 0.76369923 0.08397013 0.042866006 0.14866957 0.28514796 0.34963253 0.26738247 0.09749631 -0.20364556 0.6240504 -0.38748455 -0.04765147 -0.6425737 -0.029475288 0.34625772
usuario 0.7221857 0.20389599 -0.40241358 -0.09551233 -0.0022954352 -0.24158046 0.23450637 0.36982226 0.08564065 -0.26965785 -0.12963983 -0.37462434 -0.02141568 0.044032298 0.025744762 0.7346524 0.07178665 0.01588554 0.1451552 0.28811094 0.31336004 0.30020183 0.09750489 -0.1932597 0.6499804 -0.3489839 -0.06907632 -0.6757579 -0.045824006 0.3375631
salir 0.6731581 0.20787728 -0.41329572 -0.07139783 0.016683502 -0.22480004 0.24675867 0.36062834 0.098601885 -0.27120605 -0.12792557 -0.38537976 0.011985838 0.040759724 0.018565398 0.72722775 0.08457079 0.027396556 0.14625764 0.25894642 0.3225871 0.26072028 0.09738782 -0.1695041 0.61421347 -0.36518848 -0.051683947 -0.63910675 -0.059981875 0.33536932
necesita 0.67141426 0.1899129 -0.34749854 -0.07982419 0.0076920805 -0.22389893 0.24725576 0.34511217 0.082315974 -0.25421 -0.13971037 -0.3563376 -0.029381419 0.005275741 0.010980031 0.65466416 0.08054717 0.02239942 0.11739972 0.271812 0.30583027 0.23992465 0.07025689 -0.1468431 0.57431597 -0.3378756 -0.024141135 -0.59966296 -0.025130361 0.31321585
insulina 0.746904 0.1858166 -0.42401958 -0.1155617 0.010925214 -0.19956484 0.25748563 0.3582961 0.0905902 -0.30883747 -0.1281913 -0.41433993 0.0068938276 0.012660851 0.003097309 0.7728081 0.115779996 0.036519196 0.14487065 0.24395967 0.38843384 0.24326915 0.09626221 -0.15341665 0.65038186 -0.40609846 -0.044088982 -0.6754128 -0.038757235 0.32932612
srta 0.6621054 0.18554537 -0.35854158 -0.08631417 -0.024852052 -0.22810705 0.21407399 0.38297665 0.11490373 -0.23403376 -0.11822606 -0.39630535 -0.024225406 -0.011255888 0.0016814175 0.7251039 0.09855454 0.049832217 0.15940171 0.28405246 0.29839903 0.23300931 0.08079759 -0.1479065 0.60466933 -0.36921507 -0.056886412 -0.6216224 -0.03267941 0.33939847
entregado 0.6630186 0.19790965 -0.37806344 -0.087830685 -0.0005030394 -0.21798299 0.24611418 0.36612996 0.06700363 -0.26086336 -0.11327223 -0.3613828 -0.0028955538 -0.002593255 0.017576689 0.72215915 0.07011839 -0.0027687848 0.12355254 0.26482004 0.33927923 0.2514588 0.093366 -0.17164235 0.63062096 -0.34252277 -0.058978766 -0.6202472 -0.039360333 0.321747
domiciliaria 0.69960254 0.21377917 -0.3601369 -0.09289724 -0.00068774924 -0.20563316 0.21417148 0.34226367 0.08107145 -0.24475183 -0.10016595 -0.37151775 0.01753852 0.03963168 0.02367039 0.71794087 0.09660442 0.027251149 0.15177038 0.2697694 0.3255087 0.28554437 0.095217764 -0.16002636 0.61843586 -0.383414 -0.04078059 -0.6585588 -0.021305777 0.28726965
domicilios 0.6905546 0.1965925 -0.39855403 -0.07380208 0.02159725 -0.22669044 0.23076633 0.3386587 0.091337904 -0.28016505 -0.12876509 -0.37442288 -0.017203283 0.009315786 0.036939226 0.72344774 0.08613185 0.032547902 0.120830745 0.2514791 0.33936828 0.27343154 0.10989843 -0.18120402 0.6174537 -0.3449635 -0.075098075 -0.6199948 -0.036081504 0.29542214
vulnerable 0.6866304 0.23500834 -0.37773198 -0.10204589 -0.023484405 -0.20001234 0.21121056 0.3715794 0.08681768 -0.28042698 -0.13930693 -0.41653788 -0.0054237875 -0.0010215864 -0.0007563317 0.7024453 0.11842539 0.015587102 0.15087596 0.2651906 0.3040652 0.2943776 0.10448958 -0.14330699 0.6162668 -0.38783243 -0.027893353 -0.65028995 -0.06849318 0.3209551
odontologia 0.6888721 0.18045701 -0.36534038 -0.083188295 0.0053164214 -0.252827 0.21568426 0.31989375 0.09009162 -0.26675195 -0.14015521 -0.32167855 0.016448688 0.07404097 0.0347284 0.7306583 0.13080545 0.034262083 0.14349112 0.28074202 0.28524798 0.2939825 0.08014378 -0.16782211 0.64416015 -0.38059613 -0.023185737 -0.6930001 0.003922967 0.34446856
llamado 0.7518338 0.19773167 -0.39590698 -0.048588265 -0.007520606 -0.24886113 0.30679294 0.3209094 0.06531574 -0.24508958 -0.12053289 -0.367464 -0.0053767045 0.039745755 -0.02148705 0.75517535 0.06687955 0.023217488 0.11791576 0.30934197 0.3692762 0.32918102 0.14020722 -0.21440217 0.6834293 -0.3648449 -0.033116367 -0.6779766 -0.10158499 0.35564783
pm 0.7030286 0.20160346 -0.38752916 -0.07166601 -0.012753988 -0.22246 0.2640333 0.35636124 0.09127931 -0.25579932 -0.13199267 -0.37865964 -0.021471247 0.0397547 -0.0013683508 0.7235774 0.06935703 0.03412794 0.12090996 0.2836318 0.34549767 0.3025719 0.11594835 -0.16923727 0.6386218 -0.33901465 -0.06617245 -0.66139257 -0.024952691 0.31641364
archivo 0.64835906 0.20745032 -0.34859946 -0.058180857 -0.00444972 -0.20101948 0.22282527 0.3495066 0.082557976 -0.24070351 -0.121651314 -0.35651267 -0.0155916 0.009244994 0.023970244 0.67641747 0.08200614 0.0008003843 0.11999796 0.28198013 0.33242133 0.2664054 0.09347756 -0.17620587 0.5826181 -0.3322693 -0.034642994 -0.6027725 -0.0545184 0.29225186
escribir 0.67828375 0.21779978 -0.3742184 -0.08692746 -0.00593078 -0.23849298 0.24639276 0.3675759 0.08338699 -0.28431815 -0.112648375 -0.36666363 0.0059192954 0.021279722 0.008120157 0.7279539 0.07069854 0.026049906 0.135006 0.281953 0.32569364 0.26914027 0.11243756 -0.1699537 0.63445705 -0.3446875 -0.06950589 -0.6330619 -0.0394805 0.32628304
pendientes 0.6508967 0.20457038 -0.37515044 -0.08672317 0.010788407 -0.23306689 0.2498222 0.35622758 0.07895204 -0.27904767 -0.1086926 -0.3476643 -0.018502394 0.0013003517 0.008280573 0.73649895 0.10216685 0.030870607 0.14912707 0.2927244 0.33908078 0.27776825 0.1079591 -0.18897739 0.6080416 -0.34339833 -0.05314154 -0.6188039 -0.07563013 0.31348622
septiembre 0.65684515 0.1806685 -0.3945896 -0.1159879 0.024681937 -0.21505582 0.21549675 0.33635798 0.07500504 -0.27859586 -0.14277492 -0.37619397 -0.00934559 0.020066224 0.014620521 0.683317 0.084583454 0.0053235856 0.11067918 0.26579547 0.32623544 0.27057335 0.118687965 -0.19608648 0.60019684 -0.3193522 -0.07684622 -0.58854634 -0.05740789 0.30515838
jueves 0.6896224 0.2004346 -0.3872501 -0.10359792 0.0013522584 -0.21890917 0.23093101 0.3482614 0.061538264 -0.2569104 -0.14104356 -0.3823126 -0.0052283695 0.034444124 0.0073551163 0.7121043 0.09560826 -0.001568624 0.15596455 0.26817477 0.33400849 0.27404436 0.08041048 -0.1720767 0.62109953 -0.32581124 -0.07501201 -0.61810625 -0.030920003 0.32624772
supone 0.70042497 0.20886816 -0.42304197 -0.113314636 -0.0026096138 -0.24594386 0.23986593 0.3415052 0.081132695 -0.28147513 -0.138265 -0.36682358 0.002744033 0.019317215 0.017009012 0.7717214 0.10245993 0.020885902 0.1264351 0.3097088 0.32353854 0.2958597 0.09834673 -0.15632541 0.67910093 -0.3751864 -0.059774525 -0.6772089 -0.023436476 0.32659423
faltaron 0.7099199 0.16715069 -0.41123733 -0.073809795 0.002268556 -0.21846376 0.25648552 0.36695302 0.07318369 -0.28214517 -0.10734963 -0.3811125 -0.010346044 -0.021189002 0.019052014 0.7576859 0.08844485 -0.010713249 0.1255315 0.3017442 0.36184305 0.27598116 0.09009684 -0.17781441 0.6118276 -0.35683107 -0.028572155 -0.60386276 -0.05088103 0.31071347
completo 0.6852857 0.20546843 -0.39550123 -0.10677292 0.014965928 -0.21252649 0.22644114 0.34559873 0.10568313 -0.27937686 -0.10165681 -0.37310648 0.013214519 -7.30581e-05 0.012533217 0.74509406 0.1065512 0.009638411 0.124561444 0.28480637 0.35589364 0.26678377 0.09520946 -0.19043979 0.61227614 -0.3457948 -0.03403135 -0.6124735 -0.043238223 0.31309405
hazme 0.6925358 0.21069686 -0.39645475 -0.097220235 -0.0003749016 -0.21149915 0.209671 0.33213368 0.053478785 -0.28283426 -0.09168373 -0.39920747 0.029404914 0.04981489 0.0070247287 0.7273191 0.068539456 0.04142595 0.15910625 0.26420087 0.33441868 0.2889475 0.09849903 -0.16315159 0.6075341 -0.38104042 -0.056564007 -0.63500965 -0.049060002 0.31378537
miercoles 0.6591276 0.187165 -0.37475002 -0.07769145 0.024870018 -0.22304827 0.24087358 0.32874253 0.072376855 -0.2653518 -0.14005943 -0.37561655 -0.0018197899 0.024537116 0.01315903 0.68058264 0.08651184 0.012884237 0.11134202 0.28229332 0.3278134 0.2746389 0.08473279 -0.186485 0.605571 -0.32770705 -0.06983232 -0.60723835 -0.05866342 0.3119429
tramitar 0.6521956 0.19605039 -0.37465048 -0.094158664 0.023462694 -0.22958827 0.21729608 0.34438968 0.102255404 -0.25017816 -0.12769324 -0.36731613 -0.0017980442 0.02325432 0.002695893 0.70286065 0.08091288 0.01828388 0.14392076 0.2636214 0.30944988 0.23890609 0.092245206 -0.17218064 0.58662945 -0.3266012 -0.04661964 -0.5976967 -0.04646844 0.29999495
examen 0.7145149 0.23631938 -0.43640456 -0.06897899 -0.025091773 -0.25890428 0.25722077 0.32612264 0.08168031 -0.28060663 -0.1331052 -0.40918022 0.017870793 0.077064075 0.043189123 0.7979221 0.13304688 0.028682217 0.14147788 0.31494942 0.36437523 0.3146699 0.101642944 -0.20974882 0.6996551 -0.38910335 -0.06957784 -0.6887978 -0.031777713 0.36103958
pregabalina 0.6686993 0.13340056 -0.36408406 -0.091814645 0.036134455 -0.21789256 0.30287138 0.37605396 0.07790236 -0.2619504 -0.08659887 -0.37546352 -0.031286623 -0.017596541 -0.03892656 0.7514523 0.048760235 0.007056866 0.16921607 0.24741648 0.3140306 0.2552836 0.11299421 -0.15091836 0.6215542 -0.31919515 -0.025508841 -0.6325944 -0.046132825 0.32890365
raro 0.70064425 0.18256153 -0.3589278 -0.06048861 -0.025385024 -0.21844521 0.25003147 0.37208518 0.118076295 -0.26279113 -0.11317192 -0.3596304 -0.036811065 0.014650347 0.011660621 0.68739873 0.049709123 0.043703247 0.14382164 0.28537157 0.33466893 0.25389045 0.09037022 -0.16086149 0.60701853 -0.32698175 -0.05874759 -0.6003481 -0.018779896 0.33916852
comunicacion 0.68095535 0.20486808 -0.40799865 -0.086128935 -0.0050287065 -0.21275683 0.2351105 0.35010225 0.10391099 -0.2799356 -0.12093758 -0.39699265 0.014589978 0.044342004 0.012928323 0.7344192 0.080277435 0.032800026 0.12891117 0.25627702 0.34159923 0.25940973 0.09204733 -0.16560988 0.6220985 -0.37275022 -0.05027738 -0.6297078 -0.043257724 0.31923038
quedaron 0.6950643 0.18066196 -0.40758708 -0.08069136 0.022026222 -0.2361247 0.2717874 0.34246483 0.10648715 -0.2646909 -0.10087733 -0.34487513 -0.026015796 0.011744727 -0.025748234 0.77107877 0.10949448 0.015108689 0.14389208 0.2915608 0.33494496 0.3183312 0.12190742 -0.1997258 0.6046731 -0.39197353 -0.04507107 -0.6941911 -0.10815315 0.32871696
metformina 0.68958896 0.20586231 -0.39181298 -0.07069747 0.013923766 -0.2391187 0.24410912 0.34688586 0.09292052 -0.26285213 -0.124945074 -0.37158203 -0.010560163 -0.0026308117 0.020096062 0.749318 0.064643 0.021662125 0.1487735 0.27724847 0.33010647 0.2885387 0.13119458 -0.17430066 0.634199 -0.34566727 -0.051218197 -0.6542644 -0.031483732 0.3405191
programa 0.7232182 0.21239671 -0.36092246 -0.097602256 -0.032355934 -0.22965333 0.2166592 0.34931818 0.09734523 -0.28993407 -0.10265138 -0.38781956 0.025495471 0.033206422 0.029133324 0.70129955 0.10138558 0.024465792 0.16130818 0.26705343 0.30553997 0.27761143 0.081801355 -0.16600125 0.6319898 -0.36424845 -0.027813118 -0.6453923 -0.030727841 0.32330602
legibles 0.6530779 0.18439493 -0.36592978 -0.06795235 0.0037642554 -0.22086251 0.2305045 0.35085732 0.10500699 -0.26229218 -0.13262644 -0.38314587 -0.0048750932 0.02766272 0.023204561 0.674762 0.08030158 0.02652775 0.12018597 0.27569512 0.31341663 0.2664861 0.1091714 -0.15206781 0.5929471 -0.3458682 -0.036623362 -0.6097274 -0.029155266 0.31880558
ayudarme 0.6771801 0.1979129 -0.39733085 -0.0909351 0.014019927 -0.2168064 0.23033494 0.3808342 0.084499955 -0.27506858 -0.08874613 -0.35764155 -0.013509782 0.019321378 0.014711015 0.75773317 0.11931897 0.03025627 0.13077562 0.25845435 0.32376087 0.27890205 0.12191702 -0.15786754 0.61244875 -0.36758873 -0.051646933 -0.64666355 -0.030684887 0.31106222
mg 0.6701247 0.17837892 -0.3831494 -0.07589884 0.021060301 -0.21470144 0.25321564 0.3522047 0.11338354 -0.2743586 -0.11290229 -0.36188716 0.0013413477 0.031752717 0.0034702816 0.7189762 0.06303336 0.019704213 0.1082039 0.26997146 0.30139068 0.27834567 0.0734529 -0.177696 0.5976048 -0.3211633 -0.04218527 -0.6150414 -0.044181887 0.30815622
mandaron 0.65306 0.20074181 -0.40833318 -0.11054544 0.02598672 -0.24248533 0.26146325 0.36053258 0.06456551 -0.2643019 -0.10534979 -0.34749392 -0.0058565927 0.036514748 0.02331393 0.6905278 0.109403245 -0.005419701 0.12446993 0.2529399 0.30571213 0.26750743 0.114995986 -0.17578547 0.58989996 -0.37523726 -0.064394236 -0.618928 -0.055436015 0.32225025
cr 0.65212476 0.17946567 -0.35638317 -0.06438413 -0.0059051225 -0.22034556 0.20881958 0.31766504 0.107096486 -0.23344758 -0.09045589 -0.3596162 -0.015086532 0.02200958 0.0063220575 0.6537321 0.05864619 0.005659554 0.11703012 0.2610912 0.28947666 0.23036623 0.078612305 -0.14348716 0.58271515 -0.3481341 -0.020451535 -0.55452263 -0.036115937 0.29886878
programacion 0.6425002 0.20529118 -0.36701772 -0.09997699 0.001438398 -0.21190457 0.23451677 0.35133123 0.08631462 -0.27623576 -0.12605144 -0.376923 -0.00849821 0.024227096 0.004875611 0.70275366 0.09409596 -0.0012436992 0.1195532 0.24712653 0.29992005 0.24494869 0.09025371 -0.14997233 0.59194183 -0.33063602 -0.057504594 -0.6053633 -0.056802582 0.3073598
presencial 0.7527385 0.26453608 -0.36239472 -0.09949516 0.021563327 -0.2689251 0.23738079 0.34734055 0.025730995 -0.2631797 -0.1285399 -0.3746319 0.04118251 0.0535367 0.032639384 0.7628971 0.107537895 0.030603917 0.15798266 0.29606125 0.33675584 0.33441114 0.12681764 -0.1837063 0.6740988 -0.40331444 -0.067759186 -0.73813576 0.0034283851 0.36193177
calcio 0.6553557 0.1827839 -0.40222356 -0.08682792 0.024193635 -0.25351742 0.21915191 0.34605718 0.098194145 -0.2589617 -0.14048705 -0.35790837 0.0074185343 0.03591157 0.030799024 0.7124352 0.07972031 0.038016666 0.15734483 0.2688407 0.32577944 0.2786084 0.08775285 -0.16170938 0.6142482 -0.36445642 -0.061944723 -0.6124985 -0.033540223 0.29072025
enviados 0.65693504 0.17125174 -0.37830502 -0.07460673 0.017637366 -0.21641606 0.20493335 0.34358403 0.10443606 -0.25214672 -0.105130084 -0.34453112 -0.0069383406 0.008492828 0.0089903455 0.69393206 0.055832185 0.014502787 0.14070962 0.2688109 0.31342936 0.26810566 0.100719206 -0.17062992 0.59136623 -0.31145203 -0.041067872 -0.6121392 -0.040680166 0.28733984
numeros 0.64982635 0.18740399 -0.37673184 -0.05964801 0.014279417 -0.22823402 0.2388451 0.33793023 0.0924919 -0.27373093 -0.12050121 -0.35696128 -0.007426742 0.027738376 0.015878279 0.70092624 0.07525955 -0.007349454 0.12755911 0.2531543 0.30704972 0.25489444 0.096247226 -0.1795198 0.56582284 -0.3278866 -0.07204917 -0.6019178 -0.056012813 0.30467716
domiciliario 0.70076764 0.21276854 -0.3800258 -0.07358653 0.01761292 -0.22151561 0.24034892 0.3256081 0.07524008 -0.265899 -0.119286306 -0.3815042 0.016343497 0.0249201 0.019326271 0.7368288 0.07561164 0.041714896 0.12069459 0.26465937 0.33356953 0.3017575 0.1180465 -0.1706937 0.6078689 -0.3892654 -0.056705628 -0.6609232 -0.01822601 0.30831233
abuela 0.7163899 0.17772263 -0.42057905 -0.09111323 0.00084178 -0.22883993 0.26335132 0.38153863 0.09780988 -0.28104344 -0.12848032 -0.38710195 -0.0123851355 0.033241473 0.0066233096 0.7311619 0.09642096 0.02097998 0.13368267 0.30766207 0.33296975 0.30190983 0.124042474 -0.17018162 0.6457779 -0.3569574 -0.04070058 -0.6349379 -0.058608416 0.31655532
mejorar 0.7048184 0.2200717 -0.3811469 -0.087399215 0.01819366 -0.24706349 0.24083394 0.3480598 0.095106736 -0.25932613 -0.12572809 -0.39001948 0.009699818 0.046439994 0.04217493 0.74934167 0.11144238 0.01938748 0.13964812 0.29137644 0.31069976 0.27249515 0.09479331 -0.17114471 0.62792283 -0.3419747 -0.076622695 -0.64311975 -0.029171988 0.3257196
traen 0.68225074 0.21101426 -0.39681792 -0.08889215 -0.004983586 -0.20569614 0.2172277 0.33918864 0.09348443 -0.28415763 -0.11560073 -0.3798605 0.010902309 0.008761668 0.00058850367 0.68759644 0.07391414 0.005408372 0.14132908 0.2582702 0.3092953 0.27850342 0.088356994 -0.15603705 0.60866797 -0.35522583 -0.042571217 -0.6098488 -0.051003158 0.32359734
terapia 0.6842265 0.1987819 -0.39649877 -0.05973892 -0.026392447 -0.24760526 0.2597536 0.35679516 0.10237456 -0.25737178 -0.105291486 -0.3871997 -0.012543083 0.02108047 -0.0045409123 0.733813 0.068201475 0.0124314 0.15084471 0.29685295 0.3468623 0.29624525 0.12817286 -0.19406903 0.6213489 -0.3978674 -0.0339647 -0.6897079 -0.053828828 0.318662
positiva 0.72490513 0.2292402 -0.32913607 -0.08056668 0.030425495 -0.2262666 0.21223482 0.35188636 0.02646158 -0.2703608 -0.14508323 -0.36658037 0.04934527 0.038965665 0.041269213 0.7181171 0.10704493 -0.012352335 0.14325549 0.3013325 0.3241797 0.32918018 0.095347606 -0.21335858 0.6709424 -0.41187975 -0.043292057 -0.70289564 -0.003507636 0.32147628
atenta 0.6769772 0.18502583 -0.40023866 -0.09748344 -0.002117538 -0.21166359 0.2282997 0.34554163 0.07557082 -0.25770476 -0.14242296 -0.3727721 0.010144217 0.038189925 0.029537527 0.7233045 0.0985041 0.03503955 0.122291796 0.28882018 0.33214366 0.26325917 0.08225208 -0.17442356 0.63639516 -0.3552169 -0.042878 -0.63893634 -0.063202694 0.32276964
levotiroxina 0.69429624 0.19924532 -0.4175422 -0.091940984 -0.002776085 -0.2486844 0.26440895 0.34777567 0.0687382 -0.27405515 -0.11266289 -0.36847293 0.009792894 0.009860961 0.033213556 0.7573607 0.095586255 0.01556318 0.1573374 0.2817842 0.35306475 0.26017764 0.11326579 -0.19770198 0.62497896 -0.3665533 -0.06337796 -0.64221036 -0.017546056 0.34183586
disculpa 0.6469487 0.18836465 -0.3530187 -0.10174006 0.021804543 -0.23386134 0.20874465 0.32435304 0.06528592 -0.24244446 -0.10716414 -0.34843892 -0.009797681 0.041309178 0.010047149 0.69012207 0.09303624 0.02669685 0.12589785 0.24710725 0.28997752 0.26606974 0.09196432 -0.17123477 0.6179347 -0.34346038 -0.05919369 -0.65080965 -0.02146623 0.29570195
comunique 0.63427895 0.18629651 -0.3624519 -0.06949949 0.021017985 -0.2027091 0.23944245 0.32524067 0.099005505 -0.2688542 -0.1345212 -0.34878966 -0.003944369 0.008908902 0.033002745 0.669225 0.08934498 -0.00014683108 0.15218213 0.26808998 0.30675265 0.2360746 0.08182739 -0.17506088 0.58417326 -0.33721828 -0.060075033 -0.6003089 -0.034052268 0.3154726
laboratorio 0.69815904 0.21459398 -0.43359926 -0.05100796 -0.016529825 -0.23708232 0.24992177 0.32884413 0.07092399 -0.29352072 -0.123232044 -0.39774057 0.04016121 0.07370602 0.031366896 0.76203614 0.10718398 0.043520503 0.1183859 0.30935955 0.34088948 0.2923079 0.075263366 -0.2073219 0.6788705 -0.41223374 -0.08336553 -0.71357876 -0.057834323 0.32787463
recibir 0.6738073 0.22197005 -0.3973475 -0.09369335 0.023018328 -0.23321337 0.23659742 0.3598476 0.09492634 -0.27114564 -0.12802103 -0.3723278 -0.021815266 0.007157464 0.0063572545 0.7271015 0.10059038 0.03233804 0.14830567 0.28719485 0.33645564 0.26775697 0.08482351 -0.18654223 0.6072028 -0.3566139 -0.06250701 -0.6259844 -0.0496745 0.32919887
mayores 0.6983335 0.19212615 -0.39472806 -0.10610527 0.0033158339 -0.21098441 0.22601037 0.34119576 0.10729717 -0.26235825 -0.13559575 -0.3952633 -0.03157458 0.028687127 0.014174537 0.75193566 0.08863846 0.017372416 0.15084718 0.2836714 0.35330254 0.25543845 0.09026428 -0.1744241 0.6356468 -0.3492884 -0.064447 -0.64055103 -0.045195635 0.33494353
disponible 0.68305606 0.1997893 -0.38451743 -0.06314054 0.009887291 -0.2110783 0.22647114 0.3559846 0.100309804 -0.25733975 -0.12689012 -0.35427806 -0.0048746727 0.027239092 0.009808513 0.70320326 0.06468312 0.0048340904 0.12510969 0.25547612 0.29633954 0.2687048 0.08472715 -0.17055084 0.596796 -0.3296287 -0.039142232 -0.6098923 -0.057950746 0.29256406
realizar 0.6952738 0.24457629 -0.4118333 -0.05317564 -0.031149814 -0.22804983 0.22562633 0.35565218 0.07547186 -0.27951524 -0.116482675 -0.40779167 -0.023901887 0.037632864 0.038258776 0.75497943 0.09059654 0.040983304 0.16731772 0.26902255 0.31390545 0.27586558 0.1108658 -0.16020349 0.6732722 -0.39653522 -0.06713233 -0.69507056 -0.033822786 0.30403855
colsubsidio 0.67930984 0.19798923 -0.3712074 -0.06802563 -0.0195557 -0.24444659 0.2404217 0.36100703 0.10282369 -0.2802729 -0.121075116 -0.4169181 0.027600009 0.0221239 0.0037151743 0.7278121 0.087745525 0.045552775 0.13457707 0.2865512 0.32711023 0.29767275 0.13317476 -0.16630879 0.66397357 -0.37971038 -0.058158446 -0.6631611 -0.04846714 0.3302579
aparte 0.6534549 0.18225965 -0.3758772 -0.06991187 0.014276975 -0.21706565 0.24306595 0.37368628 0.0724299 -0.2536347 -0.10959439 -0.35387355 0.011089996 0.029660074 0.016383385 0.6870167 0.08080918 0.028376399 0.12186808 0.2746373 0.31219292 0.2706853 0.104649 -0.17547031 0.5992529 -0.34433174 -0.0385234 -0.6269162 -0.035855297 0.32411316
tiras 0.71267676 0.1730614 -0.39913124 -0.087271705 0.02454577 -0.22170764 0.2539253 0.3662566 0.075386666 -0.26149347 -0.12685207 -0.39307895 -0.009657023 0.01731999 0.009482902 0.7611284 0.08724316 0.015134644 0.1315243 0.25683582 0.35615766 0.24048764 0.09894731 -0.18719886 0.64258057 -0.38061565 -0.02866207 -0.630507 -0.04758937 0.32454988
generar 0.6463896 0.18940909 -0.36714292 -0.08105953 0.016674282 -0.20684156 0.21163338 0.33227453 0.06576022 -0.2585719 -0.10952227 -0.34842837 -0.0010498111 0.008439702 0.02987564 0.66912496 0.07074101 0.0063674944 0.1376931 0.264614 0.30828196 0.27252012 0.089607015 -0.16171625 0.59284353 -0.34716836 -0.041527707 -0.5901564 -0.03976468 0.30405635
facil 0.7261581 0.19638221 -0.39899614 -0.10367113 0.013914159 -0.24340971 0.25683692 0.34386185 0.07764487 -0.29047036 -0.14834157 -0.37076634 -0.008422885 0.02827803 0.004439777 0.74172956 0.0918277 -0.002558597 0.14063388 0.2630441 0.35884947 0.26146096 0.10496905 -0.17416905 0.63671625 -0.36616746 -0.049713653 -0.6359104 -0.035880003 0.3132889
mandar 0.6997564 0.21776989 -0.4017543 -0.07076178 0.010135145 -0.26362264 0.2634894 0.34430882 0.08319643 -0.27726462 -0.117048025 -0.38220084 -0.022195542 0.015485482 0.018811066 0.7052296 0.06435659 0.0017627091 0.1429146 0.2869595 0.3168461 0.2511288 0.076676324 -0.18986638 0.63753796 -0.36819282 -0.060123485 -0.6381283 -0.03356526 0.31708443
whatsapp 0.67907137 0.21636054 -0.36041638 -0.07685992 0.0050113187 -0.20775568 0.24663493 0.3446032 0.063209146 -0.24962856 -0.11926801 -0.3807946 -0.0033567126 0.046037886 0.017304631 0.7185368 0.08633428 0.011969524 0.14671361 0.2826728 0.31293896 0.28818586 0.085798725 -0.1436218 0.6292332 -0.3491203 -0.07114748 -0.6298556 -0.017907629 0.2943867
positivo 0.6962657 0.23713866 -0.31623307 -0.0666843 0.055363905 -0.24951947 0.2598741 0.33918718 0.0059622545 -0.24524143 -0.14656144 -0.33611736 0.08203552 0.09802289 0.023634309 0.6857281 0.15836419 0.019709129 0.1224774 0.26180574 0.29808405 0.32446977 0.07700652 -0.19503988 0.6605181 -0.3476832 -0.018890906 -0.68624306 -0.033400536 0.35541165
quirigua 0.7092982 0.17379163 -0.38272908 -0.08160495 0.0048114196 -0.22648233 0.23662908 0.3652392 0.10915294 -0.25156373 -0.11961333 -0.34893915 0.006407556 0.027660456 0.03674788 0.7338052 0.123199105 0.034757115 0.14683942 0.25988093 0.30367443 0.28647 0.071604975 -0.15766285 0.641996 -0.35488766 -0.021438025 -0.632325 -0.046814308 0.33176476
perfectas 0.81690323 0.24831657 -0.35089585 -0.1509107 0.044645976 -0.19297346 0.17107552 0.36532655 0.1177253 -0.3343241 -0.094966024 -0.43989474 -0.082506664 0.0018187524 -0.03465641 0.8021171 0.122910045 0.07545294 0.2097859 0.22002679 0.42847136 0.20482194 0.13053568 -0.21880269 0.7264132 -0.3629393 -0.12945464 -0.6549796 -0.08419787 0.38416246
nutricion 0.7125211 0.24212416 -0.41907442 -0.11745153 -0.01389702 -0.30026126 0.2956938 0.3724693 0.07472743 -0.28952727 -0.106505245 -0.3885309 0.0130805345 0.047716774 0.041639965 0.7755395 0.054386023 0.020525085 0.13509119 0.28598037 0.32701206 0.29938012 0.07622563 -0.21990076 0.65954083 -0.4129176 -0.094298854 -0.72580284 -0.014087992 0.308187
uds 0.6727581 0.20888604 -0.4049858 -0.09247996 0.012200688 -0.23891781 0.25931674 0.35766116 0.08807057 -0.26016432 -0.12805676 -0.3590422 -7.438583e-05 0.032443088 0.030771602 0.71286356 0.09565322 0.019060286 0.15599026 0.2814988 0.31672165 0.27883634 0.12033562 -0.16867274 0.632118 -0.37346235 -0.07544642 -0.65230304 -0.052088946 0.31045344
rosuvastatina 0.7298354 0.17424712 -0.39401427 -0.09796321 0.004219944 -0.24102354 0.23400809 0.3580993 0.080123566 -0.27194014 -0.10393747 -0.3687686 -0.011818725 -0.001948207 0.017055675 0.7709449 0.08888533 0.022826634 0.13023905 0.2909387 0.3780857 0.2313309 0.104519024 -0.15932557 0.6317696 -0.35755676 -0.031640142 -0.63903666 -0.050935812 0.3049687
entreguen 0.6714073 0.181387 -0.4124509 -0.09721456 0.04384722 -0.225919 0.24590804 0.38661107 0.079587385 -0.27365008 -0.093768224 -0.3572343 0.009461691 0.046495005 0.021877874 0.7453986 0.13023923 -0.0073923464 0.13319002 0.25980458 0.30791444 0.28595334 0.10332881 -0.16463818 0.5851891 -0.34611845 -0.06887666 -0.65561265 -0.06906169 0.3461006
quetiapina 0.68021566 0.1793721 -0.36170408 -0.0731382 0.0057067294 -0.24277636 0.24084336 0.38312775 0.07020995 -0.23700902 -0.09430534 -0.35462362 -0.0010525448 -0.005631835 0.0052935365 0.7236258 0.07608599 0.033392735 0.11707548 0.25955355 0.31393763 0.26702827 0.072529614 -0.19791114 0.61464876 -0.37210187 -0.027472345 -0.60917675 -0.053337127 0.28687614
necesitamos 0.65823394 0.17823514 -0.37207592 -0.08869851 -0.005339292 -0.24119672 0.22246334 0.32827586 0.087356694 -0.26613924 -0.12125998 -0.38629398 0.01591235 0.04295265 0.028433122 0.7174802 0.0878292 0.028449295 0.13931212 0.27407232 0.31211978 0.28619418 0.115780756 -0.17535684 0.58751935 -0.32948655 -0.041373823 -0.6449834 -0.03129885 0.3056694
agenda 0.79998887 0.25631627 -0.38867584 -0.11667893 -0.011497021 -0.28100103 0.2742795 0.39605528 0.040088978 -0.30164456 -0.13925381 -0.40576312 0.012879994 0.011554976 0.065718554 0.79684705 0.09797109 0.039909407 0.18543807 0.30055302 0.35904527 0.32562825 0.15775457 -0.21298744 0.6795074 -0.4320391 -0.08480638 -0.72773576 0.0015698314 0.3875757
apenas 0.6792871 0.1760491 -0.39405394 -0.109005205 0.025864366 -0.26008555 0.2277295 0.38047904 0.070935264 -0.26707795 -0.12133402 -0.3456674 0.013690982 0.030359453 0.020719545 0.7490649 0.10390667 0.0055900277 0.1571669 0.26817405 0.2951597 0.27833885 0.11683574 -0.17079927 0.6042614 -0.3730465 -0.069967866 -0.6557051 -0.06105528 0.30675447
solicitudes 0.70030415 0.20474526 -0.41647828 -0.0920489 0.028240118 -0.23601726 0.22402404 0.37309355 0.10293309 -0.26742747 -0.12666878 -0.37601778 0.0043046917 0.01727663 0.012377865 0.7357823 0.092529334 -0.0051841447 0.11755639 0.2914999 0.33067837 0.30549422 0.08449328 -0.17762893 0.6346783 -0.35136384 -0.07271811 -0.6314561 -0.04510854 0.34725556
dejaron 0.6585819 0.17993382 -0.39274698 -0.10224783 0.040757332 -0.23609288 0.21875913 0.36074305 0.07741746 -0.26624256 -0.104927525 -0.3485469 -0.012282744 0.03697989 0.0004385191 0.7217105 0.12692198 -0.008812381 0.12059482 0.27073842 0.32395604 0.28376698 0.076660454 -0.15193915 0.5969659 -0.33292186 -0.07612715 -0.6280263 -0.07378251 0.31686676
contestan 0.7273922 0.2138269 -0.35964304 -0.096999004 -0.02365596 -0.18770407 0.26935065 0.2936724 0.07936045 -0.28103516 -0.13165551 -0.4259403 -0.010476772 0.02905091 0.04492927 0.7742938 0.08561334 0.06599463 0.16640465 0.26263276 0.33433807 0.31190038 0.119765446 -0.14084423 0.6630904 -0.39220044 -0.07326508 -0.6628345 -0.040437866 0.3077354
bendiciones 0.7172945 0.19823858 -0.38527185 -0.0725765 -0.013231191 -0.2202995 0.24274825 0.34214172 0.06792734 -0.26744506 -0.09323172 -0.38321295 0.006162366 0.002371247 0.011865296 0.73946166 0.07879685 0.0033251108 0.1298653 0.29201582 0.32060322 0.2549029 0.117332004 -0.15645894 0.63510966 -0.35439608 -0.05380678 -0.6448411 -0.05444429 0.33286804
atender 0.6830273 0.225735 -0.395331 -0.076125234 0.020060528 -0.23346294 0.2571433 0.3274174 0.062192928 -0.26820922 -0.1401425 -0.39067498 -0.011172036 0.03900267 0.005075307 0.698765 0.07587016 0.005408926 0.15645453 0.2866748 0.33492184 0.2675185 0.099300005 -0.18873845 0.63407934 -0.361 -0.06656196 -0.6295756 -0.030499011 0.3108015
cercana 0.77094746 0.2765117 -0.3804401 -0.089977324 -0.042150676 -0.28661627 0.2494699 0.3686731 -0.010547332 -0.2737348 -0.10713629 -0.43189007 0.023595834 0.06438612 0.045203973 0.7732811 0.09929902 0.06770475 0.1946293 0.2962514 0.36190248 0.3346423 0.16473919 -0.2090281 0.70606244 -0.43436128 -0.09298469 -0.7501656 -0.009777315 0.35182068
despacho 0.65913874 0.20085406 -0.39807472 -0.09379442 -0.0065043904 -0.23598781 0.22063813 0.33525077 0.07952095 -0.2732048 -0.108993635 -0.36061445 -0.02042253 0.0064763734 0.023191983 0.6873603 0.062143706 0.013868498 0.117205665 0.25503483 0.30603153 0.26688483 0.08831352 -0.18498152 0.59580827 -0.33736435 -0.060244665 -0.627861 -0.026274577 0.30027586
habiles 0.6756817 0.2037313 -0.39660156 -0.12089474 0.0015470124 -0.2361117 0.2493499 0.35211366 0.07683268 -0.26531318 -0.13236886 -0.36652783 0.007843791 0.017499812 0.012893589 0.7297806 0.09593267 0.016114673 0.15985441 0.26807186 0.30095953 0.2928705 0.12125824 -0.18273081 0.62897784 -0.33367562 -0.06695671 -0.65183675 -0.043818913 0.30930236
drogas 0.7109202 0.22448276 -0.40098032 -0.08924511 0.036317132 -0.2353895 0.22103956 0.3991237 0.101847164 -0.29336786 -0.099197865 -0.41477397 -0.010714865 -0.0019559637 0.0471984 0.7969639 0.09182207 -0.032776892 0.15367849 0.30835563 0.3544067 0.29265937 0.09201347 -0.19793673 0.67935723 -0.3667352 -0.030041346 -0.65474844 -0.05517904 0.32329342
examenes_laboratorio 0.6971492 0.22896309 -0.37779054 -0.06835589 -0.02263314 -0.21883743 0.23621507 0.32817835 0.09897959 -0.27243075 -0.10604543 -0.40265757 0.026640039 0.03420936 0.029848846 0.7307663 0.12157208 0.029992186 0.13830471 0.29064962 0.3101773 0.29093012 0.07566611 -0.17688212 0.63591486 -0.3780612 -0.041915115 -0.672404 -0.058184694 0.32662293
puedan 0.67225367 0.21881878 -0.3796597 -0.080640614 0.0074863974 -0.21544191 0.22144388 0.33055902 0.064311504 -0.26323405 -0.13036992 -0.37898248 -0.012955878 0.042478055 0.034225877 0.7189312 0.0880862 0.03844338 0.1298104 0.29297408 0.32385772 0.27798998 0.114129186 -0.15859321 0.6262632 -0.368192 -0.057711225 -0.678557 -0.05830644 0.3183744
trajeron 0.70781624 0.16492496 -0.38044715 -0.10649814 0.019955723 -0.23278506 0.29540682 0.35269487 0.09022645 -0.2556378 -0.13679104 -0.37664783 -0.0032383618 -0.013071502 -0.009186997 0.7836997 0.06819016 0.0107397465 0.15110804 0.27009133 0.36988202 0.25205585 0.0908136 -0.16631335 0.6494127 -0.35207847 -0.035416357 -0.6632526 -0.067479976 0.33348
abuelita 0.6600808 0.1841013 -0.37689734 -0.082133934 0.0136898765 -0.2383151 0.25295946 0.36901116 0.0876931 -0.2514141 -0.12607095 -0.37006357 0.00982216 0.023704574 0.030621067 0.7059621 0.080410205 0.03058776 0.14692354 0.25469643 0.31460407 0.26594734 0.09470563 -0.15202688 0.6175061 -0.33300555 -0.03224789 -0.62628216 -0.027450368 0.31835347
programada 0.6589319 0.20651801 -0.38185728 -0.08543274 0.020466782 -0.24130695 0.25323483 0.3411884 0.05485601 -0.24793892 -0.08776657 -0.3535518 -0.0064846156 0.015943449 0.0033150685 0.7133238 0.11350752 0.012457426 0.14293817 0.2510754 0.29240978 0.2809779 0.08256718 -0.2002336 0.5901815 -0.3671773 -0.056789264 -0.62642765 -0.0415206 0.29988468
ayudame 0.6421893 0.20887734 -0.38101023 -0.07876251 0.017266978 -0.19945362 0.22697167 0.34553584 0.08848338 -0.25399637 -0.12431055 -0.38107938 0.0010899463 0.01033114 0.014567299 0.71673256 0.10252135 0.0071514556 0.116753414 0.28038317 0.30016828 0.28167543 0.10470839 -0.1810288 0.60763574 -0.33151284 -0.029057162 -0.62213624 -0.04182966 0.3221078
cadera 0.72110176 0.2522891 -0.4217931 0.008636503 -0.074509 -0.24834135 0.21895471 0.3277896 0.08418157 -0.2723534 -0.06463339 -0.3669238 -0.050071668 0.10090194 0.05267018 0.7956307 0.068750404 0.05693226 0.22792965 0.26276374 0.28608528 0.26779175 0.17310266 -0.15902592 0.6461711 -0.39780167 -0.054757427 -0.7673586 0.005903154 0.31546462
cronico 0.71127975 0.18651971 -0.36185136 -0.07586868 0.0172186 -0.24570161 0.2543475 0.3671124 0.0846034 -0.26208568 -0.1302582 -0.35917366 0.036211204 0.05977298 0.008404493 0.7326746 0.13214554 -0.0027529069 0.13418978 0.2556334 0.3264416 0.2961107 0.08441986 -0.18926837 0.61252403 -0.33644292 -0.038133737 -0.626182 -0.03285281 0.30751893
eutirox 0.67757183 0.18366513 -0.3692997 -0.07059174 0.013451952 -0.23304312 0.2575004 0.36651966 0.07313128 -0.27275598 -0.11405719 -0.35053474 -0.024833871 0.031227542 0.0027643114 0.71214485 0.056664653 0.034577936 0.13335022 0.24058555 0.31270638 0.25061312 0.10064959 -0.18096806 0.5767527 -0.32582238 -0.044700537 -0.5949529 -0.030890202 0.3063609
medicinas 0.6617442 0.20668893 -0.37566108 -0.07813175 0.0043317117 -0.24028376 0.21953364 0.33835697 0.10588392 -0.25392237 -0.1310141 -0.37463167 -0.025653375 0.0013688927 0.007146377 0.6940641 0.06274109 0.026496077 0.115839444 0.27108234 0.3231587 0.25203386 0.099060945 -0.16658668 0.607366 -0.32518536 -0.056403648 -0.59225476 -0.047942765 0.28497937
reclame 0.65254486 0.19501111 -0.39195752 -0.080654904 0.0432773 -0.2622231 0.23897384 0.36277914 0.08778843 -0.27139887 -0.102919236 -0.37928906 0.0078064166 0.012051601 0.0023662986 0.7353374 0.11033244 -0.024579141 0.16400035 0.28831708 0.32319492 0.3012836 0.09289751 -0.19901913 0.61330736 -0.34767258 -0.05997937 -0.64355797 -0.058375746 0.3247907
laboratorios 0.7389492 0.33098263 -0.44684166 -0.14741361 -0.05585506 -0.23769322 0.24792974 0.40075698 0.10725965 -0.26039827 -0.13030997 -0.5114965 -0.017572995 0.0427014 -0.006236702 0.75956887 0.17299463 0.06586718 0.24426109 0.31721646 0.30214763 0.37770113 0.09767201 -0.14794761 0.7598006 -0.45363802 -0.033328213 -0.7872199 -0.091804944 0.2973014
radiografia 0.7156187 0.2657378 -0.40856516 -0.029962562 -0.04857436 -0.26838076 0.23276553 0.3463263 0.110267304 -0.28698406 -0.08731304 -0.35620204 -0.0069367895 0.08564741 0.025757695 0.7803673 0.065749906 0.060628537 0.20461169 0.267609 0.2881142 0.306761 0.15505897 -0.12779231 0.6567006 -0.37208328 -0.049882278 -0.7573366 -0.033077125 0.29761538
ips 0.66681606 0.21482539 -0.43142167 -0.08243596 0.025367629 -0.23707049 0.24049835 0.37496817 0.08974671 -0.26651374 -0.09587053 -0.35456455 0.0050824108 0.020356864 0.02953977 0.75233704 0.12824006 -0.0049232715 0.16915816 0.26802146 0.33202606 0.30779853 0.12402849 -0.191243 0.58803934 -0.37097183 -0.04738264 -0.6528841 -0.06704605 0.35780185
archivos 0.7095741 0.20640865 -0.36895296 -0.104603715 0.016471209 -0.24111149 0.23881362 0.36588556 0.08016603 -0.25369394 -0.15430464 -0.38958764 -0.0018554943 0.040828124 0.028202053 0.75077766 0.073377185 -0.0015464727 0.10998758 0.2743635 0.33966017 0.27580762 0.10303352 -0.199444 0.6305067 -0.32669446 -0.037366897 -0.6587291 -0.052852545 0.34673417
grasias 0.7658867 0.25368747 -0.44907868 -0.10536152 0.012528513 -0.26878804 0.2696546 0.31397447 0.0559962 -0.3166054 -0.12231082 -0.40864432 0.004193141 0.03622883 0.06059647 0.72944725 0.08434761 -0.029352646 0.14080149 0.27252886 0.3267347 0.23630966 0.10898411 -0.20567907 0.6572163 -0.3932593 -0.0828497 -0.6322102 -0.068505116 0.31185174
traido 0.6524778 0.2008007 -0.36256868 -0.09114543 -0.0008442972 -0.22272883 0.24678905 0.32329607 0.09667197 -0.2594547 -0.10623041 -0.3718097 -0.013028004 0.016866315 0.0015202843 0.6990907 0.10149062 -0.008478378 0.1496502 0.2754226 0.3166088 0.24111114 0.07867403 -0.1581107 0.5733235 -0.33876237 -0.07019631 -0.61745286 -0.041188072 0.2847148
nadie 0.7279875 0.22936437 -0.398686 -0.10447078 0.013708749 -0.25477442 0.24594513 0.3036205 0.030645404 -0.26769158 -0.120519266 -0.3922004 0.04871491 0.039026864 0.031992212 0.7254544 0.12285387 -0.015367402 0.1305936 0.28184 0.31976902 0.29174528 0.11064407 -0.18701617 0.6647177 -0.35680762 -0.06452643 -0.63590133 -0.039738134 0.3550899
citologia 0.76696616 0.2081158 -0.4288125 -0.12221616 -0.006929258 -0.18567413 0.3030295 0.33206293 0.072398275 -0.26840186 -0.103864655 -0.44388968 0.0029678755 0.068116695 0.049754385 0.87006646 0.09692848 0.052664567 0.18877889 0.2547083 0.36208603 0.291764 0.14785375 -0.14804547 0.67624664 -0.42617482 -0.072171286 -0.6916728 -0.021273045 0.35341653
adulta 0.677043 0.1911531 -0.403619 -0.08287906 0.02996605 -0.24748418 0.23073125 0.37442365 0.08015608 -0.27612317 -0.1060267 -0.37928957 -0.018508062 0.037634946 0.0007426725 0.7444321 0.10896918 0.017974846 0.14978299 0.27586353 0.34004062 0.2696241 0.09700827 -0.16980511 0.6395066 -0.3684087 -0.035512682 -0.6489795 -0.038176972 0.34386992
procedimiento 0.70843935 0.3164067 -0.4033997 -0.12386606 -0.05772156 -0.24376851 0.215408 0.40382683 0.072917886 -0.24628049 -0.12829494 -0.4993327 0.0065029156 0.0135432985 -0.015773274 0.7338354 0.14665624 0.044288535 0.22523344 0.29083493 0.28093463 0.37735587 0.06699103 -0.16166304 0.7467258 -0.42312664 -0.021737758 -0.7278518 -0.062445056 0.2829361
examenes 0.7664345 0.22321634 -0.42282942 -0.116377585 -0.044348173 -0.2792235 0.24276674 0.35371354 0.0719244 -0.30979428 -0.09314891 -0.41243204 -0.0009900708 0.029188894 0.005597629 0.80708665 0.07364999 0.064315505 0.14319107 0.29025352 0.38578635 0.31259093 0.1284449 -0.18505777 0.69521844 -0.3861202 -0.047682412 -0.69485027 0.007672579 0.36585507
thinking 0.7767929 0.22024894 -0.4199685 -0.08138472 0.0060855513 -0.21891342 0.26388648 0.31860074 0.022306956 -0.2949748 -0.10652843 -0.37705666 0.062721126 0.06323429 0.012839986 0.7361795 0.06900138 0.025890142 0.17740348 0.2978997 0.33061016 0.3128627 0.10392516 -0.17816728 0.7063663 -0.3551201 -0.06620845 -0.6846601 -0.03114435 0.36280933
atienden 0.7214036 0.23685734 -0.3745881 -0.09416597 0.039796863 -0.2306306 0.25029975 0.3401677 0.050182924 -0.26885262 -0.15189615 -0.38062164 0.043989483 0.03586867 0.05274748 0.67944574 0.10798807 -0.018375646 0.1625347 0.26243278 0.3315456 0.280278 0.06750981 -0.17316361 0.6347109 -0.37713104 -0.041508842 -0.64816105 -0.045845784 0.32280102
fisioterapia 0.7330007 0.26632693 -0.4664556 0.032028537 -0.102354914 -0.25974467 0.18240288 0.31254536 0.03565129 -0.24498214 -0.0844284 -0.42616534 -0.06989726 0.119443685 0.08483939 0.83361363 0.0882182 0.069861405 0.2535737 0.2840632 0.28353208 0.26605636 0.17357297 -0.17238331 0.6894584 -0.426022 -0.039042797 -0.8263135 0.0077546416 0.30368575
resultados 0.7653688 0.24927342 -0.4437907 -0.14223395 -0.03713312 -0.29328138 0.21140298 0.3345446 -0.02103437 -0.335388 -0.13637815 -0.4227829 0.0449596 0.011460437 0.017868899 0.77772456 0.10486311 0.015940985 0.13909496 0.3343441 0.41982242 0.27758572 0.16315114 -0.26665792 0.6920545 -0.4181809 -0.07411369 -0.71472263 -0.0068710456 0.40787458
etapa 0.6399319 0.17561926 -0.37605378 -0.09546562 0.012678886 -0.20947231 0.22899531 0.34600994 0.105178334 -0.28168294 -0.09107239 -0.36600682 0.008727064 0.024457999 0.033929348 0.7070053 0.09447983 0.039715253 0.12178831 0.26926023 0.3189212 0.22614679 0.09640847 -0.18384734 0.6038166 -0.31531677 -0.054039188 -0.60623765 -0.056473136 0.27859247
insumos 0.644969 0.16868326 -0.3846366 -0.084339045 0.0031546915 -0.22821034 0.21318543 0.34532323 0.09386687 -0.2614995 -0.11751241 -0.3443697 0.0125423 0.02955161 0.0122131705 0.70711374 0.06729095 0.013058046 0.11011777 0.25237218 0.29826185 0.25636277 0.08308634 -0.14167285 0.62097174 -0.32401228 -0.031741656 -0.5971117 -0.062135044 0.31877652
tirilla_firmar 0.6193276 0.19350353 -0.44998172 -0.1391621 0.018886037 -0.27304012 0.22093697 0.39532018 0.06777208 -0.25430843 -0.08161702 -0.34731832 0.023275703 0.029601086 -0.005156104 0.76630163 0.17735806 -0.035230424 0.16850471 0.24695757 0.27443966 0.31295702 0.106413566 -0.18541387 0.5622341 -0.3481009 -0.10342384 -0.65945786 -0.09101592 0.37725753
rivaroxaban 0.6957759 0.20457487 -0.40842363 -0.07841142 0.027506493 -0.21606342 0.22147286 0.38743564 0.09303063 -0.26647905 -0.10401298 -0.39173436 -0.019256597 0.0010806288 0.005887186 0.764908 0.090229906 -0.006713808 0.14062802 0.27822137 0.3528585 0.25558594 0.09615964 -0.17605178 0.65171295 -0.3481553 -0.043514203 -0.64800143 -0.036190055 0.31232715
internet 0.72140247 0.20635946 -0.4515848 -0.10387275 0.03331431 -0.22257584 0.24272886 0.32971472 0.082693994 -0.27704436 -0.16192895 -0.41130927 -0.024813306 0.028103912 0.014464393 0.7449841 0.10815364 -0.018505637 0.11684917 0.2779651 0.3504266 0.30397466 0.09286562 -0.20108886 0.65442616 -0.35705698 -0.096567124 -0.6623507 -0.025407985 0.33503735
sintomas 0.71630645 0.2372307 -0.3589989 -0.096586786 0.03115053 -0.22415732 0.22230789 0.33195776 0.041852377 -0.28886813 -0.15321478 -0.37145245 0.04673517 0.02769645 0.031682868 0.71245736 0.11291103 -0.00032950274 0.13412483 0.29075903 0.32813835 0.31566498 0.090573855 -0.19420019 0.6478823 -0.38824442 -0.057750095 -0.6550116 -0.052724395 0.33505374
imposible 0.6615059 0.21155529 -0.35654175 -0.069704525 0.02203415 -0.24092472 0.2257695 0.33949766 0.071319066 -0.27827996 -0.10480583 -0.40141556 -0.009686869 0.018165996 0.028924223 0.7049424 0.08104435 0.005913723 0.13613522 0.29931954 0.3111897 0.27931198 0.11340846 -0.16967067 0.61025465 -0.38510722 -0.056818917 -0.6552414 -0.05670192 0.30333278
anteriores 0.68816024 0.20587479 -0.40086043 -0.087730706 0.0102663 -0.22680625 0.24868885 0.34202266 0.07082557 -0.25078857 -0.11062467 -0.3837436 -0.020201145 0.03286945 0.017047178 0.69093496 0.06402026 0.021854252 0.11458099 0.25589898 0.33137745 0.27517918 0.105600454 -0.17494686 0.6156019 -0.3422147 -0.07760299 -0.59496707 -0.04129758 0.29919294
error 0.6643047 0.17064667 -0.3957473 -0.053628467 0.017684843 -0.23467395 0.25049847 0.3338845 0.078182 -0.23590174 -0.10304503 -0.35413253 -0.0029245832 0.049083125 0.008318485 0.6787076 0.08113372 0.026645008 0.107130356 0.27429393 0.307231 0.23662265 0.054492127 -0.14039065 0.60215485 -0.3259588 -0.0645043 -0.5842355 -0.027989514 0.3067565
validar 0.65022606 0.19122608 -0.40736982 -0.110376924 0.0066559697 -0.22185372 0.23186725 0.34797707 0.0763213 -0.25534308 -0.11469632 -0.36935708 0.012450473 0.009301522 0.00090279756 0.71266246 0.102200426 -0.0027963098 0.13240753 0.25916147 0.30807865 0.28149244 0.10288082 -0.1632426 0.5593737 -0.3558527 -0.053822573 -0.6223865 -0.074441575 0.3270993
ciudadela 0.6793335 0.20273821 -0.38091993 -0.058598593 -0.016463887 -0.22655925 0.26405457 0.35910586 0.11709434 -0.27173793 -0.107705645 -0.3986532 0.017865201 0.015969777 0.03216108 0.74821585 0.08593008 0.02619908 0.15763053 0.30412996 0.3625468 0.24987493 0.112157986 -0.20615348 0.6524203 -0.39554217 -0.04997128 -0.64006853 -0.029853223 0.2930164
esposa 0.6878845 0.20986234 -0.37705758 -0.08646369 -0.002439252 -0.21154423 0.22803977 0.34105957 0.08718926 -0.24624418 -0.10898553 -0.36761343 -0.016643582 0.022796992 0.016058702 0.72240657 0.078979574 -0.0017614709 0.11945908 0.28057632 0.33097792 0.2737017 0.08275262 -0.16450979 0.62021005 -0.34174338 -0.059059285 -0.6399438 -0.04336812 0.29054245
eyes 0.665006 0.19516583 -0.36960316 -0.07979273 -0.014248809 -0.2161507 0.2378743 0.34248298 0.0904423 -0.26548082 -0.09675204 -0.35844183 -0.015307472 0.026666455 0.03770206 0.66599005 0.082814395 -0.0037892447 0.1352212 0.25633904 0.294735 0.23621483 0.09785029 -0.15739697 0.6028361 -0.34707454 -0.030856434 -0.5834734 -0.01955955 0.29770485
faltan 0.6597429 0.1709179 -0.36759013 -0.06468806 0.027861413 -0.23348668 0.24227178 0.33756685 0.08590295 -0.24932417 -0.10931583 -0.362811 0.0041613695 -0.0036591897 0.007446439 0.7043115 0.06395362 0.025101336 0.13855954 0.26646978 0.3249681 0.2376375 0.11071368 -0.15418053 0.59221995 -0.31790772 -0.039265595 -0.57602364 -0.04820389 0.31125093
pesimo 0.6760492 0.20698242 -0.36268473 -0.099309884 0.021066086 -0.22829497 0.24378887 0.3325762 0.10643942 -0.24623649 -0.13319688 -0.37678576 0.0015743927 0.020302344 0.010211945 0.69964063 0.09694199 0.023613568 0.1193459 0.27741387 0.3220548 0.2547529 0.107564285 -0.16746782 0.62451524 -0.34727407 -0.040115427 -0.62840986 -0.037040386 0.31724834
adjunte 0.6625335 0.19522831 -0.39323458 -0.06790504 0.01000448 -0.23172918 0.22875892 0.3289218 0.08692522 -0.24617304 -0.11986458 -0.39008358 -0.035122458 -0.006954883 0.011883226 0.7122109 0.061584428 0.006305935 0.14946896 0.2709052 0.31262985 0.26663288 0.11043891 -0.17651553 0.58465236 -0.35082301 -0.07089189 -0.61447555 -0.0464246 0.2957897
solicitardos 0.7082579 0.20996502 -0.43939164 -0.077624656 0.030276924 -0.24009798 0.26604602 0.36205572 0.11450762 -0.2642947 -0.1382221 -0.41197538 -0.024583038 0.038585104 0.020168195 0.7799438 0.06677919 -0.0005638052 0.11892492 0.2825774 0.35544938 0.28289774 0.09410854 -0.20896935 0.64488494 -0.3835958 -0.06517613 -0.64661145 -0.04085169 0.3400398
tiempos 0.6589833 0.17452568 -0.39632294 -0.10435526 0.015501544 -0.217588 0.22264418 0.35351342 0.05381726 -0.2693929 -0.13223766 -0.36884093 0.003723567 0.033308443 0.03234241 0.71130186 0.09498433 0.021251295 0.13580137 0.2794804 0.3344541 0.25407556 0.09139648 -0.1748248 0.6147587 -0.3368847 -0.058363628 -0.6162931 -0.022567345 0.3235571
