171 30
necesito 0.17195694 -0.11258075 -0.43175414 -0.0065010493 -0.3969548 -0.7079364 0.34200764 0.36319053 0.059821952 -0.3038326 0.40798438 0.28903416 -0.07814139 0.13583131 -0.067462474 -0.28106883 -0.42449242 0.52343786 0.23767227 -0.26350525 -0.005223864 0.118384585 0.39859134 0.21136716 0.21186192 0.41631052 0.0002551831 -0.8328981 0.14727418 0.250836
ecografia 0.19703512 -0.1352738 -0.4290541 -0.015315326 -0.39829832 -0.70140344 0.3323871 0.38138705 0.05524915 -0.301129 0.40900114 0.2998579 -0.07942519 0.11815361 -0.08226495 -0.26573196 -0.42198616 0.49401903 0.21398322 -0.27237302 -0.02765596 0.121864304 0.41364172 0.22297546 0.23851822 0.41286707 -0.0049007568 -0.8195725 0.12223918 0.22803527
radiografia 0.17264059 -0.10773047 -0.41471338 1.7772338e-05 -0.40972587 -0.71679056 0.33327255 0.35829532 0.08042224 -0.2773843 0.39981014 0.2895871 -0.07579305 0.146509 -0.08936265 -0.2576329 -0.4298328 0.52146345 0.2372583 -0.26306826 -0.026169868 0.10560947 0.4144177 0.22552319 0.21119192 0.4164025 -0.0139116645 -0.8046772 0.12230731 0.2345721
control 0.1789457 -0.11036806 -0.36392137 -0.030702358 -0.36909032 -0.614137 0.2984431 0.32177466 0.05342696 -0.26874352 0.36266273 0.25241074 -0.0731531 0.12628324 -0.08020938 -0.2472583 -0.37868583 0.446746 0.19571598 -0.23436213 0.0024001056 0.09253499 0.36236113 0.18316156 0.21073093 0.3680557 -0.020846367 -0.716842 0.13889076 0.22569402
citas 0.17031728 -0.12436901 -0.42828202 0.00063544605 -0.40378782 -0.6990436 0.3196401 0.34717238 0.079141416 -0.2768657 0.39101055 0.29281372 -0.087062106 0.12978932 -0.09442609 -0.25772852 -0.4239615 0.4998694 0.21528962 -0.2614502 -0.021556953 0.10425132 0.39777845 0.2127017 0.21819563 0.3902445 -0.021155562 -0.8069553 0.1492542 0.2509057
terapia 0.15204605 -0.11651953 -0.3892773 -0.0033371146 -0.3821589 -0.65299165 0.318659 0.34254947 0.07099823 -0.25338846 0.3709849 0.25542095 -0.073852025 0.11242246 -0.08503615 -0.25577924 -0.39749664 0.44987527 0.21144469 -0.2277963 0.0036043266 0.1040667 0.38402772 0.18035081 0.19335425 0.35303643 -0.0057831756 -0.7460766 0.12518299 0.22095342
agenda 0.19226481 -0.12199621 -0.4143979 -0.02619995 -0.39551777 -0.7105069 0.35495114 0.36832616 0.059699684 -0.2947655 0.3889663 0.30306968 -0.07804286 0.11730537 -0.065903135 -0.26277152 -0.43169972 0.5158674 0.23628132 -0.27504343 -0.02039023 0.10797137 0.41928086 0.20939684 0.20972079 0.4075773 -0.019783318 -0.7955304 0.14351347 0.25921893
psicologia 0.15383676 -0.12769246 -0.39815396 -0.01849105 -0.3727139 -0.6328948 0.30501515 0.3318834 0.060462993 -0.26695046 0.36465713 0.26686722 -0.07229638 0.11559569 -0.05976992 -0.2562173 -0.39271945 0.4525811 0.21920706 -0.24826534 -0.025193749 0.09454548 0.36685985 0.17530079 0.18995589 0.3630679 -0.022315482 -0.7339322 0.111873485 0.24029884
sacar 0.17599604 -0.111500114 -0.39447388 -0.017111728 -0.38807073 -0.67819834 0.337808 0.36006954 0.064028814 -0.26065516 0.3930897 0.25714642 -0.06235595 0.12771331 -0.07202482 -0.25005364 -0.39257008 0.4882033 0.20227139 -0.26511762 -0.008192397 0.09632488 0.3757444 0.21740139 0.21001159 0.3820513 -0.006245635 -0.78230137 0.13676922 0.24409866
floresta 0.17358571 -0.10840797 -0.3702414 -0.0021177477 -0.36968383 -0.62023443 0.29585764 0.3205532 0.06693808 -0.2637615 0.3541871 0.26012924 -0.07291125 0.13029438 -0.07754081 -0.24108174 -0.3841967 0.46853885 0.19729452 -0.23376119 -0.01245386 0.098895766 0.3523372 0.20474245 0.21059664 0.34937507 -0.014634702 -0.7211513 0.109532736 0.21655527
nutricion 0.13277823 -0.08872884 -0.3496616 -0.017645482 -0.3394385 -0.5947384 0.29118213 0.30510977 0.04734444 -0.23925765 0.3308628 0.24393845 -0.05232442 0.119969726 -0.050053127 -0.2246891 -0.3582289 0.40444753 0.17384449 -0.21739857 -0.020375794 0.07521892 0.31636482 0.15611225 0.18319117 0.3232946 -0.026490865 -0.67048043 0.11132986 0.18431734
individual 0.1713959 -0.12248948 -0.39328438 -0.021031875 -0.35710335 -0.64621377 0.314193 0.31480747 0.04917479 -0.25424424 0.36492452 0.2544406 -0.05484111 0.12175621 -0.07818929 -0.23595837 -0.37350523 0.45880044 0.19186302 -0.2253007 -0.015422779 0.0874582 0.3460417 0.18996412 0.20609674 0.37075987 0.004803151 -0.7104274 0.13797736 0.20646475
fisioterapia 0.15200013 -0.102350496 -0.37666497 0.0035818098 -0.35225353 -0.6054681 0.2744801 0.29603526 0.04139003 -0.23002364 0.3442174 0.23971556 -0.0815977 0.12266797 -0.057858124 -0.21822844 -0.35804537 0.441 0.20341237 -0.21826257 -0.0203398 0.08490405 0.34458032 0.17823221 0.18892057 0.3511625 0.0010031894 -0.70604575 0.12563968 0.1971395
doctora 0.15185499 -0.118582085 -0.35930303 -0.027190505 -0.3506564 -0.6191739 0.2927915 0.32700852 0.059807107 -0.24504448 0.34253302 0.24911195 -0.08522529 0.12087129 -0.08440137 -0.2153765 -0.35823652 0.45551732 0.19736782 -0.23042274 -0.004577885 0.10870119 0.33730847 0.1740032 0.1943688 0.34930897 -0.0011760071 -0.71472853 0.11542844 0.22178435
pedir 0.1537831 -0.096946105 -0.39088103 -0.029159423 -0.3642243 -0.6274213 0.31259403 0.33221602 0.05188104 -0.27031484 0.36224726 0.24943015 -0.06575011 0.13163929 -0.063420855 -0.24782634 -0.38151625 0.46990722 0.20419887 -0.22518755 0.0032703956 0.08673159 0.3514088 0.20287494 0.2120123 0.35832492 -0.0061797947 -0.72508115 0.13676566 0.2093133
vez 0.16648987 -0.10888441 -0.38599885 -0.022294471 -0.38044044 -0.6701971 0.3050906 0.3453835 0.07308668 -0.2619569 0.38164848 0.26198065 -0.08500142 0.13454153 -0.083780766 -0.25688633 -0.39509934 0.48683232 0.20259179 -0.23757982 -0.0016096947 0.08503103 0.36649978 0.19387056 0.22063532 0.38147813 -0.018004337 -0.7696327 0.12888475 0.2292471
cadera 0.1570727 -0.09734426 -0.3362626 0.0035605482 -0.33123088 -0.5746145 0.2787296 0.2947416 0.067025766 -0.23711999 0.3408815 0.24162348 -0.074023865 0.121323 -0.06722787 -0.19983849 -0.345996 0.4165399 0.19873439 -0.21227631 -0.014114055 0.079723395 0.34356126 0.1687408 0.1729099 0.32488227 -0.01362509 -0.6608022 0.12252984 0.21356454
agendar 0.15262803 -0.094894394 -0.3668034 -0.022031192 -0.33703125 -0.6241129 0.30091944 0.336267 0.048062127 -0.25918704 0.36533713 0.2580823 -0.06598994 0.1015085 -0.060095776 -0.23476322 -0.3770892 0.447188 0.19672287 -0.22590843 -0.003123086 0.08825255 0.35635814 0.18420513 0.19792211 0.3704569 -0.024192804 -0.7149411 0.13461566 0.19938184
posible 0.1498968 -0.09511037 -0.38610414 -0.007508258 -0.37007734 -0.61944604 0.2991992 0.31158555 0.07135873 -0.25587073 0.35616955 0.26471713 -0.06971541 0.11341746 -0.076215334 -0.23154873 -0.36208802 0.47229895 0.21779339 -0.24322289 -0.021961953 0.09711265 0.37040055 0.20438501 0.2136031 0.34727836 0.0035471795 -0.73217696 0.12712744 0.21755604
presencial 0.16356637 -0.09085081 -0.3586324 -0.019704517 -0.3302329 -0.62432075 0.28389543 0.30113596 0.042230934 -0.2352656 0.34842318 0.25857916 -0.053016346 0.12342722 -0.080579355 -0.21425769 -0.36287054 0.43849137 0.19782034 -0.22977301 -0.015950922 0.102235146 0.35184664 0.18411414 0.1889779 0.34765914 -0.014758149 -0.7136249 0.13425449 0.22160082
teleconsulta 0.18076198 -0.10736628 -0.36307487 0.002826087 -0.33608964 -0.61569226 0.2854544 0.3269892 0.075231925 -0.24952231 0.379015 0.2444104 -0.06865372 0.098724775 -0.06326212 -0.22618645 -0.35894623 0.46880054 0.19436592 -0.22914815 0.0092005255 0.111654244 0.3470972 0.19952203 0.20616806 0.34190354 -0.018414985 -0.7283037 0.11565623 0.22863974
solicito 0.16588682 -0.11654247 -0.3689862 -0.009721676 -0.3561647 -0.6127673 0.29896736 0.30359992 0.07086443 -0.25217915 0.3414026 0.23853874 -0.06257361 0.10763613 -0.07885721 -0.23216231 -0.34299716 0.4459167 0.19597234 -0.20549186 -0.017457737 0.08691259 0.35620198 0.1679843 0.18876246 0.35373232 -0.027983215 -0.69531274 0.120128535 0.20910862
paciente 0.17690015 -0.1093665 -0.38099322 0.004414352 -0.36180484 -0.6533528 0.3259851 0.33221263 0.06611762 -0.25845784 0.35654497 0.25813758 -0.08740768 0.114686176 -0.07203818 -0.2462048 -0.37193486 0.48239166 0.20446253 -0.23598373 -0.014790343 0.103939295 0.37780604 0.18907997 0.21785846 0.35378292 -0.011410986 -0.7514876 0.116307944 0.21489559
ortopedia 0.15642484 -0.09761229 -0.34116864 0.0051116506 -0.33630434 -0.57492626 0.2804253 0.30381873 0.06775225 -0.23738274 0.34253594 0.21754974 -0.048722316 0.094399124 -0.055297367 -0.20406012 -0.35434243 0.41838467 0.18217906 -0.21079852 -0.014470859 0.0944209 0.31972227 0.18594784 0.19817829 0.3221965 -0.019483393 -0.6548358 0.11742406 0.18907519
horas 0.1671064 -0.12387424 -0.4226973 -0.021624899 -0.39615256 -0.67195046 0.33127096 0.36254048 0.078297734 -0.29072103 0.37596956 0.26045272 -0.09290129 0.1399266 -0.08012663 -0.26119438 -0.39067438 0.4983714 0.22749357 -0.24644469 -0.0012846821 0.09320547 0.38894942 0.21180569 0.22679749 0.38058147 -0.016392771 -0.7649211 0.11848625 0.23192936
pediatria 0.15158747 -0.12505305 -0.36524442 -0.0008525714 -0.36193773 -0.6280883 0.30086756 0.3267682 0.06311897 -0.26338914 0.36335206 0.24875148 -0.080942266 0.11697896 -0.06917232 -0.23756473 -0.37388518 0.44412044 0.19297399 -0.21797134 -0.0061463453 0.083714575 0.36287424 0.18907066 0.18224122 0.3475821 -0.010492246 -0.6940007 0.13108736 0.2036892
odontologia 0.15774007 -0.11695687 -0.3601791 -0.009749331 -0.3374009 -0.613469 0.28076386 0.2999839 0.05856578 -0.24422859 0.32568198 0.2486898 -0.06462749 0.1187536 -0.06677835 -0.2098067 -0.34635678 0.4281224 0.19169983 -0.21475562 -0.0131862955 0.09061703 0.3381116 0.1701336 0.19626214 0.3290879 -0.0013330835 -0.6994635 0.1273428 0.22442023
espera 0.18370913 -0.12956207 -0.39674467 -0.021818528 -0.36173135 -0.65724814 0.30012318 0.35141873 0.071020916 -0.26335746 0.38663977 0.27351972 -0.07674466 0.13376005 -0.060014773 -0.24537636 -0.4062167 0.46629575 0.21432182 -0.2365571 -0.028107258 0.09259833 0.39103124 0.18436235 0.19590211 0.36468852 -0.026302883 -0.73787993 0.12186554 0.24146649
sii 0.13419269 -0.10863166 -0.35219187 -0.023691544 -0.3111028 -0.56729627 0.26235136 0.30303872 0.06561371 -0.21689378 0.3353745 0.22846667 -0.05862497 0.09628307 -0.07317518 -0.20741501 -0.32678878 0.39985356 0.19751337 -0.22961822 -0.0023155161 0.07753316 0.3162986 0.18757743 0.19309208 0.34078765 0.0047318893 -0.6699675 0.09503693 0.18428408
facatativa 0.1684553 -0.12257927 -0.3588696 -0.01996322 -0.35575208 -0.61009115 0.31375608 0.30411002 0.06013061 -0.25079414 0.3673025 0.2502671 -0.054182097 0.1207059 -0.06943167 -0.2139051 -0.36129332 0.4658779 0.18231882 -0.21301709 0.0055154604 0.10466758 0.33943027 0.19413368 0.19886844 0.37264138 0.0028741048 -0.71348625 0.104089215 0.22054885
respuesta 0.1557477 -0.11970646 -0.3959609 -0.008558602 -0.36843514 -0.6410033 0.31895736 0.31781542 0.050717097 -0.25802696 0.34965527 0.26909325 -0.061610527 0.10250737 -0.058607668 -0.24855475 -0.38015792 0.46959868 0.18476935 -0.2364464 -0.010107506 0.10367843 0.36869985 0.19484122 0.19368067 0.35396788 -0.0074855834 -0.7105844 0.12845318 0.2289895
comparativa 0.13780162 -0.10477422 -0.29801467 -0.018393023 -0.31280106 -0.54043865 0.23622787 0.2614918 0.044346273 -0.21154597 0.31746063 0.22196697 -0.058943506 0.10510326 -0.06773392 -0.20665593 -0.32772177 0.3873639 0.16300583 -0.20669582 -0.01928469 0.069976486 0.2898677 0.16478954 0.17444992 0.31757736 -0.0064017405 -0.6067428 0.09862581 0.1768598
consulta 0.18379676 -0.13410789 -0.43154976 -0.031372674 -0.4117652 -0.73197526 0.33713594 0.38089505 0.059188645 -0.2996835 0.41365543 0.2993945 -0.07900219 0.1313143 -0.100609556 -0.25225496 -0.41994217 0.5103621 0.21287337 -0.27853617 0.00012829475 0.11735302 0.41629687 0.21698526 0.24404177 0.42326677 -0.01836789 -0.8100601 0.12591511 0.25329667
examenes 0.1879573 -0.114698984 -0.3983729 -0.0069436226 -0.39808384 -0.6881527 0.31325427 0.35432246 0.065745205 -0.28837043 0.39272404 0.27686837 -0.078922816 0.12822041 -0.08848628 -0.25221446 -0.41186798 0.50655514 0.21254244 -0.25478497 0.004885879 0.11495684 0.39329883 0.21105449 0.23020329 0.4063444 0.0043528313 -0.76427966 0.14110462 0.24145761
pm 0.1690177 -0.11123771 -0.3981162 -0.0025430897 -0.37822106 -0.6476632 0.32301238 0.34563375 0.06840112 -0.25792113 0.35461408 0.2530519 -0.09003547 0.13222563 -0.089761704 -0.24329995 -0.39828813 0.47729084 0.19795457 -0.22811903 -0.00041349808 0.112133324 0.3751214 0.19843899 0.21738471 0.3826822 -0.027563041 -0.75309014 0.14072432 0.2165161
asignar 0.13909972 -0.09893612 -0.3364493 -0.018555766 -0.3219767 -0.5301855 0.24978927 0.2862598 0.046573248 -0.21282057 0.2964293 0.22523057 -0.051291306 0.107890464 -0.07076188 -0.19389012 -0.30721182 0.39857543 0.15995325 -0.18422714 0.00546838 0.0660116 0.32389018 0.16908391 0.17588909 0.32378146 0.003931155 -0.6103529 0.11920856 0.17690559
rx 0.15714547 -0.09721428 -0.34137955 0.0017699414 -0.30824426 -0.55671144 0.2732065 0.27056834 0.04297071 -0.2258167 0.32948923 0.21379885 -0.06606746 0.105694525 -0.07701356 -0.21624383 -0.332178 0.40222642 0.1612551 -0.21834062 -0.022228759 0.080420166 0.3289847 0.16509762 0.17255147 0.31559435 -0.0039776103 -0.6399908 0.104526155 0.17943005
esperando 0.15546869 -0.09107674 -0.3286388 0.0029011543 -0.3087469 -0.5681551 0.26761332 0.2792921 0.05011489 -0.2417695 0.30734578 0.21305738 -0.07191627 0.10681564 -0.05229311 -0.20862631 -0.32201836 0.39101467 0.1795802 -0.1937011 -0.022851074 0.093136735 0.31970137 0.16466884 0.19258165 0.33741632 -0.008343474 -0.65721095 0.11574798 0.19064145
terapias 0.1443731 -0.117904484 -0.3434504 -0.018375013 -0.33019462 -0.5800336 0.28937453 0.31270492 0.039265122 -0.25086653 0.32343322 0.22288147 -0.06354359 0.10651907 -0.052505255 -0.23632552 -0.36229423 0.44059744 0.18028623 -0.21350376 -0.010939952 0.094622254 0.3338218 0.16407523 0.17809758 0.3265329 -0.012136328 -0.69645995 0.129688 0.20576072
disponibilidad 0.16712339 -0.10392071 -0.39736933 -0.018681133 -0.392026 -0.7042085 0.33221444 0.3690942 0.057241358 -0.26764336 0.38192204 0.27627632 -0.07267026 0.14022548 -0.09493804 -0.2413189 -0.40150738 0.49969807 0.2341291 -0.2530433 -0.022226641 0.08750856 0.38580188 0.19578856 0.2216124 0.3934333 -0.023552407 -0.7834899 0.116295174 0.24874088
torax 0.13659774 -0.096969895 -0.34831855 -0.024569033 -0.30967355 -0.5900054 0.28402054 0.3028401 0.040684257 -0.2205514 0.34283352 0.21808337 -0.054463416 0.093897544 -0.05005421 -0.21696228 -0.34110984 0.41006923 0.17334192 -0.22216728 -0.004662552 0.07106978 0.33259317 0.17753376 0.18987985 0.3180866 -0.027386991 -0.6700803 0.12315177 0.20380087
porfavor 0.17831142 -0.120923884 -0.36901486 -0.021436365 -0.35281798 -0.6454606 0.2973724 0.3335096 0.04419435 -0.24924171 0.37294888 0.2515386 -0.06043666 0.1339257 -0.0663212 -0.23457818 -0.3911105 0.46780983 0.1937585 -0.25051844 -0.02614913 0.11248208 0.3654159 0.18299092 0.19110812 0.35935906 -0.007893658 -0.7180798 0.11052916 0.21387638
opcion 0.17404339 -0.13257499 -0.4129398 -0.010002338 -0.39326864 -0.683857 0.32691967 0.33304554 0.06796657 -0.27835003 0.36506245 0.2660279 -0.07516275 0.1344868 -0.08010408 -0.23362212 -0.39669994 0.47554186 0.21939996 -0.2363956 0.00028255288 0.09117118 0.38814902 0.20692208 0.21794611 0.37078974 -0.003141118 -0.77241534 0.1456151 0.23063938
deseo 0.15467615 -0.10547053 -0.35420534 -0.003083455 -0.31403327 -0.5642507 0.26740438 0.2938653 0.058766205 -0.24318784 0.33925822 0.23070961 -0.056439046 0.1037325 -0.07306177 -0.2106278 -0.34244826 0.41510633 0.16740273 -0.22074267 -0.026196906 0.07746632 0.31145418 0.16817187 0.17142342 0.32116202 -0.02644625 -0.66107655 0.11017534 0.19550906
asesor 0.14764826 -0.10436766 -0.3494462 0.002258889 -0.34751824 -0.60053056 0.2828757 0.28921658 0.040275127 -0.22656815 0.31853327 0.22087398 -0.053895254 0.11478879 -0.058994148 -0.21920826 -0.34281287 0.41748962 0.19038153 -0.21939741 -0.008463033 0.08169829 0.33226526 0.1613 0.18840139 0.33785987 -0.009212095 -0.66841257 0.12118463 0.20830044
autorizacion 0.16050315 -0.110609874 -0.37051773 -0.012093893 -0.3423711 -0.648984 0.31754947 0.33777645 0.068717204 -0.2541618 0.35709015 0.24381152 -0.07931742 0.11867183 -0.08574421 -0.2460875 -0.38936514 0.46569046 0.2185292 -0.22313753 -0.027700137 0.10593588 0.35550374 0.17616233 0.19086502 0.36461574 -0.001539366 -0.73160917 0.11757342 0.23197235
lejos 0.14518064 -0.10031274 -0.3647664 -0.00825366 -0.3306846 -0.58579826 0.30233485 0.30543154 0.052067563 -0.23528334 0.34004745 0.24318424 -0.08167374 0.11395854 -0.05751247 -0.23500858 -0.36646664 0.44285068 0.1784487 -0.21488206 0.0012874305 0.09116918 0.34401694 0.16872156 0.18804254 0.35633937 -0.0108626345 -0.6894535 0.122310646 0.21364
colaborar 0.16009836 -0.11509041 -0.35497814 -0.025040038 -0.3417889 -0.5874316 0.28113544 0.30527508 0.037432175 -0.23327503 0.3379355 0.23269148 -0.07624339 0.10176877 -0.069114245 -0.20600335 -0.3319608 0.41598067 0.18991679 -0.20200959 0.0024119955 0.07341365 0.34333387 0.18034148 0.17723408 0.33994803 -0.012367499 -0.6588728 0.09619506 0.20303303
dra 0.16226222 -0.11970884 -0.36302307 -0.015301709 -0.33009803 -0.58207434 0.2710593 0.29510182 0.05605969 -0.22683889 0.35315657 0.2477481 -0.078944966 0.12420331 -0.07687901 -0.22197902 -0.34557635 0.44264656 0.19850759 -0.21349815 0.0015585274 0.08223208 0.3288247 0.19283913 0.19157249 0.3474557 -0.006481293 -0.66247505 0.12874953 0.20278266
dia 0.18810011 -0.12428075 -0.3952009 -0.0124082435 -0.39011854 -0.66807956 0.3371456 0.3582869 0.060957804 -0.28412384 0.39104798 0.27133805 -0.08157504 0.1361456 -0.0662479 -0.25113314 -0.38424945 0.47827834 0.2249112 -0.23259309 -0.024035458 0.112296104 0.40021273 0.20503451 0.19784078 0.3872013 -0.01330289 -0.7567132 0.1267064 0.23236974
tiroides 0.17542285 -0.10385814 -0.37004587 -0.0031087766 -0.3581535 -0.637229 0.31885424 0.31164974 0.048707973 -0.2546828 0.3432972 0.26540256 -0.07693824 0.110909656 -0.07996757 -0.22560254 -0.36445233 0.44863334 0.18663715 -0.21845078 -0.008851775 0.09933693 0.3754112 0.20427926 0.19591065 0.3635258 0.0034951915 -0.7182654 0.12693565 0.20903556
programar 0.18253702 -0.10373745 -0.40098122 -0.009420551 -0.36182365 -0.64590365 0.29479313 0.3356138 0.062092517 -0.26736826 0.36149225 0.26517072 -0.06386003 0.1220163 -0.06678731 -0.23440404 -0.37313488 0.46538627 0.20609254 -0.22528356 -0.0102106 0.10226772 0.38004893 0.21083559 0.2020147 0.38162586 -0.028142001 -0.72483313 0.122323476 0.22545034
enero 0.1676634 -0.119809 -0.3735508 -0.014130529 -0.35279042 -0.5932248 0.2829998 0.31710553 0.055932548 -0.22383794 0.35432342 0.23919736 -0.07560444 0.12345485 -0.07835854 -0.22589682 -0.36946666 0.4263755 0.1873055 -0.21552442 -0.02183169 0.105833605 0.3441467 0.18677592 0.20495372 0.348724 -0.013132126 -0.688479 0.10516831 0.20312251
prueba 0.16508168 -0.11542266 -0.37160432 -0.0014993194 -0.3568126 -0.6235244 0.2748897 0.33140934 0.038452584 -0.24388729 0.35939676 0.24853031 -0.060557574 0.13131544 -0.06882782 -0.22341837 -0.36473292 0.44322953 0.20146377 -0.23703259 -0.0028123301 0.098135725 0.36469936 0.17223665 0.18625864 0.34645078 -0.019993152 -0.681858 0.12853415 0.21091475
covid 0.1633115 -0.09750808 -0.38436708 -0.024378227 -0.3398227 -0.62033343 0.30360758 0.33157316 0.043928057 -0.26087457 0.34890586 0.25074297 -0.06706638 0.12746091 -0.07863824 -0.23136345 -0.37952146 0.4460329 0.19171593 -0.21927798 -0.0019834826 0.09066877 0.3455193 0.17371282 0.20718113 0.35089105 0.0028419364 -0.7315323 0.1293147 0.21754953
sede 0.13920176 -0.09498898 -0.34895173 -0.013084973 -0.30773836 -0.56812155 0.27708152 0.30090263 0.034624886 -0.22728093 0.33269045 0.21635698 -0.052979786 0.117415324 -0.07274351 -0.20756517 -0.3430696 0.39923325 0.17937788 -0.1996771 -0.024685787 0.09422099 0.31154343 0.17003775 0.16965255 0.32329634 -0.0046322243 -0.6375865 0.10538719 0.18644157
lateral 0.1508585 -0.13325517 -0.4439889 -0.021013638 -0.39421317 -0.7081308 0.35020104 0.33804432 0.07070234 -0.25814462 0.41301048 0.2907695 -0.060177848 0.12127826 -0.08769419 -0.28166267 -0.41733214 0.5220856 0.19533126 -0.27910697 -0.024976257 0.08180428 0.4126905 0.18402281 0.23029582 0.38921553 -0.031488612 -0.8167461 0.12670378 0.24459364
octubre 0.15106975 -0.09575755 -0.38160324 -0.018250259 -0.36694163 -0.63592815 0.28896996 0.3336768 0.04066047 -0.24576099 0.36546615 0.23965734 -0.08517391 0.122985065 -0.06314201 -0.24109551 -0.38823867 0.44237214 0.20606591 -0.24313192 -0.025652455 0.10057974 0.3641932 0.19324549 0.21430503 0.37019345 -0.020600291 -0.7288271 0.12563276 0.22647017
cancelar 0.10443202 -0.07799092 -0.28243214 0.00741939 -0.24949805 -0.45253778 0.22000122 0.24201891 0.03461111 -0.19404358 0.27069858 0.19472809 -0.050320584 0.069100924 -0.04044245 -0.15553883 -0.274315 0.33875537 0.14787892 -0.15781865 0.006029516 0.060646337 0.25916663 0.11945554 0.13392846 0.26550475 -0.017758168 -0.5152873 0.07874438 0.1408891
telefono 0.1515582 -0.11458992 -0.37129396 -0.018279651 -0.35452586 -0.6214343 0.28484428 0.32207873 0.054535005 -0.25154147 0.33633545 0.25841382 -0.067938656 0.097312875 -0.05731216 -0.22407277 -0.3743383 0.42434734 0.18501289 -0.23346214 -0.005234992 0.10159026 0.35863218 0.18644309 0.19717908 0.34468397 -0.015434773 -0.6920635 0.10716413 0.22045949
celular 0.14638837 -0.094585426 -0.3689652 -0.005129761 -0.34577313 -0.62084574 0.30334663 0.3156817 0.06243712 -0.2451561 0.36205718 0.25606853 -0.073162615 0.12435775 -0.07153241 -0.22970872 -0.38011843 0.45768023 0.20388077 -0.23679726 -0.0010518916 0.07986821 0.36761305 0.18585145 0.19391534 0.33737805 -0.009767265 -0.7065877 0.118786 0.2151791
ginecologia 0.10689565 -0.08303946 -0.24448334 0.0020789132 -0.21317486 -0.41285938 0.20197931 0.20658049 0.02778487 -0.17004627 0.23450518 0.1468858 -0.032082465 0.06385382 -0.03776726 -0.15335672 -0.23760599 0.29709232 0.1209059 -0.16036089 -0.022647051 0.046069905 0.21216582 0.13109449 0.11825489 0.23612303 -0.0033783535 -0.45858905 0.06324537 0.12575951
requiero 0.1554228 -0.08680553 -0.3368752 -0.012558164 -0.31267142 -0.56466204 0.2675753 0.3017266 0.05641167 -0.21591327 0.30314603 0.2409852 -0.046748117 0.092370674 -0.07376731 -0.21478437 -0.3369422 0.4113591 0.16214369 -0.20487519 -0.007528535 0.09965685 0.33265382 0.17540565 0.16437292 0.33664557 -0.01508689 -0.6555009 0.122828245 0.2077402
planificacion 0.13341999 -0.10464134 -0.33731994 -0.0100398045 -0.30988076 -0.54907644 0.27116084 0.28831717 0.05833102 -0.22109902 0.2883699 0.23011442 -0.044139985 0.093148746 -0.07232772 -0.18995132 -0.30435875 0.39405838 0.15596682 -0.19877505 -0.00046441774 0.08555082 0.31625313 0.15373121 0.17143731 0.31129378 0.0010582388 -0.60305405 0.09072821 0.19926372
ayudar 0.14579417 -0.10276321 -0.33256033 0.000359631 -0.322527 -0.565459 0.25191528 0.28672642 0.05778352 -0.22247756 0.31029072 0.21365577 -0.046745528 0.11860777 -0.07017568 -0.20599918 -0.33528703 0.39772457 0.18335523 -0.21756107 0.0013790911 0.0913967 0.335727 0.16441578 0.185082 0.3295887 -0.006089018 -0.64590216 0.10716834 0.19720405
urgente 0.17224418 -0.1117785 -0.37897065 -0.026338477 -0.35300556 -0.622987 0.28274927 0.33565646 0.0528995 -0.2474008 0.3372882 0.24097233 -0.06931881 0.12674968 -0.074830204 -0.23682609 -0.359705 0.45030487 0.1902496 -0.23243064 -0.009606374 0.08730543 0.36516854 0.18800656 0.20356588 0.36796618 -0.0011895035 -0.70380616 0.12850042 0.20063144
prenatal 0.14377555 -0.096742526 -0.2971259 -0.018678522 -0.27186385 -0.51696754 0.25362206 0.26361704 0.03087104 -0.19430141 0.2963605 0.19507144 -0.062743895 0.09407559 -0.043288663 -0.1831481 -0.2980462 0.37409702 0.142234 -0.19009598 0.002082425 0.076260366 0.2793362 0.14788608 0.16708747 0.2921739 -0.0030818484 -0.5586587 0.11088383 0.17172268
pelvica 0.14552097 -0.09350516 -0.33778882 0.0025004626 -0.30549228 -0.56177956 0.28158057 0.30330977 0.033545006 -0.2272751 0.30150884 0.2082716 -0.07683032 0.099897526 -0.062515266 -0.21682537 -0.3425509 0.4007979 0.19348076 -0.21233605 0.0065679066 0.06728577 0.3034064 0.16595747 0.17290308 0.30772594 -0.016751317 -0.64668804 0.106101446 0.19369142
faca 0.18322724 -0.12688623 -0.41761577 -0.016169341 -0.38093805 -0.6859244 0.31406265 0.3508078 0.05700789 -0.2759545 0.38832018 0.27793813 -0.078384444 0.11569413 -0.07666352 -0.24169737 -0.4054205 0.4803869 0.19760993 -0.2564251 -0.00044339115 0.10507783 0.39494294 0.19950287 0.21519026 0.36977336 -0.025348322 -0.7781838 0.13790424 0.24638906
quirigua 0.16339244 -0.116153434 -0.34231603 -0.0068774195 -0.32879618 -0.56843245 0.2786507 0.30436292 0.0637421 -0.21673842 0.33471426 0.23887084 -0.06361287 0.09743582 -0.056312885 -0.21629986 -0.33258948 0.42842853 0.19353645 -0.23049256 -0.019382715 0.09713921 0.3182306 0.1791251 0.18921226 0.33295506 0.007119141 -0.65130866 0.100106694 0.20613994
citologia 0.15128732 -0.1171482 -0.37170878 -0.025615005 -0.32651472 -0.58435565 0.29857087 0.3052852 0.0442346 -0.22935562 0.34736985 0.23806207 -0.06410495 0.123311535 -0.06148209 -0.20601325 -0.35945997 0.42607003 0.20423515 -0.23304686 -0.015525599 0.075352296 0.35120595 0.18551894 0.179417 0.33632305 -0.013631874 -0.6688737 0.11821731 0.20959294
meses 0.13865232 -0.09001677 -0.30155957 -0.011945223 -0.28943664 -0.5417304 0.2597 0.26195756 0.055095848 -0.21839865 0.29343972 0.20632389 -0.05863416 0.11336631 -0.047793996 -0.20772061 -0.32776472 0.38023886 0.1612885 -0.20251775 -0.014216398 0.09303322 0.30827832 0.15359434 0.15219307 0.31266904 0.0029000356 -0.60278565 0.08550482 0.1721126
apartar 0.13795014 -0.11143447 -0.35842997 -0.02666726 -0.33009148 -0.5736229 0.27328175 0.27888316 0.04268338 -0.23379068 0.3149165 0.24174052 -0.0561981 0.11252805 -0.06017668 -0.22559297 -0.34689286 0.3999047 0.17698774 -0.21375321 -0.026746912 0.08941837 0.32699147 0.16340517 0.17654952 0.32083532 -0.0032305575 -0.63865 0.105654456 0.2049393
hombro 0.11989131 -0.10099373 -0.30366355 -0.01767067 -0.28362527 -0.5317862 0.23957306 0.265206 0.048625097 -0.21631622 0.28318977 0.20656194 -0.06693141 0.10126931 -0.049342 -0.20148957 -0.29990155 0.36394197 0.1765173 -0.18196347 0.004171625 0.07670388 0.3000609 0.15871832 0.15061447 0.30996746 -0.019365061 -0.5966067 0.10883107 0.17933284
examen 0.11916525 -0.08717252 -0.31242508 -0.004167743 -0.30770904 -0.5266092 0.23794486 0.26126277 0.057901084 -0.20179455 0.28730714 0.21344951 -0.0663966 0.11104262 -0.051732574 -0.18592507 -0.29567516 0.37923893 0.16311847 -0.1849654 -0.0006790301 0.08895528 0.29818633 0.1466405 0.17362648 0.3093668 -0.008923526 -0.58341706 0.107364476 0.18623774
disculpa 0.14696066 -0.12107392 -0.36655638 -0.026412308 -0.3430471 -0.63706493 0.2862376 0.31402507 0.048111476 -0.23879698 0.3599221 0.25285026 -0.08341311 0.12273113 -0.08229789 -0.23648517 -0.3749286 0.4576435 0.19085664 -0.24207328 -0.023548875 0.08229578 0.35211247 0.17670396 0.21037777 0.36185744 -0.018532315 -0.7236996 0.12895924 0.20406634
hl 0.10405764 -0.076319225 -0.25695893 -0.0030968534 -0.23953097 -0.39988333 0.19409795 0.2111226 0.037407614 -0.14735693 0.23335424 0.17006926 -0.055217974 0.08380212 -0.06343583 -0.14354543 -0.24916747 0.30480358 0.14323422 -0.16321994 -0.0089405365 0.054774877 0.2200033 0.11244671 0.128046 0.23521005 -0.009150999 -0.45709825 0.06821898 0.13104668
mamografia 0.14934206 -0.08627435 -0.3177763 -0.024113968 -0.30347255 -0.5632456 0.27641708 0.26802462 0.051155202 -0.22356038 0.30836985 0.22037432 -0.07669568 0.1171629 -0.074616745 -0.19228671 -0.33931246 0.38761428 0.18625757 -0.21872833 0.007034282 0.06715965 0.3296721 0.17293179 0.180811 0.33193836 -0.019405903 -0.6124011 0.112043254 0.20252053
thumbsup 0.14803557 -0.10485014 -0.33061287 -0.014631636 -0.3233221 -0.574103 0.28822246 0.28337628 0.068169795 -0.23457094 0.33103976 0.23868729 -0.060815755 0.12203149 -0.07123085 -0.21635368 -0.3501078 0.42063826 0.20010641 -0.2157073 -0.017039202 0.08066196 0.3424899 0.17103474 0.1689389 0.31754813 -0.006954347 -0.65623635 0.11517466 0.1956816
horario 0.1424545 -0.113507725 -0.35308695 -0.011566803 -0.3258259 -0.6014524 0.2949087 0.30898252 0.056397133 -0.23505159 0.3386246 0.23739648 -0.052062966 0.11898022 -0.06951673 -0.21270025 -0.3437816 0.4376099 0.19446622 -0.20352487 -0.005769346 0.09260153 0.32516283 0.17569475 0.19737206 0.34545964 -0.013117075 -0.66877097 0.10557264 0.20559253
pendiente 0.15347487 -0.10751824 -0.34797403 -0.011845223 -0.30381355 -0.5693076 0.27941877 0.28893638 0.04395897 -0.23352565 0.33685634 0.2201173 -0.049889795 0.089110464 -0.075355045 -0.19473639 -0.33259615 0.41421363 0.1948553 -0.22241604 -0.019389022 0.08051184 0.33331904 0.16151795 0.19568275 0.32110286 -0.0039219395 -0.64789206 0.10049501 0.21025603
dermatologia 0.13788113 -0.08397887 -0.33832374 -0.022581484 -0.33220565 -0.5832221 0.28287512 0.28880543 0.049917117 -0.22817676 0.3029372 0.21554866 -0.053196307 0.120528884 -0.07539709 -0.20427927 -0.3429333 0.3998438 0.18047506 -0.19382347 -0.025281396 0.09381109 0.32241338 0.17756787 0.18571632 0.33725995 -0.0057981038 -0.6552163 0.09336133 0.19617246
porfa 0.14236842 -0.09723425 -0.3257183 -0.028004933 -0.31115326 -0.5197598 0.26407567 0.27056348 0.05171812 -0.22445546 0.29145765 0.20100571 -0.04224158 0.08438981 -0.046182815 -0.18517447 -0.2988285 0.36257502 0.16562061 -0.18969405 0.00121159 0.080377884 0.29210925 0.16641386 0.16102532 0.31111893 -0.025550542 -0.57705075 0.09726895 0.18426132
dr 0.15589857 -0.096837744 -0.38868392 -0.0042688157 -0.35878384 -0.62481815 0.30435112 0.3371293 0.052368153 -0.2642813 0.36201635 0.26024702 -0.0772664 0.12659113 -0.08268718 -0.23959203 -0.38383496 0.4671024 0.21463373 -0.23829079 -0.015942713 0.09264053 0.37392935 0.18274629 0.18506214 0.35811853 0.0046019675 -0.7119176 0.1291491 0.20436236
cercana 0.13345495 -0.09309529 -0.33448553 -0.017621186 -0.3205144 -0.5616434 0.2699093 0.28324494 0.03398478 -0.21680865 0.32524234 0.20924388 -0.059580326 0.11439483 -0.080408305 -0.20312154 -0.33809042 0.41440767 0.17962845 -0.21559386 0.00059481896 0.09265083 0.32204726 0.16100915 0.19033311 0.3195345 -0.024009502 -0.6208632 0.09024508 0.18451692
diciembre 0.15143906 -0.10234141 -0.3468388 -0.025864812 -0.34689927 -0.5918066 0.26933536 0.298906 0.03741797 -0.23215292 0.31891996 0.2413882 -0.054286618 0.095280275 -0.054988515 -0.22058807 -0.34774458 0.41735038 0.20125362 -0.23221062 -0.009993746 0.094457306 0.34951824 0.18750446 0.17603943 0.35290456 -0.023001293 -0.6876364 0.12236573 0.1970712
resultados 0.13622433 -0.09858343 -0.3622597 -0.018917724 -0.33490556 -0.58599937 0.265946 0.28333193 0.04363536 -0.24487403 0.32610717 0.2287118 -0.064402446 0.09285213 -0.07572119 -0.21560901 -0.34843582 0.41810122 0.17198616 -0.20155546 0.0043501686 0.07082165 0.34665447 0.15616874 0.1789282 0.32953775 -0.012004777 -0.6501595 0.11001916 0.21543455
rapido 0.16701898 -0.09853779 -0.3504352 -0.02061886 -0.35237694 -0.58240247 0.28956664 0.32397225 0.04687662 -0.25133085 0.32862765 0.22457872 -0.073071174 0.0958439 -0.061435726 -0.22831362 -0.36764127 0.43286958 0.18813145 -0.2184441 -0.020245604 0.079207346 0.3250698 0.17060313 0.20335479 0.35252404 -0.014788856 -0.67320985 0.11282071 0.20655431
comunico 0.13995287 -0.10477461 -0.30613708 -0.002727979 -0.29336235 -0.5246729 0.2536058 0.26322436 0.030280758 -0.2107843 0.30553868 0.20109619 -0.06896006 0.090561174 -0.054253466 -0.1751275 -0.3092263 0.35281357 0.16749498 -0.17441355 -0.012497162 0.086710304 0.28871605 0.15339702 0.15828295 0.29448992 -0.01330858 -0.5888814 0.08828619 0.18874383
disponible 0.16275057 -0.09067844 -0.35417995 0.0042456617 -0.31864968 -0.5753099 0.2703213 0.31007203 0.062216498 -0.23329054 0.31219354 0.2319882 -0.070191756 0.10814786 -0.06947452 -0.21520074 -0.35619342 0.4083986 0.17720897 -0.22637178 -0.023393638 0.08888666 0.32463446 0.16432354 0.17730255 0.3431753 -0.0016221503 -0.6533123 0.10948214 0.19609232
minutos 0.1426972 -0.10211674 -0.33274588 -0.010121919 -0.3240839 -0.5715887 0.2578854 0.30969366 0.049874697 -0.2402752 0.32445842 0.2329586 -0.08048863 0.09385976 -0.068368934 -0.20407957 -0.32350945 0.40544447 0.16817015 -0.22212647 -0.026925506 0.09980077 0.3414484 0.16784018 0.1938466 0.31128758 -0.022066591 -0.64772266 0.09296857 0.19847444
asignacion 0.14147426 -0.0978467 -0.31140944 -0.016639419 -0.3050009 -0.5384862 0.24623002 0.29894376 0.05921394 -0.21296975 0.29787788 0.22597538 -0.045429 0.09171734 -0.05395922 -0.21648724 -0.33078754 0.39656338 0.17150997 -0.19350854 -0.0007712293 0.08275986 0.30790925 0.16737618 0.17761545 0.3255978 -0.022395484 -0.621296 0.09117392 0.18209125
agendas 0.14783481 -0.09321981 -0.3360335 0.0049973205 -0.316829 -0.5487995 0.2550416 0.2763634 0.047105268 -0.22092012 0.31526172 0.22651838 -0.07700125 0.099450976 -0.06382522 -0.21732351 -0.3464096 0.41750762 0.17254397 -0.21892762 -0.010803693 0.086860776 0.32916495 0.15574977 0.1842898 0.31241927 -0.002147434 -0.64698225 0.10500665 0.1937553
ultima 0.14426868 -0.083341695 -0.3306853 -0.025172278 -0.30172333 -0.5334337 0.23817697 0.26959425 0.06335672 -0.22244978 0.28898212 0.2182413 -0.06537081 0.11084554 -0.076683104 -0.1902606 -0.30956668 0.38818046 0.1668503 -0.1908255 -0.024186492 0.07686496 0.29258147 0.17176613 0.15536013 0.2905899 -0.00060857995 -0.60732853 0.09369131 0.19782777
virtual 0.13442542 -0.07835063 -0.3220552 -0.018170437 -0.3018021 -0.5308652 0.2674718 0.2694265 0.05246989 -0.1980983 0.30251426 0.19433221 -0.045235008 0.11144951 -0.05246398 -0.20242324 -0.3272462 0.38816184 0.18352632 -0.1967925 0.002607495 0.08193273 0.2948921 0.15907066 0.17857485 0.30594704 -0.009235005 -0.6102861 0.08837926 0.19162317
confirmar 0.15421653 -0.10836389 -0.3935352 -0.025296729 -0.38103166 -0.6772825 0.30954054 0.3427954 0.049113035 -0.28154153 0.37096173 0.2807148 -0.0642619 0.12860782 -0.08753193 -0.24367803 -0.4119985 0.46903834 0.19842108 -0.24159114 -0.001482913 0.10004457 0.38950646 0.19394407 0.2208083 0.37421072 -0.01782633 -0.75675493 0.13323742 0.22287227
transvaginal 0.13629793 -0.09875645 -0.32196718 -0.022105299 -0.30821285 -0.57621884 0.27468616 0.30136845 0.054513246 -0.23915604 0.3184295 0.21754125 -0.078430675 0.089852676 -0.07660795 -0.22212146 -0.3342425 0.4110122 0.17437743 -0.2200477 -0.015766598 0.07192388 0.3322181 0.1557315 0.17494176 0.3208981 -0.017510729 -0.653605 0.092907496 0.19122168
ecografias 0.15425168 -0.11792365 -0.37860897 -0.0083265975 -0.35924655 -0.62868834 0.3157204 0.3087894 0.068810426 -0.26222223 0.3580034 0.24007785 -0.062533304 0.10836725 -0.05763216 -0.248104 -0.3637922 0.44926095 0.20003533 -0.23497255 -0.006459761 0.08349369 0.36601743 0.19421084 0.21158348 0.37520456 0.0015019524 -0.70260537 0.10472197 0.20449851
transductor_mhz 0.1471307 -0.10306067 -0.33961016 -0.020864965 -0.31172913 -0.53781724 0.24451198 0.28753436 0.0349077 -0.20882256 0.29604176 0.20404162 -0.068874076 0.10659349 -0.06961527 -0.19600046 -0.31899744 0.39882007 0.15716496 -0.19041565 -0.022474827 0.06997138 0.3271613 0.16183761 0.17938732 0.3103494 -0.0016133614 -0.62413234 0.08809889 0.2033789
familiar 0.13124652 -0.10583334 -0.32244518 0.004230402 -0.31260145 -0.5611939 0.25973117 0.26613334 0.033568036 -0.20509622 0.30311587 0.2208679 -0.07724934 0.08890876 -0.05742516 -0.19568005 -0.32465404 0.4076256 0.16227165 -0.20318896 -0.0058810883 0.08222074 0.32674786 0.15007374 0.1578601 0.32262734 0.002430335 -0.64214414 0.104198664 0.19926456
queda 0.14385879 -0.11211976 -0.34571248 -0.005770452 -0.32825097 -0.56556463 0.269649 0.2783454 0.06596112 -0.23326501 0.30672935 0.22250491 -0.07841256 0.10912777 -0.06357199 -0.20306298 -0.32348135 0.42267686 0.17105286 -0.19211835 -0.014810638 0.08875286 0.31616217 0.17871042 0.18974708 0.33135507 -0.0022606223 -0.6562921 0.10981542 0.20742378
lunes 0.14975153 -0.10659869 -0.3945438 -0.012704543 -0.3586582 -0.6485946 0.29770896 0.3494573 0.06417101 -0.2604923 0.35028023 0.2479456 -0.056090195 0.11711607 -0.08257723 -0.24711724 -0.3875346 0.44966227 0.21481234 -0.24141374 0.0023126933 0.10870488 0.3856362 0.19538182 0.19645219 0.38598984 -0.013175955 -0.7431302 0.11089557 0.20961212
sistema 0.16716342 -0.09775955 -0.37295634 -0.021578597 -0.31987867 -0.5985299 0.29891405 0.30620298 0.045394823 -0.23179525 0.33249024 0.23172036 -0.07224973 0.123637624 -0.081665576 -0.23094693 -0.34240255 0.42165807 0.19092965 -0.22171701 -0.006360344 0.10405788 0.3378735 0.16057569 0.20409063 0.35320458 -0.023026513 -0.6787342 0.12898558 0.21831378
interna 0.18066758 -0.10426093 -0.37095252 -0.008122054 -0.38198036 -0.644026 0.30245402 0.33589587 0.045715373 -0.27550188 0.37166497 0.2776823 -0.07920619 0.13727055 -0.073078156 -0.23945911 -0.3889257 0.47350472 0.2179142 -0.24856098 -0.025082083 0.082114175 0.37542543 0.20305367 0.19094874 0.3862163 -0.006068336 -0.732592 0.11472668 0.2299944
nesecito 0.118469395 -0.076578245 -0.25988257 -0.014148303 -0.2553478 -0.4356744 0.21609391 0.23615332 0.023899922 -0.17704754 0.26342702 0.18525743 -0.04342873 0.08749982 -0.06724775 -0.14685531 -0.25815177 0.3217723 0.12875992 -0.1596815 -0.011608215 0.06822387 0.25975817 0.13076834 0.13714749 0.23510523 -0.013176468 -0.49751827 0.067571 0.15164909
envio 0.16555274 -0.10824817 -0.3479284 -0.014862784 -0.346804 -0.5982483 0.29443777 0.3186489 0.05612705 -0.25066257 0.3201465 0.233626 -0.081761524 0.10672876 -0.08290554 -0.20555492 -0.35225123 0.43154526 0.19330329 -0.22500044 0.0041119326 0.075501546 0.3294888 0.17687172 0.19682617 0.3264292 -0.015364598 -0.6847862 0.12165021 0.19409814
abdomen_total 0.091704704 -0.07486213 -0.23257406 -0.0032424657 -0.21015285 -0.3566639 0.18455674 0.20231603 0.040909063 -0.14618081 0.2205529 0.15067492 -0.03384885 0.05576177 -0.048143458 -0.14700662 -0.2216258 0.27498078 0.12192856 -0.12882729 -0.0033667171 0.05046949 0.20581558 0.0994695 0.13351624 0.21775731 -0.02327567 -0.43065286 0.07047539 0.14019588
urinarias 0.12297367 -0.08821838 -0.27333882 -0.018930838 -0.2627635 -0.49062693 0.23721945 0.251762 0.042524338 -0.17892241 0.2863942 0.19024876 -0.06826784 0.105528034 -0.06715108 -0.16032375 -0.26824737 0.33004406 0.15929992 -0.1676441 -0.0061778245 0.06884995 0.26959556 0.15099627 0.15312958 0.28207228 -0.015372976 -0.54715014 0.087930374 0.15880555
ap_lateral 0.15285918 -0.11203902 -0.39332074 -0.0049682036 -0.3711575 -0.6503981 0.33269757 0.333172 0.04611139 -0.2694226 0.38210678 0.27864367 -0.08073244 0.13069294 -0.059226967 -0.22659175 -0.40071717 0.47466943 0.19264047 -0.23634703 0.0018696985 0.10389651 0.36624235 0.196998 0.22573967 0.38122255 -0.008315299 -0.7529711 0.1385619 0.23768048
famisanar 0.14502287 -0.11351676 -0.3426711 0.001590432 -0.31834224 -0.5836588 0.2921156 0.2958793 0.039114255 -0.24620984 0.3164652 0.21663031 -0.06586175 0.12580103 -0.07603175 -0.2299719 -0.331516 0.40523422 0.18809858 -0.20158513 -0.0041136947 0.08403675 0.3357077 0.1809497 0.16851632 0.32302794 -0.020043842 -0.6641143 0.108747736 0.18662378
pagina 0.15873557 -0.08788507 -0.34513322 -0.025647163 -0.3245142 -0.5673336 0.2598704 0.27619985 0.03853354 -0.2140926 0.32423007 0.23099557 -0.055457853 0.11976957 -0.06416012 -0.19626276 -0.32435444 0.3941893 0.19135804 -0.21542554 -0.012403882 0.10047128 0.30975026 0.17872086 0.17237821 0.30888858 -0.017004391 -0.61906606 0.10118718 0.19714518
responder 0.14265728 -0.07921081 -0.29163045 -0.012987645 -0.29696274 -0.51971775 0.2442847 0.26246127 0.039715003 -0.22025195 0.27729693 0.20208941 -0.07228782 0.08405283 -0.07464624 -0.18953931 -0.31741285 0.37935385 0.15685081 -0.18524876 -0.007527125 0.07102285 0.30311042 0.13650373 0.1647558 0.30078825 -0.003499429 -0.57567173 0.10502463 0.18598358
osea 0.1851206 -0.12718709 -0.38489303 -0.009617393 -0.38951388 -0.67046046 0.31815705 0.34692937 0.059626587 -0.28331667 0.38582286 0.2668104 -0.08858039 0.12899515 -0.069088325 -0.23277962 -0.39961857 0.48623803 0.21689786 -0.23383732 -0.003136325 0.10925596 0.3855665 0.20561199 0.19990462 0.37717396 -0.010755643 -0.77133644 0.13271572 0.24438268
edad 0.15620938 -0.10383485 -0.34142315 -0.003474351 -0.31306723 -0.5517687 0.2598926 0.26924568 0.04125004 -0.22874254 0.3229322 0.22720627 -0.048133243 0.10536581 -0.06534796 -0.19304375 -0.3109515 0.3940983 0.15969011 -0.2177706 -0.009201888 0.090989605 0.31714448 0.15477823 0.17328666 0.32884523 -0.021792028 -0.6172158 0.09167228 0.1814099
abren 0.12943916 -0.08020691 -0.3079206 -0.019078115 -0.26764122 -0.47518924 0.22328952 0.24670853 0.053573716 -0.209888 0.2904522 0.21173142 -0.063289516 0.07497318 -0.04443007 -0.16736701 -0.2981928 0.347612 0.14539756 -0.1639509 -0.013326186 0.08729157 0.2957031 0.15082613 0.16570388 0.2959039 0.0057155215 -0.5424593 0.091640994 0.15609269
documento 0.1588429 -0.11642806 -0.3429345 -0.003375543 -0.33374146 -0.5828625 0.28587458 0.29478574 0.0670598 -0.23574181 0.32817927 0.2333454 -0.06961966 0.11205194 -0.060603872 -0.20658527 -0.3704627 0.42958826 0.20414403 -0.20382081 -0.0045171566 0.07941952 0.35297683 0.16330642 0.1808479 0.34625882 -0.0038783345 -0.66600275 0.11008705 0.21232273
reprogramar 0.14025849 -0.12314753 -0.36568713 -0.017955482 -0.3480039 -0.6038968 0.27434248 0.323317 0.041298095 -0.25212762 0.35260674 0.23093471 -0.06594522 0.12524678 -0.07020651 -0.22668143 -0.35078913 0.42795 0.20673046 -0.23600034 -0.023545716 0.08766712 0.35743177 0.19012949 0.20333004 0.34046045 -0.0101358555 -0.70232993 0.11506957 0.22394483
abdomen 0.13708574 -0.100271456 -0.29304305 0.0022298298 -0.29286695 -0.5074274 0.23417468 0.24354674 0.03565748 -0.19246726 0.27119076 0.2020181 -0.064027146 0.093355596 -0.05430068 -0.18337609 -0.31127167 0.34230807 0.14757584 -0.18993098 -8.710976e-05 0.08111329 0.2739393 0.15198103 0.16614975 0.2856797 0.00010035231 -0.5517656 0.08093777 0.15818003
articular 0.15423441 -0.08544442 -0.33372402 -0.009129706 -0.32954565 -0.57040274 0.2698607 0.27876204 0.064185835 -0.21955243 0.3099187 0.21859372 -0.07117773 0.104346596 -0.067612484 -0.21531948 -0.3567935 0.40122175 0.18578203 -0.20740262 -0.0032573508 0.09656302 0.34210336 0.16383936 0.19091156 0.3211184 -0.02386944 -0.6377374 0.096267685 0.19751766
febrero 0.16751705 -0.11413087 -0.37290573 -0.00090978167 -0.34346542 -0.62400824 0.27638477 0.3109869 0.0419435 -0.23563157 0.3550599 0.23422642 -0.05291289 0.098905906 -0.06792958 -0.21779542 -0.37468165 0.45613766 0.18508369 -0.23807466 -0.004851297 0.07773314 0.340359 0.174436 0.1818815 0.35120735 0.0031720304 -0.6834513 0.13386129 0.20991868
transductor 0.10172501 -0.06289014 -0.26829904 -0.0080315685 -0.24138883 -0.44432473 0.2199742 0.22692046 0.05495471 -0.16926377 0.24837798 0.17557782 -0.048153866 0.0745975 -0.06225135 -0.16554889 -0.2742188 0.30930397 0.15372439 -0.16368772 -0.0034615644 0.0697241 0.25580445 0.14803648 0.12908171 0.25038826 -0.011876031 -0.5102224 0.077581815 0.14762102
resonancia 0.17142779 -0.13169853 -0.42108262 -0.018710796 -0.377119 -0.6941714 0.32933173 0.33544165 0.07164346 -0.27835926 0.3774101 0.26518628 -0.08034868 0.1260043 -0.07305881 -0.2641637 -0.40772143 0.4953293 0.20597386 -0.25738645 -0.027329592 0.0915981 0.3971607 0.1899165 0.2028859 0.38700908 -0.024772802 -0.76039726 0.134656 0.24842404
llamada 0.16341507 -0.11920151 -0.3473866 0.004365179 -0.339476 -0.5941662 0.29216456 0.30083066 0.062290903 -0.25354213 0.3347035 0.2274131 -0.055490796 0.11255041 -0.064988635 -0.22681503 -0.34675992 0.41865307 0.19051427 -0.21013537 -0.011600643 0.10630747 0.3402787 0.19315355 0.20094964 0.33674324 0.0023282953 -0.6773587 0.11822917 0.2186624
bn 0.16950122 -0.107032344 -0.37873024 -0.023213858 -0.34576395 -0.6247084 0.30540577 0.32587403 0.044254895 -0.23622139 0.3445666 0.24540056 -0.07639544 0.1136321 -0.068006754 -0.2277664 -0.36461675 0.4465351 0.1862352 -0.2159646 -0.014861221 0.102871686 0.34995237 0.1728258 0.2087518 0.3356003 -0.015795026 -0.69844586 0.104565874 0.22408591
crecimiento_desarrollo 0.13707153 -0.0765822 -0.29936424 -0.011584803 -0.28370565 -0.51978314 0.25728658 0.25191602 0.06271772 -0.20033371 0.31116858 0.19569147 -0.05885138 0.09913433 -0.060557846 -0.1835465 -0.30736065 0.359211 0.15257561 -0.17614394 0.005743763 0.06908453 0.29793742 0.16266946 0.16890998 0.29270697 -0.007972435 -0.5924684 0.1167383 0.19749707
cirugia 0.11893825 -0.106798254 -0.3219258 0.0003912992 -0.2906181 -0.5114493 0.23743583 0.28081453 0.054290354 -0.19260713 0.308419 0.20271137 -0.07104722 0.08266927 -0.057293847 -0.1796056 -0.31470117 0.3771883 0.15025075 -0.20168291 -0.0058653597 0.07464226 0.30922192 0.14588648 0.163829 0.29897052 -0.010539242 -0.6018602 0.08642024 0.1943585
buscando 0.10971486 -0.06430949 -0.27901492 0.0010383927 -0.2517648 -0.45603615 0.20345688 0.23926383 0.042706385 -0.16843334 0.25250375 0.19294196 -0.055764697 0.07676345 -0.05406288 -0.18460943 -0.2799069 0.3343568 0.14643283 -0.17220913 -0.020111615 0.06040823 0.26559246 0.13773079 0.1384321 0.24582285 -0.015763547 -0.52906084 0.09685378 0.15595973
solicitarrndo 0.121218584 -0.08532454 -0.33472905 0.0019661258 -0.29257396 -0.54414934 0.24913222 0.28111237 0.060887925 -0.22738549 0.28675184 0.22103035 -0.061658967 0.10852457 -0.065429896 -0.18941393 -0.30364385 0.38489634 0.18631013 -0.19717133 -0.022358662 0.06463761 0.29270086 0.15535599 0.15897077 0.31160775 -0.021235513 -0.59978515 0.095751256 0.17547585
cundinamarca 0.123508215 -0.08302878 -0.29975075 -0.010786177 -0.3067747 -0.52887785 0.24151324 0.24933746 0.05289554 -0.22280455 0.27819905 0.215134 -0.054563057 0.095950656 -0.06530994 -0.20361002 -0.31294358 0.3662876 0.15326062 -0.18544592 -0.021055406 0.06473394 0.3025286 0.15543959 0.15542555 0.29985934 0.0048876014 -0.58574647 0.09378955 0.17728831
comunicar 0.14733467 -0.08528296 -0.30629852 0.005680264 -0.31052542 -0.53496826 0.2501475 0.25833985 0.044425268 -0.20942675 0.2860964 0.2029123 -0.07380253 0.098076 -0.04769572 -0.20529927 -0.3189891 0.37759137 0.15038326 -0.19549584 -0.018914968 0.070446864 0.29788652 0.1396693 0.16396171 0.2850715 -0.026460841 -0.5987609 0.096035846 0.17457959
rehabilitacion 0.17158547 -0.09791943 -0.399383 -0.006045416 -0.34317553 -0.6308334 0.29713732 0.33076018 0.0445817 -0.27514058 0.37614182 0.25074092 -0.08732269 0.10517653 -0.07884883 -0.22376342 -0.36851072 0.44557926 0.21582167 -0.22285798 -0.0048066904 0.08026366 0.35169044 0.19167075 0.22012617 0.35725194 -0.01958568 -0.7455184 0.13660696 0.20328298
traumatologia 0.13363147 -0.08370517 -0.28558573 -0.0055455975 -0.27494174 -0.5011322 0.2157013 0.25036594 0.043310083 -0.17959175 0.27446726 0.18120188 -0.06978928 0.10075851 -0.03910276 -0.18037932 -0.27371773 0.33583155 0.15933484 -0.18952416 -0.0075230817 0.05982737 0.26749402 0.15219215 0.15073559 0.27246872 -0.024405763 -0.5480433 0.1032706 0.17729436
escribir 0.12628582 -0.07896022 -0.30537483 -0.013929613 -0.31268334 -0.5436979 0.26148576 0.28855932 0.037791062 -0.2254855 0.31770742 0.22509333 -0.044672612 0.10291795 -0.07168923 -0.19997726 -0.3223435 0.3917095 0.16874544 -0.19117668 -0.012613789 0.08015641 0.3139958 0.16086277 0.17260787 0.31357598 -0.02746921 -0.6097469 0.104621135 0.1971265
sicologia 0.15163876 -0.09222191 -0.30962113 -0.017870236 -0.30124465 -0.5475565 0.25925195 0.29601836 0.034161676 -0.22038865 0.30250043 0.23384641 -0.054364298 0.08525441 -0.078983486 -0.21208146 -0.3191551 0.37617853 0.15794511 -0.19071832 -0.01109881 0.07227452 0.29325414 0.16336283 0.15828857 0.31218943 -0.011398354 -0.6069776 0.09637485 0.19361357
nutricionista 0.10539965 -0.086748905 -0.27244 -0.02328261 -0.2620894 -0.47321516 0.21538115 0.24047431 0.053613693 -0.19965638 0.272857 0.19451112 -0.06511998 0.10412184 -0.052373596 -0.17272177 -0.27620545 0.34901726 0.15650605 -0.17455682 -0.019362362 0.07360416 0.26017344 0.1480295 0.15444136 0.25756457 -0.016299771 -0.5542263 0.08280754 0.16250399
prioritaria 0.10836866 -0.07312956 -0.2661537 -0.00011028258 -0.2798084 -0.47906834 0.22617388 0.25236082 0.0348149 -0.17595331 0.25713202 0.18355533 -0.050729215 0.078334406 -0.052521054 -0.19173089 -0.26874825 0.34721467 0.16636647 -0.16486172 -0.0115558505 0.06700048 0.26943806 0.14921287 0.14456451 0.25471815 -0.008888255 -0.54408574 0.08275198 0.17441006
colaboracion 0.14579652 -0.08735153 -0.3138178 0.00414686 -0.32567772 -0.54172426 0.25476354 0.285695 0.041473083 -0.21665576 0.32198113 0.2343264 -0.060213856 0.092137314 -0.067962416 -0.21842565 -0.32108977 0.41129193 0.16782965 -0.209491 -0.0018680772 0.09171479 0.32083687 0.16502208 0.18629494 0.31737542 -0.011450436 -0.6124795 0.10726313 0.19566004
gestionar 0.13974419 -0.1115586 -0.34162426 0.0043101506 -0.31825003 -0.5576028 0.26893285 0.28316545 0.0425469 -0.23085038 0.33235073 0.2374771 -0.06747526 0.11691395 -0.07609216 -0.20641863 -0.3438187 0.42030206 0.19195497 -0.19542567 0.0038565337 0.094609454 0.33987415 0.17774057 0.18331404 0.32078663 -0.0020520783 -0.63068354 0.12284226 0.20300701
demoran 0.12178312 -0.07501123 -0.28728047 0.0034558903 -0.29285064 -0.48601452 0.22221932 0.26856485 0.042627614 -0.1947389 0.2669547 0.21546635 -0.05416974 0.09325346 -0.07505579 -0.1776102 -0.2986505 0.3596955 0.17348513 -0.19094975 0.0037700078 0.087322436 0.28721717 0.15871015 0.16343102 0.30137753 -0.023005053 -0.55449605 0.10993549 0.1679888
endocrinologia 0.1451115 -0.119685695 -0.36675423 -0.010561406 -0.34081092 -0.60684144 0.27528137 0.29323605 0.060014065 -0.2483894 0.3359001 0.22354542 -0.0618807 0.09967533 -0.053940162 -0.22893517 -0.36975464 0.41503012 0.20224766 -0.21904981 0.0043116384 0.08314467 0.3522947 0.18610662 0.19825433 0.3573333 -0.027026368 -0.68540967 0.10169149 0.20764162
tobillo 0.14795542 -0.11185666 -0.36354545 -0.025231304 -0.34076783 -0.64490217 0.31184503 0.321769 0.06718369 -0.26945052 0.3719216 0.24026884 -0.067676 0.13177653 -0.065694325 -0.2252643 -0.38690707 0.46361905 0.18569641 -0.23399763 -0.028421212 0.08829182 0.3759935 0.19997796 0.2133659 0.3475056 -0.027852064 -0.7353377 0.12357291 0.21126862
nesesito 0.13306324 -0.09790572 -0.32126686 -0.021223279 -0.31850162 -0.54067636 0.2452846 0.26277062 0.03459839 -0.22107683 0.30487537 0.22310732 -0.07316711 0.08531814 -0.07153778 -0.2012157 -0.3118615 0.39169437 0.16295117 -0.18909088 0.0036017764 0.09450268 0.2964355 0.14928971 0.18390478 0.31782314 -0.019586965 -0.61776674 0.095369294 0.2037633
caderas 0.12359336 -0.07657115 -0.29790437 -0.0064926012 -0.26566 -0.49319333 0.22761664 0.24501191 0.034803666 -0.20121759 0.2737945 0.18090566 -0.05487364 0.09068113 -0.054156665 -0.19369155 -0.29332373 0.3648151 0.16521293 -0.19072121 -0.014323118 0.07572784 0.26752535 0.1604155 0.16171382 0.2657211 -0.025384659 -0.54280496 0.07678251 0.1553168
codigo 0.16195764 -0.12632595 -0.42433771 -0.018897533 -0.37376526 -0.68808377 0.32637003 0.35726303 0.061656512 -0.2861375 0.3769829 0.26254568 -0.07663627 0.12275887 -0.07334404 -0.2544439 -0.41387793 0.48455092 0.23687194 -0.2514627 -0.024736542 0.09143256 0.39226243 0.21212944 0.21096243 0.3916382 -0.002737809 -0.80262935 0.14103115 0.2504546
radiografias 0.12426974 -0.083652556 -0.30821297 -0.020665048 -0.27159837 -0.49944744 0.23146448 0.26009744 0.041438174 -0.19133991 0.27210483 0.20593187 -0.041245952 0.0839266 -0.068479635 -0.20025255 -0.3019552 0.3756332 0.17221047 -0.17540117 0.0072321026 0.07670361 0.29462957 0.14940828 0.1636389 0.27793765 -0.023905572 -0.5869429 0.09943156 0.16646092
ocupacional 0.17555742 -0.09266488 -0.38383517 -0.016672524 -0.36891714 -0.63010913 0.31185222 0.32617915 0.059613865 -0.23692839 0.36190745 0.2607431 -0.07447878 0.10090577 -0.07844309 -0.21621278 -0.37558565 0.4616667 0.21271423 -0.23974368 -0.0028266318 0.10592262 0.352603 0.16978972 0.18218932 0.36157897 -0.02312872 -0.69786036 0.13283937 0.2182119
excelente 0.1195078 -0.0884509 -0.282834 -0.010940094 -0.25473663 -0.47117198 0.22581024 0.2483781 0.028012004 -0.17698076 0.2680349 0.19493112 -0.058588784 0.08397609 -0.04130448 -0.16907465 -0.25601315 0.3425297 0.15521222 -0.17022611 0.002920802 0.07122274 0.25870448 0.14620164 0.15471804 0.2667237 -0.024481745 -0.5154228 0.090276666 0.15927128
grinning_eyes 0.11582308 -0.07415511 -0.25784758 -0.021207832 -0.23716038 -0.40948653 0.18773352 0.20211746 0.036237407 -0.16243418 0.23708405 0.16138934 -0.043858085 0.08153512 -0.03372472 -0.14344972 -0.23306935 0.28818354 0.121332295 -0.13287391 -0.0025510187 0.05111303 0.21542968 0.110663325 0.13909766 0.21772987 0.004035281 -0.45303237 0.0799339 0.13034189
adulto 0.11055048 -0.07965535 -0.25692648 -0.008422858 -0.2361539 -0.42719263 0.19813235 0.24102989 0.036258418 -0.17078558 0.26569465 0.18802077 -0.043239478 0.080336176 -0.04216254 -0.16410492 -0.2607177 0.32500786 0.13898061 -0.17140675 -0.016013864 0.055686 0.25239173 0.13883828 0.15605512 0.25381392 -0.020604417 -0.5118392 0.08045978 0.14228539
cafan 0.11600818 -0.098238915 -0.2950545 -0.012146726 -0.27440986 -0.46838838 0.21403374 0.2563124 0.028943293 -0.1904445 0.2811738 0.18208252 -0.045498054 0.09686332 -0.050843935 -0.16488737 -0.27287164 0.34842044 0.13375641 -0.17332993 -0.005135794 0.059396073 0.2788884 0.14545651 0.15981591 0.28226116 -0.00020781477 -0.5372465 0.09097747 0.14888547
confirmas 0.16441387 -0.098394565 -0.3516034 -0.019530365 -0.3310218 -0.6076969 0.28682417 0.31569147 0.046655294 -0.24712971 0.34293073 0.22606719 -0.055429034 0.10743638 -0.08348889 -0.21060155 -0.3447508 0.4230222 0.18950391 -0.23268849 0.0040965015 0.07379969 0.34246594 0.17058712 0.1962832 0.33908734 0.0033013439 -0.6790119 0.12458689 0.21402466
atiende 0.1167973 -0.093005724 -0.2715791 -0.015835967 -0.25222802 -0.47697356 0.233075 0.24122658 0.05630858 -0.19181386 0.2672281 0.18890938 -0.044837568 0.07110954 -0.0561987 -0.17234062 -0.2903727 0.33582968 0.14213353 -0.16059639 -0.0023047547 0.062944755 0.26453385 0.13358267 0.14931507 0.2820158 -0.005253893 -0.5176417 0.08723673 0.17192057
telefonica 0.12377531 -0.07982926 -0.32065833 -0.0145175485 -0.3043634 -0.5486003 0.25605655 0.29227084 0.053194176 -0.22463527 0.28944197 0.21956176 -0.068741165 0.0886853 -0.0776885 -0.21282408 -0.3170491 0.38910708 0.17666648 -0.18255161 0.0050577964 0.07622272 0.29496574 0.1602337 0.16415966 0.29333615 0.005008334 -0.60812086 0.120197356 0.17110303
urgencia 0.11674836 -0.08331996 -0.29392856 -0.0129729565 -0.2656074 -0.47462907 0.21119961 0.24054474 0.05096247 -0.17932734 0.28046012 0.19096799 -0.05016917 0.078614935 -0.06683691 -0.18573359 -0.27784333 0.33028802 0.14832455 -0.18774496 -0.009647317 0.08644338 0.28090945 0.15530722 0.15540142 0.2639477 -0.01695101 -0.55157673 0.075936936 0.16871843
medicas 0.114016645 -0.08271354 -0.31483737 -0.016514568 -0.2821104 -0.49454963 0.24985456 0.2527976 0.05024075 -0.2187588 0.2873921 0.18941121 -0.052730307 0.09372782 -0.07473296 -0.20106676 -0.31445706 0.3762427 0.16488527 -0.17575759 -0.017779296 0.07258965 0.27621245 0.14741735 0.1483006 0.28800324 0.0047529703 -0.5677806 0.09149946 0.18112695
atienden 0.13404115 -0.07840993 -0.29790497 -0.0192682 -0.2651984 -0.48772317 0.24519603 0.2642777 0.05638902 -0.1946138 0.25939345 0.17794493 -0.052976776 0.087061204 -0.04410743 -0.1864246 -0.28826496 0.34166768 0.16789298 -0.19138344 0.0002175081 0.070096835 0.26484948 0.15069743 0.14758551 0.26645553 0.0072064986 -0.5531681 0.08200523 0.1695456
comparativas 0.164463 -0.116302066 -0.3719424 0.00024045106 -0.3273537 -0.5882134 0.2945222 0.31435814 0.06931482 -0.24218611 0.34425417 0.25392807 -0.05930891 0.120649755 -0.07824871 -0.22014406 -0.35118952 0.43665582 0.20725217 -0.22736953 -0.014638237 0.08144144 0.34845906 0.1974429 0.179866 0.357915 -0.018458424 -0.70182735 0.10944341 0.21980214
horarios 0.14189063 -0.102486886 -0.34594017 0.0052333204 -0.33385515 -0.5553876 0.28570157 0.2932922 0.045742117 -0.21695568 0.3318997 0.2416815 -0.0666516 0.09987446 -0.07433553 -0.19303605 -0.33671775 0.39705274 0.18420523 -0.21210754 -0.011880373 0.07991596 0.3092473 0.17505404 0.18255675 0.33554 0.005040225 -0.6432119 0.11104784 0.18366504
necesita 0.15916935 -0.08815297 -0.32910383 -0.003818234 -0.31101322 -0.56126875 0.2685748 0.29938713 0.054033566 -0.23522559 0.30500144 0.22811219 -0.0721581 0.09510111 -0.06900738 -0.20576118 -0.32825544 0.39902145 0.17558901 -0.19888902 -0.008601076 0.07174367 0.30537584 0.17739888 0.17705299 0.3102224 0.005561179 -0.6547062 0.110582225 0.20679289
contestar 0.08567942 -0.053781178 -0.23515081 -0.0045967237 -0.22948408 -0.39286572 0.19938083 0.20355502 0.042879496 -0.14319876 0.22162697 0.17464817 -0.031284336 0.07601193 -0.06279919 -0.12992935 -0.24930078 0.27670184 0.12917459 -0.14168409 -0.004836216 0.04570354 0.22444245 0.12774266 0.13048673 0.2126528 -0.0137298405 -0.4373234 0.079335675 0.15130806
usuario 0.1387631 -0.0865054 -0.29015315 -0.01371399 -0.2787854 -0.4864169 0.21908055 0.25066108 0.037157364 -0.19056934 0.26987496 0.20456739 -0.070372604 0.10417291 -0.05441555 -0.18923141 -0.30070016 0.34665644 0.15609078 -0.17653488 -0.024286754 0.086348906 0.27074623 0.12803666 0.15946786 0.2869931 -0.019961186 -0.5652333 0.08985863 0.17906652
alcanzo 0.121767685 -0.08683095 -0.30369875 0.005277625 -0.2593158 -0.48495412 0.2436885 0.24633564 0.04807935 -0.19925547 0.27860653 0.18487199 -0.060343593 0.08847921 -0.049957827 -0.17136025 -0.2810938 0.35003638 0.1650822 -0.18353975 -0.0004718352 0.07864603 0.26761192 0.14036544 0.14524323 0.2806909 0.003921595 -0.53702027 0.10133201 0.17575088
internista 0.16159907 -0.11119204 -0.36493102 0.0017081214 -0.3197242 -0.59600955 0.2906229 0.3185396 0.058807023 -0.2331445 0.3500823 0.23115472 -0.053079076 0.10524779 -0.07263826 -0.21023051 -0.35314375 0.44109705 0.20366427 -0.2099225 -0.022343285 0.095467344 0.34161818 0.18939088 0.18156977 0.34402096 -0.00047859072 -0.662931 0.12812254 0.21358448
esposa 0.15064782 -0.090482324 -0.33239537 -0.012027406 -0.31933504 -0.5405076 0.26313484 0.279262 0.04928612 -0.20890462 0.3242086 0.22660443 -0.07345274 0.10209597 -0.0652885 -0.1955279 -0.3344748 0.38497612 0.1657936 -0.19012783 0.0012403617 0.09282743 0.30025986 0.16972058 0.18382676 0.3196905 -0.019940617 -0.63946956 0.10645787 0.17415585
solicitud 0.12341284 -0.080376804 -0.31720892 -0.014519915 -0.27533168 -0.50757116 0.25756186 0.26856327 0.048508067 -0.20951913 0.27949318 0.19110261 -0.060411014 0.084645756 -0.042607553 -0.18307334 -0.30136216 0.35156026 0.15705325 -0.17426147 0.00503762 0.09004004 0.28013036 0.15439041 0.14910269 0.303024 -0.019060848 -0.5721645 0.08402495 0.17293909
digitos 0.11462819 -0.07015719 -0.29395357 -0.00019515652 -0.2948994 -0.51370686 0.24796355 0.27063373 0.04660059 -0.20624262 0.29702467 0.19790561 -0.059338074 0.09129771 -0.061030276 -0.172868 -0.3125072 0.3535844 0.1446298 -0.18828017 -0.022909788 0.0906746 0.29065892 0.14198633 0.15522349 0.28688514 -0.01727922 -0.565727 0.08300888 0.16897559
doc 0.14489089 -0.079574004 -0.33482897 -0.022318145 -0.30776393 -0.5288603 0.26247692 0.28479815 0.05045041 -0.1968819 0.3073725 0.1969056 -0.056695092 0.09142138 -0.06324797 -0.21281141 -0.31058958 0.38272953 0.17746195 -0.20383495 -0.018600399 0.06856597 0.28852618 0.16922553 0.17797227 0.3124756 0.0059897793 -0.6056861 0.11816826 0.18870953
odontologica 0.086912476 -0.067562945 -0.23399946 -0.022598766 -0.21926825 -0.40512353 0.18993595 0.18270493 0.03277443 -0.14816277 0.20506844 0.1434613 -0.05005375 0.085841045 -0.051504135 -0.15496664 -0.23673159 0.2667093 0.1375805 -0.13663962 0.0066071437 0.045315906 0.23731808 0.12407105 0.114419505 0.2235092 -0.02373322 -0.45144656 0.088994816 0.13092081
oftalmologia 0.09365227 -0.076280035 -0.22141851 -0.015467446 -0.20488405 -0.38229775 0.18459271 0.2038131 0.040521495 -0.16101938 0.22001332 0.16172445 -0.029270265 0.07105047 -0.056063704 -0.14816476 -0.2231926 0.2843974 0.11573048 -0.13522688 -0.010388591 0.047136698 0.2065326 0.10386256 0.10474296 0.21108933 -0.018410385 -0.43280432 0.058279406 0.14101309
cervical 0.09803257 -0.094637156 -0.26824528 -3.905287e-05 -0.2442043 -0.45422515 0.21704918 0.23219469 0.05469303 -0.1879693 0.25073084 0.18232585 -0.03548274 0.079673156 -0.042119283 -0.15567985 -0.26300666 0.32340983 0.14279449 -0.1702846 -0.00039673943 0.06695197 0.24289925 0.13351668 0.14619856 0.27070588 -0.0057337135 -0.5035202 0.09137244 0.16323489
ecocardiograma 0.12253508 -0.077809304 -0.29617375 -0.015852058 -0.30206552 -0.51850533 0.25834996 0.26830316 0.028669627 -0.19709262 0.2922001 0.1918996 -0.07162109 0.10022793 -0.06552777 -0.19159108 -0.28841317 0.36981314 0.144817 -0.19787416 -0.009557864 0.08040907 0.29210076 0.13667156 0.16915998 0.30015838 0.002228199 -0.5593682 0.111815356 0.16271746
